gbdt
num_class=9
label_index=0
max_feature_idx=92
objective=multiclass
sigmoid=-1
feature_names=Column_0 Column_1 Column_2 Column_3 Column_4 Column_5 Column_6 Column_7 Column_8 Column_9 Column_10 Column_11 Column_12 Column_13 Column_14 Column_15 Column_16 Column_17 Column_18 Column_19 Column_20 Column_21 Column_22 Column_23 Column_24 Column_25 Column_26 Column_27 Column_28 Column_29 Column_30 Column_31 Column_32 Column_33 Column_34 Column_35 Column_36 Column_37 Column_38 Column_39 Column_40 Column_41 Column_42 Column_43 Column_44 Column_45 Column_46 Column_47 Column_48 Column_49 Column_50 Column_51 Column_52 Column_53 Column_54 Column_55 Column_56 Column_57 Column_58 Column_59 Column_60 Column_61 Column_62 Column_63 Column_64 Column_65 Column_66 Column_67 Column_68 Column_69 Column_70 Column_71 Column_72 Column_73 Column_74 Column_75 Column_76 Column_77 Column_78 Column_79 Column_80 Column_81 Column_82 Column_83 Column_84 Column_85 Column_86 Column_87 Column_88 Column_89 Column_90 Column_91 Column_92

Tree=0
num_leaves=31
split_feature=16 15 77 83 57 24 59 52 47 76 24 91 78 16 39 75 61 15 89 77 14 10 24 23 35 39 66 85 35 86
split_gain=227.123 83.336 78.067 74.4596 64.0584 64.7414 56.3116 38.7591 37.5356 32.5813 58.4893 68.8356 27.8032 26.855 23.3701 28.2578 20.0658 13.7647 13.2927 14.7369 12.4673 14.8704 11.8931 14.6918 10.3101 8.19971 9.61338 9.8609 7.97516 9.91573
threshold=1.5 0.5 2.5 3.5 0.5 0.5 2.5 12.5 1.5 1.5 0.5 0.5 0.5 0.5 0.5 5.5 0.5 0.5 0.5 1.5 0.5 0.5 0.5 0.5 3.5 0.5 10.5 0.5 3.5 1.5
decision_type=0 0 0 0 0 0 0 0 0 0 0 0 0 0 0 0 0 0 0 0 0 0 0 0 0 0 0 0 0 0
left_child=2 4 3 7 5 6 8 9 -2 13 11 -11 -7 24 15 -4 -10 20 19 28 21 22 23 -15 25 26 -1 -28 -3 -30
right_child=1 18 14 -5 -6 12 -8 -9 16 10 -12 -13 -14 17 -16 -17 -18 -19 -20 -21 -22 -23 -24 -25 -26 -27 27 -29 29 -31
leaf_parent=26 8 28 15 3 4 12 6 7 16 11 10 11 12 23 14 15 16 17 18 19 20 21 22 23 24 25 27 27 29 29
leaf_value=-0.0475744 0.239984 -0.020687 0.0183765 0.145267 -0.0366279 -0.00447443 -0.00200893 0.0429337 0.178125 -0.00788217 -0.0483221 0.228823 0.120938 0.101953 -0.0156899 0.141556 0.0412844 -0.0424167 -0.0447205 0.0745313 -0.0510842 -0.0450622 -0.0200084 0.0116616 -0.0242898 -0.0537211 0.0301829 -0.0425676 0.0683654 -0.025875
leaf_count=16691 228 726 251 103 258 352 112 245 108 157 447 103 120 111 337 151 109 2086 483 120 392 362 447 492 792 17216 164 222 130 100
internal_value=0 0.21279 -0.444531 -0.457909 0.636306 0.887439 1.40625 -0.462837 1.76443 -0.468346 0.010343 0.858894 0.2741 -0.47703 0.280108 0.646455 1.09389 -0.299682 -0.137107 0.00209108 -0.155817 -0.0573248 0.0781399 0.284044 -0.496699 -0.502561 -0.467624 -0.11658 -0.0912003 0.273913
internal_count=43615 2846 40769 40030 1287 1029 557 39927 445 39682 707 260 472 38975 739 402 217 3890 1559 1076 1804 1412 1050 603 35085 34293 17077 386 956 230


Tree=1
num_leaves=31
split_feature=13 14 39 8 47 31 66 71 28 85 71 59 59 35 79 10 59 23 54 65 66 87 59 55 61 33 66 37 47 24
split_gain=5717.46 3968.61 1017.88 692.974 542.851 646.988 403.143 414.32 343.444 314.083 298.358 288.021 273.307 209.419 191.478 185.534 177.656 168.907 154.482 147.223 132.837 132.658 120.481 119.096 109.467 109.769 106.337 104.132 130.8 102.402
threshold=2.5 1.5 1.5 6.5 1.5 1.5 0.5 2.5 0.5 0.5 4.5 0.5 0.5 1.5 0.5 2.5 0.5 2.5 0.5 0.5 5.5 5.5 0.5 0.5 5.5 3.5 7.5 1.5 1.5 2.5
decision_type=0 0 0 0 0 0 0 0 0 0 0 0 0 0 0 0 0 0 0 0 0 0 0 0 0 0 0 0 0 0
left_child=1 2 3 9 12 8 22 14 21 10 -1 13 23 15 17 24 19 -8 -10 20 29 26 -3 -2 25 27 -6 28 -4 -11
right_child=4 6 11 -5 5 -7 7 -9 18 16 -12 -13 -14 -15 -16 -17 -18 -19 -20 -21 -22 -23 -24 -25 -26 -27 -28 -29 -30 -31
leaf_parent=10 23 22 28 3 26 5 17 7 18 29 10 11 12 13 14 15 16 17 18 19 20 21 22 23 24 25 26 27 28 29
leaf_value=-0.0461153 0.210706 0.145064 0.16785 0.159744 0.363078 0.0315456 0.270228 0.339365 0.28125 0.0636042 0.343688 -0.0103695 0.0157597 -0.0169521 0.0143075 -0.0538507 -0.0449498 0.137162 0.00241416 -0.0246816 -0.0254749 0.216842 -0.011018 0.0911392 -0.0175557 0.0262665 0.135938 0.044552 0.286694 0.171387
leaf_count=16734 3825 1793 1500 1043 3081 444 1087 1478 177 1981 100 971 464 438 287 211 1792 869 233 1315 658 393 291 474 157 227 108 226 682 576
internal_value=0 0.328762 -0.015394 -0.196604 2.32564 2.89201 2.025 2.46874 3.17858 -0.277412 -0.437998 0.97851 1.79816 1.28389 1.85928 1.49588 0.15019 2.1111 1.2279 0.387417 0.646831 3.40185 1.2327 1.97523 1.64962 1.75837 3.55386 1.89937 2.04995 0.878838
internal_count=43615 34416 28611 24199 9199 4436 5805 3721 3992 23156 16834 4412 4763 3441 2243 3003 6322 1956 410 4530 3215 3582 2084 4299 2792 2635 3189 2408 2182 2557


Tree=2
num_leaves=31
split_feature=8 85 66 14 13 87 59 23 33 66 39 0 39 91 59 28 82 66 25 87 39 70 31 47 39 59 66 91 66 69
split_gain=1283.59 1169.65 774.524 345.903 232.202 230.391 192.441 185.117 184.363 147.227 137.082 112.462 90.1855 80.3086 76.9648 82.5752 74.8789 69.001 68.3968 64.6876 59.8222 59.0692 93.8943 54.2828 53.7666 49.6253 49.0719 45.2084 44.1048 41.6311
threshold=7.5 0.5 0.5 1.5 2.5 3.5 0.5 2.5 4.5 0.5 4.5 2.5 0.5 0.5 0.5 0.5 1.5 2.5 0.5 3.5 5.5 0.5 9.5 1.5 6.5 0.5 2.5 0.5 6.5 2.5
decision_type=0 0 0 0 0 0 0 0 0 0 0 0 0 0 0 0 0 0 0 0 0 0 0 0 0 0 0 0 0 0
left_child=1 3 6 4 24 8 11 28 10 18 17 12 19 20 15 -12 -10 27 -5 29 23 22 -9 -14 -1 -7 -6 -4 -2 -3
right_child=7 2 5 9 26 25 -8 21 16 -11 14 -13 13 -15 -16 -17 -18 -19 -20 -21 -22 -23 -24 -25 -26 -27 -28 -29 -30 -31
leaf_parent=24 28 29 27 18 26 25 6 22 16 9 15 11 23 13 14 15 16 17 18 19 20 21 22 23 24 25 26 27 28 29
leaf_value=-0.0498998 0.0777379 0.0399121 0.019026 0.122342 0.0412057 0.124293 0.0045512 0.145536 0.071129 -0.00174806 0.0708904 -0.0335482 0.159455 0.0741114 -0.0330766 0.265909 0.303662 -0.0367311 -0.00700389 0.17027 0.226328 0.291859 0.32105 0.062779 0.06075 0.00273058 -0.0373155 -0.0434079 0.202628 0.1575
leaf_count=18655 767 995 2717 1063 1948 973 791 567 155 1802 657 223 2354 633 284 132 128 4487 257 333 593 509 212 336 225 206 508 749 176 180
internal_value=0 0.0158757 0.470578 -0.298798 -0.401153 0.0934818 1.0849 1.76793 -0.0251974 0.400705 -0.0812652 1.23049 1.29487 1.47491 0.673637 1.03517 1.76303 -0.183115 0.971591 0.827338 1.6164 2.3225 1.93301 1.47379 -0.485812 1.03053 0.249644 0.0553412 1.01047 0.579255
internal_count=43615 41384 16926 24458 21336 10488 6438 2231 9309 3122 9026 5647 5424 3916 1073 789 283 7953 1320 1508 3283 1288 779 2690 18880 1179 2456 3466 943 1175


Tree=3
num_leaves=31
split_feature=24 25 66 13 14 23 66 25 61 87 74 24 87 15 13 25 14 15 91 41 61 53 39 41 66 47 23 14 13 41
split_gain=181.73 250.842 231.398 103.558 92.7444 97.1425 81.9803 79.111 66.1704 45.9292 45.3298 37.075 37.5689 29.4222 27.5602 26.7886 25.0202 22.6215 28.1817 19.9244 31.985 17.4049 15.3679 15.2431 13.9163 13.7527 11.2847 15.8223 10.7228 10.1617
threshold=1.5 0.5 1.5 0.5 6.5 0.5 0.5 0.5 1.5 2.5 0.5 7.5 1.5 0.5 2.5 0.5 3.5 0.5 0.5 1.5 0.5 1.5 0.5 0.5 0.5 1.5 0.5 2.5 8.5 1.5
decision_type=0 0 0 0 0 0 0 0 0 0 0 0 0 0 0 0 0 0 0 0 0 0 0 0 0 0 0 0 0 0
left_child=4 6 3 21 9 7 11 22 10 26 13 16 -13 -5 -4 24 17 18 28 -8 25 -3 -6 -18 -11 -21 27 -1 -2 -19
right_child=1 2 14 8 5 -7 19 -9 -10 15 -12 12 -14 -15 -16 -17 23 29 -20 20 -22 -23 -24 -25 -26 -27 -28 -29 -30 -31
leaf_parent=27 28 21 14 13 22 5 19 7 8 24 10 12 12 13 14 15 23 29 18 25 20 21 22 23 24 25 26 27 28 29
leaf_value=-0.0452041 -0.010198 0.0933239 -0.0444375 0.285366 0.093956 -0.0327555 -0.0420106 0.265024 0.0883929 -0.00369439 0.363567 0.0123047 0.171977 0.141595 0.0684235 0.0758152 0.0179418 -0.0340828 0.0845122 0.124885 -0.0335821 -0.0188758 0.00619493 0.116719 -0.0476985 0.0135776 -0.0527603 -0.00345092 0.0415236 0.0264706
leaf_count=7608 1572 132 600 123 182 905 7075 104 189 944 123 192 122 174 134 161 232 1690 205 109 536 149 227 120 592 116 18424 489 233 153
internal_value=0 -0.134438 0.69689 1.46819 -0.445657 0.115832 -0.243712 0.898026 1.98953 -0.473873 2.48705 -0.00236501 0.743432 2.01136 -0.238334 -0.115019 -0.0580559 -0.110515 0.0545709 -0.382896 -0.036958 0.338301 0.452476 0.516158 -0.206543 0.675 -0.496835 -0.426825 -0.0352147 -0.290559
internal_count=43615 13979 1624 890 29636 1418 12355 513 609 28218 420 4519 314 297 734 1697 4205 3853 2010 7836 761 281 409 352 1536 225 26521 8097 1805 1843


Tree=4
num_leaves=31
split_feature=33 38 33 23 15 33 33 15 66 38 41 33 53 24 47 23 53 53 33 53 24 23 14 53 23 32 66 8 8 32
split_gain=6934.28 836.663 171.83 105.008 69.9456 38.8203 13.2514 14.4308 11.513 10.5906 3.08881 2.52999 4.64464 6.72474 1.00946 0.629551 0.626861 0.378602 0.333334 0.475119 0.892636 1.65365 0.606729 0.147122 0.130206 0.127691 0.0912162 0.0674065 0.248975 0.0533507
threshold=5.5 0.5 3.5 2.5 0.5 6.5 2.5 0.5 3.5 0.5 0.5 1.5 0.5 0.5 1.5 0.5 2.5 0.5 0.5 0.5 0.5 0.5 0.5 0.5 1.5 4.5 1.5 1.5 9.5 1.5
decision_type=0 0 0 0 0 0 0 0 0 0 0 0 0 0 0 0 0 0 0 0 0 0 0 0 0 0 0 0 0 0
left_child=2 5 6 4 -4 -2 11 -8 -3 -5 14 18 13 -13 23 -15 -9 26 -1 20 21 -20 24 -7 -23 -21 -16 -22 -29 -14
right_child=1 8 3 9 -6 10 7 16 -10 -11 -12 12 29 15 17 -17 -18 -19 19 25 27 22 -24 -25 -26 -27 -28 28 -30 -31
leaf_parent=18 5 8 4 9 4 23 7 16 8 9 10 13 29 15 26 15 16 17 21 25 27 24 22 23 24 25 26 28 28 29
leaf_value=-0.0559547 0.31119 0.045 0.318917 0.0357955 0.0668919 0.449478 0.0313176 -0.0366532 -0.0525815 -0.05625 0.412267 0.00160714 -0.05625 -0.0346154 0.436318 -0.054375 -0.05625 0.426216 -0.027838 -0.0561059 -0.0555288 -0.0479508 -0.0377737 0.440795 -0.05625 -0.0493151 0.445439 -0.0438012 -0.05625 -0.0526849
leaf_count=32578 124 110 112 110 111 970 185 155 138 149 161 210 844 117 111 270 177 149 196 3514 1404 122 137 110 444 146 111 122 244 284
internal_value=0 3.77278 -0.532707 0.802905 1.9347 4.32503 -0.548352 -0.190401 -0.092994 -0.171573 4.41835 -0.552906 -0.468587 -0.308103 4.45115 -0.484012 -0.471009 4.3499 -0.556645 -0.541703 -0.518874 -0.461137 -0.512091 4.48594 -0.544611 -0.55835 4.40878 -0.548199 -0.521004 -0.553524
internal_count=43615 1984 41631 482 223 1736 41149 517 248 259 1612 40632 1725 597 1451 387 332 371 38907 6329 2669 899 703 1080 566 3660 222 1770 366 1128


Tree=5
num_leaves=31
split_feature=10 59 41 68 25 39 61 56 69 39 10 59 37 24 56 89 71 59 23 66 92 41 59 25 41 57 39 41 25 23
split_gain=14507.5 11120.3 1993.82 531.341 409.015 250.052 176.869 152.058 151.611 140.209 126.21 94.8636 91.8422 79.5556 77.578 81.7005 76.9005 63.4505 132.205 61.8614 59.9275 45.8097 39.4098 39.3836 38.2762 32.5125 32.1686 31.4493 26.5808 25.1535
threshold=4.5 3.5 2.5 3.5 1.5 1.5 3.5 0.5 3.5 1.5 3.5 6.5 1.5 0.5 2.5 0.5 1.5 1.5 3.5 3.5 2.5 4.5 7.5 0.5 1.5 0.5 0.5 0.5 0.5 2.5
decision_type=0 0 0 0 0 0 0 0 0 0 0 0 0 0 0 0 0 0 0 0 0 0 0 0 0 0 0 0 0 0
left_child=1 2 4 19 7 6 16 10 22 12 20 -10 13 25 17 -16 21 -9 -19 -2 23 28 24 -1 29 27 -25 -6 -4 -3
right_child=3 8 5 -5 9 -7 -8 14 11 -11 -12 -13 -14 -15 15 -17 -18 18 -20 -21 -22 -23 -24 26 -26 -27 -28 -29 -30 -31
leaf_parent=23 19 29 28 3 27 5 6 17 11 9 10 11 12 13 15 15 16 18 18 19 20 21 22 26 24 25 26 27 28 29
leaf_value=-0.0483279 0.444526 0.377679 0.225263 -0.028125 0.120241 0.0428759 0.0695975 -0.0156663 0.075 -0.0238377 0.131433 0.379125 -0.0156022 0.097433 0.215466 -0.0114796 0.126 0.293867 -0.0261161 0.287691 0.125607 0.383446 0.433209 0.0278528 0.409456 0.352969 -0.0366686 0.283826 0.334652 0.227744
leaf_count=27926 4532 105 214 126 109 286 177 2420 108 328 205 100 137 280 177 147 100 107 168 131 103 464 2412 620 462 120 1060 131 237 123
internal_value=0 0.12739 -0.240214 4.27801 -0.351302 2.31812 2.77145 -0.396481 4.07175 0.995192 -0.445051 2.21214 1.51593 1.87383 0.0847756 1.125 3.13337 -0.0402829 0.983864 4.4012 -0.457191 3.33811 4.19645 -0.463151 3.72228 2.57344 -0.128571 2.09531 2.82747 2.96793
internal_count=43615 38826 35516 4789 34038 1478 1192 32933 3310 1105 29914 208 777 640 3019 324 1015 2695 275 4663 29709 915 3102 29606 690 360 1680 240 451 228


Tree=6
num_leaves=31
split_feature=38 49 55 68 85 38 89 38 22 44 85 69 49 53 38 44 31 61 86 17 55 61 85 13 87 49 89 61 52 71
split_gain=1720.37 366.196 304.675 183.661 150.859 86.5995 77.5451 78.4596 57.5821 47.2201 36.4857 33.1134 33.0805 29.42 21.8956 20.417 14.8574 12.9721 12.564 13.8065 12.3168 11.8311 10.146 11.0792 9.74482 9.74425 13.6607 8.82661 8.77555 10.9654
threshold=3.5 2.5 10.5 3.5 19.5 8.5 3.5 1.5 0.5 0.5 3.5 1.5 0.5 1.5 0.5 0.5 3.5 0.5 1.5 1.5 4.5 0.5 4.5 0.5 1.5 0.5 2.5 0.5 0.5 0.5
decision_type=0 0 0 0 0 0 0 0 0 0 0 0 0 0 0 0 0 0 0 0 0 0 0 0 0 0 0 0 0 0
left_child=1 2 4 5 8 9 7 13 12 21 18 -4 20 16 27 -16 17 -3 25 -20 22 -2 -1 28 -12 -10 -27 -14 29 -24
right_child=3 6 11 -5 -6 -7 -8 -9 10 -11 24 -13 14 -15 15 -17 -18 -19 19 -21 -22 -23 23 -25 -26 26 -28 -29 -30 -31
leaf_parent=22 21 17 11 3 4 5 6 7 25 9 24 11 27 13 15 15 16 17 19 19 20 21 29 23 24 26 26 27 28 29
leaf_value=-0.0502166 0.211203 0.185988 0.257143 -0.00516055 0.209746 0.379274 -0.0415334 0.251786 -0.0359715 0.309921 0.124885 0.0941213 -0.0232849 0.0234574 -0.0129722 0.0760653 0.0525701 0.0855 0.0687104 -0.0262747 0.012927 0.104387 0.06525 -0.0427032 0.028125 0.0303901 -0.0501506 -0.0487177 -0.0476695 -0.0309375
leaf_count=33899 106 186 168 109 118 408 172 189 1423 206 109 101 1505 235 503 176 107 100 158 152 161 104 150 1009 102 298 166 1277 118 100
internal_value=0 -0.395379 -0.427477 2.69313 -0.442977 3.0562 0.957786 1.24686 -0.450234 2.33383 -0.112593 1.95934 -0.471136 0.864351 -0.261178 0.101068 1.24094 1.50852 -0.198424 0.221371 -0.491642 1.58304 -0.494476 -0.305147 0.781102 -0.267389 0.0157597 -0.349591 0.0290421 0.26775
internal_count=43615 42682 41693 933 41424 824 989 817 41306 416 2408 269 38898 628 3461 679 393 286 2197 310 35437 210 35276 1377 211 1887 464 2782 368 250


Tree=7
num_leaves=31
split_feature=89 74 46 68 77 34 18 15 41 68 77 89 70 40 74 68 15 41 4 70 82 10 46 66 47 10 85 35 75 66
split_gain=6211.52 3062.59 1783.02 1208.31 629.49 593.798 399.079 354.251 276.525 218.637 167.41 146.64 145.362 132.222 109.168 84.5111 80.7369 78.2937 85.7644 75.6905 83.9009 56.8016 55.0547 53.7446 52.8473 58.6906 50.3491 81.0658 60.2452 39.392
threshold=2.5 5.5 1.5 3.5 0.5 15.5 5.5 0.5 1.5 3.5 10.5 4.5 0.5 1.5 2.5 5.5 0.5 0.5 0.5 1.5 9.5 1.5 0.5 4.5 3.5 4.5 0.5 0.5 1.5 3.5
decision_type=0 0 0 0 0 0 0 0 0 0 0 0 0 0 0 0 0 0 0 0 0 0 0 0 0 0 0 0 0 0
left_child=1 2 3 4 5 6 14 -3 12 11 13 -2 21 17 19 -5 29 18 24 20 -1 -4 -21 -15 25 26 27 28 -6 -16
right_child=9 7 8 15 10 -7 -8 -9 -10 -11 -12 -13 -14 23 16 -17 -18 -19 -20 22 -22 -23 -24 -25 -26 -27 -28 -29 -30 -31
leaf_parent=20 11 7 21 15 28 5 6 7 8 9 10 11 12 23 29 15 16 17 18 22 20 21 22 23 24 25 26 27 28 29
leaf_value=-0.0466025 0.207837 0.410854 0.21297 0.188246 0.252354 0.412117 0.396964 0.0822761 0.0264375 0.43253 0.340894 0.378965 0.326699 0.31096 0.22202 0.380224 -0.0221755 -0.0192457 0.249855 -0.00787917 0.153892 0.0310345 0.13205 0.095625 -0.0257734 -0.0495447 0.0294231 0.0273509 0.0640881 0.045
leaf_count=33374 508 957 346 176 292 147 105 201 300 1304 116 506 776 142 151 341 312 643 129 1078 106 116 164 100 299 151 325 218 122 110
internal_value=0 -0.0692075 -0.173281 -0.267938 -0.31432 -0.3916 -0.410339 3.53821 2.20245 3.71595 0.768477 2.93232 2.6721 0.641961 -0.423369 3.14869 0.55072 0.466728 0.742676 -0.439444 -0.459677 1.67289 0.105978 2.21978 0.58169 0.808213 1.01391 1.384 1.96875 1.47414
internal_count=43615 41297 40139 38601 38084 35547 35400 1158 1538 2318 2537 1014 1238 2421 35295 517 573 2179 1536 34722 33480 462 1242 242 1407 1108 957 632 414 261


Tree=8
num_leaves=31
split_feature=35 52 90 7 61 61 61 53 35 40 66 31 14 61 88 66 7 23 31 61 91 35 87 0 35 82 7 35 23 87
split_gain=2588.84 1885.27 883.819 788.994 438.075 225.425 150.569 123.124 116.295 95.5706 85.8195 89.1453 82.67 74.6546 73.7536 61.9451 65.2794 72.1177 54.7888 44.957 44.0989 40.4746 33.798 31.1408 30.2882 30.1708 33.6769 26.7229 26.3763 35.375
threshold=2.5 3.5 9.5 3.5 5.5 4.5 11.5 0.5 5.5 5.5 14.5 1.5 1.5 2.5 0.5 1.5 2.5 2.5 2.5 9.5 4.5 0.5 0.5 1.5 0.5 0.5 1.5 0.5 3.5 0.5
decision_type=0 0 0 0 0 0 0 0 0 0 0 0 0 0 0 0 0 0 0 0 0 0 0 0 0 0 0 0 0 0
left_child=1 2 4 5 9 7 12 8 22 10 15 -12 14 -3 27 -1 20 21 -5 -7 24 -18 -2 -15 -17 26 -9 -6 29 -26
right_child=3 13 -4 18 6 19 -8 25 -10 -11 11 -13 -14 23 -16 16 17 -19 -20 -21 -22 -23 -24 -25 28 -27 -28 -29 -30 -31
leaf_parent=15 22 13 2 18 27 19 6 26 8 9 11 11 12 23 14 24 21 17 18 19 20 21 22 23 29 25 26 27 28 29
leaf_value=-0.0523043 0.118366 0.21247 0.3852 0.379472 0.144992 0.220649 0.303614 0.0162564 0.285406 0.152679 0.166193 -0.0269494 -0.0399194 0.312119 0.0421434 -0.044222 0.045 -0.0152297 0.210682 0.403555 0.10483 0.236353 -0.0140625 0.421479 0.0173393 -0.0416466 0.156194 0.290893 -0.0427542 -0.0415761
leaf_count=22710 374 211 250 847 161 181 166 391 203 126 198 311 248 246 319 10859 115 506 110 109 110 109 132 284 1369 312 112 105 1613 828
internal_value=0 -0.299608 -0.365317 1.94774 -0.391773 1.0757 1.07939 0.7297 1.41537 -0.429599 -0.435964 0.481827 0.689451 3.25658 1.15096 -0.448187 -0.338574 0.318236 3.60071 2.89397 -0.371016 1.38114 0.838192 3.70719 -0.381659 0.133206 0.474155 2.02585 -0.209055 -0.0486459
internal_count=43615 40844 40103 2771 39853 1814 999 1524 709 38854 38728 509 833 741 585 38219 15509 730 957 290 14779 224 506 530 14669 815 503 266 3810 2197


Tree=9
num_leaves=31
split_feature=16 77 34 83 24 59 57 52 47 76 24 1 16 12 75 36 13 16 65 15 14 10 24 23 35 61 35 39 66 84
split_gain=217.336 74.9909 70.8479 65.0979 63.5871 37.4948 39.6 37.3815 36.5546 31.9736 51.2081 64.4216 27.1178 21.3569 20.9584 33.0073 16.9718 19.0798 28.3574 13.1902 11.924 13.7172 10.4623 11.2505 10.4489 9.64423 8.47883 8.44645 9.55566 18.0373
threshold=1.5 2.5 0.5 3.5 0.5 2.5 0.5 12.5 1.5 1.5 0.5 0.5 0.5 3.5 4.5 0.5 1.5 3.5 0.5 0.5 0.5 0.5 0.5 0.5 3.5 0.5 0.5 0.5 10.5 0.5
decision_type=0 0 0 0 0 0 0 0 0 0 0 0 0 0 0 0 0 0 0 0 0 0 0 0 0 0 0 0 0 0
left_child=1 3 4 7 5 6 8 9 26 12 11 -11 24 14 -3 -16 17 -6 -19 20 21 22 23 -14 27 -10 -2 28 -1 -30
right_child=2 13 -4 -5 16 -7 -8 -9 25 10 -12 -13 19 -15 15 -17 -18 18 -20 -21 -22 -23 -24 -25 -26 -27 -28 -29 29 -31
leaf_parent=28 26 14 2 3 17 5 6 7 25 11 10 11 23 13 15 15 16 18 18 19 20 21 22 23 24 25 26 27 29 29
leaf_value=-0.0467958 0.136582 0.00553834 -0.035923 0.124724 -0.00374391 -0.0175008 -0.00622371 0.0415863 0.112315 0.168627 -0.0474883 -0.0520172 0.0874389 -0.0465515 0.174804 0.021112 -0.0462141 0.15095 0.00169051 -0.0413936 -0.0504444 -0.0441323 -0.0190514 0.0113037 -0.023018 0.0380153 0.207055 -0.0531936 -0.0412427 0.0681853
leaf_count=16691 135 305 835 103 545 162 147 245 151 147 447 113 111 159 120 155 262 116 140 2086 392 362 447 492 792 185 168 17216 278 108
internal_value=0 -0.435784 0.206073 -0.44957 0.427369 0.832627 1.02016 -0.454648 1.23886 -0.46035 0.0160915 0.770498 -0.469318 0.270492 0.467278 0.90461 0.0418561 0.2033 0.704983 -0.288228 -0.147053 -0.0517495 0.0756494 0.264382 -0.489707 0.730235 1.75528 -0.495806 -0.45956 -0.106167
internal_count=43615 40769 2846 40030 2011 948 786 39927 639 39682 707 260 38975 739 580 275 1063 801 256 3890 1804 1412 1050 603 35085 336 303 34293 17077 386


Tree=10
num_leaves=31
split_feature=13 14 82 8 39 25 47 31 66 23 59 54 24 65 0 32 35 14 10 14 42 59 31 39 78 55 87 53 28 39
split_gain=3859.66 2687.1 594.619 584.228 574.688 457.796 290.609 261.033 181.296 173.329 161.934 141.975 139.754 121.334 119.187 118.523 110.246 103.091 102.316 87.5928 86.7229 85.0843 83.4892 81.7343 80.9105 73.9775 71.6703 70.841 70.0896 61.823
threshold=1.5 1.5 0.5 4.5 1.5 0.5 1.5 1.5 0.5 6.5 0.5 0.5 2.5 0.5 1.5 1.5 1.5 2.5 2.5 0.5 0.5 0.5 0.5 2.5 0.5 0.5 0.5 0.5 0.5 0.5
decision_type=0 0 0 0 0 0 0 0 0 0 0 0 0 0 0 0 0 0 0 0 0 0 0 0 0 0 0 0 0 0
left_child=1 3 5 4 12 6 14 11 21 17 16 -8 19 24 15 25 18 27 22 -1 -17 -3 -6 -7 29 -2 -11 -10 -13 -14
right_child=2 8 -4 -5 10 23 7 -9 9 26 -12 28 13 -15 -16 20 -18 -19 -20 -21 -22 -23 -24 -25 -26 -27 -28 -29 -30 -31
leaf_parent=19 25 21 2 3 22 23 11 7 27 26 10 28 29 13 14 20 16 17 18 19 20 21 22 23 24 25 26 27 28 29
leaf_value=-0.0422739 0.149652 0.119928 -0.0241273 0.130915 0.14242 -0.0134698 0.246076 0.0558925 0.177497 -0.00700861 -0.0243 0.188408 0.0704653 -0.0421474 0.0130174 0.237347 -0.0289743 0.226633 -0.0557522 0.00546426 0.125202 -0.0241007 0.0318206 0.10153 -0.0389289 0.0572706 0.176631 0.0380427 0.0248304 0.208631
leaf_count=17832 3486 1500 812 1263 1581 623 3863 437 553 279 796 284 403 645 274 1124 344 2040 190 2239 412 239 385 536 191 456 149 228 208 243
internal_value=0 0.218529 1.611 -0.0938993 -0.175358 1.72113 1.84935 2.20709 1.58863 1.86332 0.662314 2.34009 -0.317361 0.340991 1.52492 1.59 0.91774 2.03549 1.0849 -0.368748 2.07854 1.02241 1.21475 0.423493 0.873045 1.39661 0.580682 1.39012 1.27234 1.23689
internal_count=43615 31100 12515 26112 24849 11703 10544 4792 4988 3249 3296 4355 21553 1482 5752 5478 2500 2821 2156 20071 1536 1739 1966 1159 837 3942 428 781 492 646


Tree=11
num_leaves=31
split_feature=8 39 42 66 42 87 91 14 2 59 39 23 47 42 41 25 25 54 42 23 13 31 33 87 31 23 66 87 70 42
split_gain=970.562 939.455 593.931 315.09 250.602 202.515 159.02 157.268 152.293 132.254 126.415 107.301 104.878 103.471 101.945 96.1278 86.2073 77.2285 68.0914 66.2292 65.5029 57.7532 47.1967 43.5607 42.5267 39.8755 38.9563 33.9526 30.0754 28.8342
threshold=6.5 1.5 0.5 0.5 3.5 5.5 0.5 1.5 0.5 0.5 6.5 2.5 0.5 0.5 0.5 0.5 0.5 0.5 2.5 0.5 2.5 1.5 0.5 5.5 5.5 0.5 0.5 0.5 0.5 5.5
decision_type=0 0 0 0 0 0 0 0 0 0 0 0 0 0 0 0 0 0 0 0 0 0 0 0 0 0 0 0 0 0
left_child=1 2 5 6 8 7 12 20 14 10 13 -2 16 23 21 -6 22 -12 -8 -9 -1 -4 29 -5 -13 -14 -22 -26 -29 -3
right_child=11 3 4 9 15 -7 18 19 -10 -11 17 24 25 -15 -16 -17 -18 -19 -20 -21 26 -23 -24 -25 27 -27 -28 28 -30 -31
leaf_parent=20 11 29 21 23 15 5 18 19 8 9 17 24 25 13 14 15 16 17 18 19 26 21 22 23 27 25 26 28 28 29
leaf_value=-0.0473195 0.0865991 0.151198 0.103215 -0.000617932 0.220727 0.116776 0.00865577 0.062678 -0.0440766 -0.0401123 0.0774215 0.0826029 0.106008 0.0960758 -0.0246165 0.0125726 0.0269576 0.236575 0.182626 -0.0131516 0.0433758 -0.0102173 0.0725557 0.116133 0.225883 0.0291912 -0.0263318 0.113966 0.212141 0.25183
leaf_count=20357 979 2049 1518 3548 532 396 1260 910 986 1541 643 178 526 731 534 141 339 177 120 1484 578 269 349 155 608 824 1206 322 219 136
internal_value=0 0.0160197 -0.212694 0.520897 0.584062 -0.345825 0.896666 -0.373714 0.326469 0.190317 0.356031 1.42009 1.10044 0.202243 0.626637 1.79765 1.32956 1.13588 0.239299 0.167232 -0.435429 0.872372 1.46001 0.0473049 1.78964 0.595318 -0.0252442 1.93002 1.5537 1.57578
internal_count=43615 41309 28911 12398 3980 24931 5603 24535 3307 6795 5254 2306 4223 4434 2321 673 2873 820 1380 2394 22141 1787 2534 3703 1327 1350 1784 1149 541 2185


Tree=12
num_leaves=31
split_feature=24 25 66 14 23 10 66 25 13 87 61 24 42 84 13 25 59 84 41 61 61 91 15 59 74 66 39 15 47 24
split_gain=176.365 221.601 176.659 89.1162 82.0401 81.3375 77.4769 51.4739 49.9422 45.2943 33.8917 31.9771 53.2156 26.8456 25.4646 23.7386 23.4384 32.9857 19.5968 28.1605 16.0656 27.1548 16.4596 15.9282 14.7013 13.2283 12.558 12.3324 10.2499 9.7729
threshold=1.5 0.5 1.5 6.5 0.5 0.5 0.5 0.5 0.5 2.5 1.5 7.5 0.5 3.5 2.5 0.5 0.5 1.5 1.5 0.5 0.5 0.5 0.5 0.5 0.5 0.5 1.5 0.5 1.5 5.5
decision_type=0 0 0 0 0 0 0 0 0 0 0 0 0 0 0 0 0 0 0 0 0 0 0 0 0 0 0 0 0 0
left_child=3 6 5 9 7 8 11 26 -3 13 24 16 -13 -1 -4 25 20 -18 -8 28 21 29 -23 -15 27 -11 -5 -10 -20 -2
right_child=1 2 14 4 -6 -7 18 -9 10 15 -12 12 -14 23 -16 -17 17 -19 19 -21 -22 22 -24 -25 -26 -27 -28 -29 -30 -31
leaf_parent=13 29 8 14 26 4 5 18 7 27 25 10 12 12 23 14 15 17 17 28 19 20 22 22 23 24 25 26 27 28 29
leaf_value=-0.0500931 -0.0111361 0.0600322 -0.0434416 0.0698035 -0.0316766 -0.0119962 -0.0411108 0.204799 0.239146 -0.00333784 0.100482 0.148806 -0.0327408 -0.0212276 0.0641213 0.0692643 0.00394432 0.156747 0.107848 -0.0322816 -0.0274671 0.127725 0.0130292 0.0679941 0.277825 -0.0469226 -0.0115629 0.146459 0.013899 0.0512136
leaf_count=25922 1866 204 600 262 905 170 7075 104 113 944 154 172 142 464 134 161 228 100 109 536 1625 121 127 135 113 592 147 136 116 138
internal_value=0 -0.126239 0.633667 -0.436837 0.111473 1.24604 -0.23363 0.792018 1.54952 -0.465887 1.87727 -2.65936e-05 0.673713 -0.489656 -0.224319 -0.107248 -0.053405 0.520583 -0.373029 -0.0276451 -0.102968 0.0204044 0.713857 -0.0118459 2.20281 -0.197108 0.415066 1.90883 0.617127 -0.0683287
internal_count=43615 13979 1624 29636 1418 890 12355 513 720 28218 516 4519 314 26521 734 1697 4205 328 7836 761 3877 2252 248 599 362 1536 409 249 225 2004


Tree=13
num_leaves=31
split_feature=33 38 33 59 15 23 82 15 53 66 33 53 24 47 33 23 33 53 24 23 14 23 32 63 32 39 53 32 66 8
split_gain=4921.47 513.138 46.4119 36.2653 34.6088 31.4637 13.155 5.69371 3.31623 4.32771 2.64048 4.6271 6.41131 2.37964 1.05391 0.638249 0.350363 0.473717 0.914975 1.622 0.617907 0.131523 0.131368 0.109837 0.144188 0.2705 0.0827126 0.0562469 0.107845 0.0529722
threshold=4.5 0.5 2.5 0.5 0.5 3.5 0.5 2.5 2.5 2.5 1.5 0.5 0.5 2.5 6.5 0.5 0.5 0.5 0.5 0.5 0.5 1.5 4.5 0.5 0.5 1.5 0.5 1.5 1.5 8.5
decision_type=0 0 0 0 0 0 0 0 0 0 0 0 0 0 0 0 0 0 0 0 0 0 0 0 0 0 0 0 0 0
left_child=2 3 10 7 5 -4 -3 13 9 -6 16 12 -12 14 -2 -14 29 18 19 -18 21 -21 -19 -20 -25 -26 -16 -13 -29 -1
right_child=1 6 4 -5 8 -7 -8 -9 -10 -11 11 27 15 -15 26 -17 17 22 23 20 -22 -23 -24 24 25 -27 -28 28 -30 -31
leaf_parent=29 14 6 5 3 9 5 6 7 8 9 12 27 15 13 26 15 19 22 23 21 20 21 22 24 25 25 26 28 28 29
leaf_value=-0.0555939 0.311833 0.0375869 0.115634 0.18929 0.0118994 -0.0311831 -0.0560932 0.247834 -0.0558943 -0.0480188 0.00155134 -0.0557781 -0.0335869 0.272336 0.294411 -0.0538823 -0.0271358 -0.0556459 -0.0558878 -0.0473078 -0.0367913 -0.055831 -0.0485839 -0.0546834 -0.0411839 -0.0558212 0.289661 -0.0465836 -0.0557718 -0.0542938
leaf_count=30799 144 124 171 150 120 120 200 113 257 128 210 844 117 183 1124 270 196 3514 1038 122 137 444 146 461 145 126 149 116 168 1779
internal_value=0 2.49322 -0.537091 2.82451 -0.000767826 0.586002 -0.197278 2.90045 -0.373914 -0.188419 -0.548242 -0.4599 -0.298246 2.92891 2.95499 -0.476732 -0.552174 -0.536436 -0.513153 -0.453519 -0.505834 -0.539717 -0.553615 -0.543664 -0.521962 -0.479676 2.93861 -0.548266 -0.520042 -0.555232
internal_count=43615 2187 41428 1863 796 291 324 1713 505 248 40632 1725 597 1600 1417 387 38907 6329 2669 899 703 566 3660 1770 732 271 1273 1128 284 32578


Tree=14
num_leaves=31
split_feature=10 59 41 25 68 56 39 10 39 61 68 59 56 69 67 92 69 59 25 32 32 39 57 41 39 41 13 37 39 41
split_gain=8423.69 7135.18 1539.77 357.328 235.184 146.17 135.592 109.701 99.8111 87.2324 67.2346 99.8257 67.1606 62.1785 54.9863 52.653 52.4931 48.2238 38.7801 37.4753 34.9878 28.9968 28.6433 23.9121 26.7452 21.825 32.8457 20.9138 19.7254 18.879
threshold=4.5 3.5 2.5 1.5 4.5 0.5 1.5 3.5 1.5 3.5 0.5 1.5 2.5 1.5 1.5 2.5 3.5 6.5 0.5 1.5 0.5 0.5 0.5 1.5 0.5 0.5 1.5 2.5 3.5 0.5
decision_type=0 0 0 0 0 0 0 0 0 0 0 0 0 0 0 0 0 0 0 0 0 0 0 0 0 0 0 0 0 0
left_child=1 2 3 5 27 7 9 15 13 19 11 12 25 14 20 18 -3 -18 23 22 29 -20 -4 -1 -25 -7 -27 -2 -8 -5
right_child=4 16 6 8 -6 10 28 -9 -10 -11 -12 -13 -14 -15 -16 -17 17 -19 21 -21 -22 -23 -24 24 -26 26 -28 -29 -30 -31
leaf_parent=23 27 16 22 29 4 25 28 7 8 9 10 11 12 13 14 15 17 17 21 19 20 21 22 24 24 26 26 27 28 29
leaf_value=-0.0488536 0.291989 0.281662 0.253664 0.164912 -0.0379468 -0.0138757 0.0924378 0.111879 -0.0222758 0.0634771 -0.0317724 0.195224 0.158163 0.00267011 0.021179 0.108033 0.0676362 0.266898 0.0255582 0.112515 0.0848632 -0.0356475 0.144302 0.0435294 -0.040107 0.0915456 -0.0478814 0.229521 -0.0251539 0.257622
leaf_count=27044 4465 3102 801 183 119 1057 159 205 328 177 1269 154 135 158 115 103 108 100 620 105 125 1060 109 312 570 276 128 205 127 196
internal_value=0 0.115856 -0.231839 -0.342063 2.83828 -0.387605 1.80405 -0.437134 0.863336 2.07886 0.0829141 0.363847 0.184866 1.25114 1.54195 -0.449558 2.75892 1.75112 -0.455671 2.28392 1.8349 -0.121681 2.40929 -0.476377 -0.103918 0.0325014 0.480381 2.89317 0.403993 2.14167
internal_count=43615 38826 35516 34038 4789 32933 1478 29914 1105 1192 3019 1750 1596 777 619 29709 3310 208 29606 1015 504 1680 910 27926 882 1461 404 4670 286 379


Tree=15
num_leaves=31
split_feature=38 55 49 38 22 44 24 49 68 38 42 44 13 75 53 23 61 68 49 86 38 23 49 43 61 22 16 42 15 66
split_gain=1319.44 252.109 251.592 165.393 85.0227 78.0984 61.6199 44.452 44.3673 35.9991 35.1433 31.7871 26.8121 25.9485 24.1237 22.686 19.5907 18.5367 19.9971 17.458 17.3072 15.2589 14.4943 11.459 9.32458 9.27273 8.38642 10.5143 7.73469 7.14524
threshold=2.5 9.5 2.5 4.5 1.5 0.5 2.5 0.5 5.5 0.5 0.5 2.5 2.5 1.5 2.5 4.5 0.5 1.5 0.5 0.5 0.5 7.5 4.5 0.5 0.5 0.5 0.5 0.5 0.5 2.5
decision_type=0 0 0 0 0 0 0 0 0 0 0 0 0 0 0 0 0 0 0 0 0 0 0 0 0 0 0 0 0 0
left_child=1 2 4 5 7 17 10 24 9 14 -6 13 -3 19 23 -7 20 18 -2 -5 25 28 -11 29 26 -9 -1 -28 -22 -4
right_child=3 12 8 11 6 15 -8 16 -10 22 -12 -13 -14 -15 -16 -17 -18 -19 -20 -21 21 -23 -24 -25 -26 -27 27 -29 -30 -31
leaf_parent=26 18 12 29 19 10 15 6 25 8 22 10 11 12 13 14 15 16 17 18 19 28 21 22 23 24 25 27 27 28 29
leaf_value=-0.0466357 0.00776982 0.198851 0.142982 0.26889 -0.0263977 0.24285 0.182908 -0.0224327 -0.0558982 0.104102 0.0825325 0.283774 0.0643123 0.106504 -0.0221439 0.109988 -0.0400381 -0.0444027 0.128322 0.172236 0.100204 -0.0332386 0.201358 0.0284501 -0.0525202 0.0369312 -0.03665 0.0188624 0.0215774 0.0676354
leaf_count=18849 167 191 135 168 579 124 100 1508 126 145 206 290 102 104 149 109 1744 131 108 139 148 111 131 118 15339 144 2040 198 108 104
internal_value=0 -0.397122 -0.413355 1.70872 -0.441237 0.872154 0.251359 -0.457055 0.721436 0.90315 0.0259757 2.34854 1.53981 1.97743 0.549306 1.83154 -0.221648 0.264248 0.58353 2.26309 -0.0705584 0.369069 1.5124 0.845597 -0.481941 -0.170699 -0.450531 -0.317239 0.667324 1.11324
internal_count=43615 42275 41982 1340 41074 639 885 40189 908 782 785 701 293 411 506 233 3763 406 275 307 2019 367 276 357 36426 1652 21087 2238 256 239


Tree=16
num_leaves=31
split_feature=68 74 67 46 34 77 68 15 57 57 10 57 70 77 68 36 66 67 72 67 41 59 10 70 53 35 74 16 13 36
split_gain=3993.45 2058.7 1666.35 775.037 605.553 304.168 278.975 229.506 157.878 131.128 189.823 138.019 121.667 110.954 79.5529 83.6997 70.5459 68.5695 64.4862 56.1288 51.4472 49.2686 50.0608 43.9172 43.7362 36.1804 35.2742 34.9032 34.8912 33.3294
threshold=1.5 4.5 4.5 1.5 11.5 0.5 5.5 0.5 0.5 1.5 4.5 4.5 1.5 8.5 0.5 0.5 5.5 8.5 4.5 0.5 0.5 1.5 3.5 1.5 0.5 3.5 3.5 0.5 0.5 0.5
decision_type=0 0 0 0 0 0 0 0 0 0 0 0 0 0 0 0 0 0 0 0 0 0 0 0 0 0 0 0 0 0
left_child=1 2 3 4 5 9 8 -3 16 18 11 -11 21 14 -7 -16 20 -4 19 26 28 22 -5 -21 -17 -9 -1 -25 -2 -18
right_child=6 7 17 12 -6 13 -8 25 -10 10 -12 -13 -14 -15 15 24 29 -19 -20 23 -22 -23 -24 27 -26 -27 -28 -29 -30 -31
leaf_parent=26 28 7 17 22 4 14 6 25 8 11 10 11 12 13 15 24 29 17 18 23 20 21 22 27 24 25 26 27 28 29
leaf_value=-0.0486304 0.219606 0.274905 0.216011 0.14086 0.271923 0.00628463 0.286256 0.120886 0.241137 0.0610983 -0.0542637 0.315415 0.222047 0.237916 0.0147176 0.277667 -0.0296991 0.339691 0.116757 -0.0249583 0.0574762 -0.0237988 -0.0315037 0.130282 0.0944807 -0.0396105 0.0603512 -0.0362422 0.0891348 0.109373
leaf_count=29885 342 1004 387 448 261 1616 1450 166 681 423 662 126 433 109 243 124 196 411 121 3168 204 157 100 166 111 114 142 100 130 135
internal_value=0 -0.0913181 -0.197304 -0.270241 -0.332684 -0.36044 2.27387 2.3602 1.66984 -0.415179 0.313051 1.24373 1.40361 0.423949 0.30115 1.06891 1.12002 2.81078 -0.442371 -0.448646 1.50392 0.845081 1.1323 -0.172366 1.9506 0.562685 -0.480595 0.690528 1.86861 0.293612
internal_count=43615 40477 39193 38395 37257 36996 3138 1284 1688 34793 1211 549 1138 2203 2094 478 1007 798 33582 33461 676 705 548 3434 235 280 30027 266 472 331


Tree=17
num_leaves=31
split_feature=35 52 90 7 61 75 35 61 14 66 7 23 23 35 10 40 61 36 0 66 63 61 66 40 73 22 61 66 91 67
split_gain=2025.1 1370.93 625.978 392.396 376.591 136.91 99.5402 126.595 91.0392 87.4851 77.0195 73.5037 65.8713 85.7063 49.395 40.8427 38.7909 33.723 32.8149 32.462 51.669 31.3909 29.8927 29.6415 28.1571 23.3794 23.0954 21.244 21.1281 23.4951
threshold=2.5 3.5 6.5 3.5 5.5 0.5 4.5 4.5 2.5 1.5 0.5 2.5 3.5 1.5 0.5 0.5 8.5 0.5 1.5 2.5 0.5 6.5 1.5 2.5 0.5 0.5 2.5 9.5 1.5 1.5
decision_type=0 0 0 0 0 0 0 0 0 0 0 0 0 0 0 0 0 0 0 0 0 0 0 0 0 0 0 0 0 0
left_child=1 2 4 5 9 6 7 19 11 -1 23 14 13 15 16 27 22 -15 21 -2 -21 -3 -6 28 -5 26 -7 -12 -11 -30
right_child=3 18 -4 24 8 25 -8 -9 -10 10 12 -13 -14 17 -16 -17 -18 -19 -20 20 -22 -23 -24 -25 -26 -27 -28 -29 29 -31
leaf_parent=9 19 21 2 24 22 26 6 7 8 28 27 11 12 17 14 15 16 17 18 20 20 21 22 23 24 25 26 27 29 29
leaf_value=-0.0514927 -0.0388659 0.135049 0.252275 0.266256 0.0619039 0.0156205 0.228838 0.250342 -0.0414852 -0.0434742 -0.0234904 0.022068 -0.0329416 0.162944 0.0491199 0.0601328 0.272514 0.0117482 0.276386 0.153547 0.00184874 0.254315 0.211703 0.051501 0.169178 -0.0535332 0.127934 0.0715176 -0.0218372 0.0889576
leaf_count=22720 170 190 290 821 114 421 350 156 216 10642 1411 233 2251 249 130 480 170 100 382 206 224 169 132 177 136 183 104 126 544 118
internal_value=0 -0.289636 -0.355436 1.55627 -0.383914 0.929184 1.38656 0.935679 0.920221 -0.422099 -0.293824 1.2372 -0.0468187 0.213394 1.65313 0.0283684 1.99772 1.20665 2.37268 0.440899 0.756343 1.92824 1.43728 -0.394911 2.52917 0.163809 0.392395 -0.152958 -0.409794 -0.0165445
internal_count=43615 40844 40103 2771 39813 1814 1106 756 995 38818 16098 779 4617 2366 546 2017 416 349 741 600 430 359 246 11481 957 708 525 1537 11304 662


Tree=18
num_leaves=31
split_feature=16 77 34 24 4 52 76 24 57 57 59 47 16 12 79 75 13 16 37 66 14 10 24 59 57 8 84 63 35 16
split_gain=207.545 71.7483 61.1629 50.8696 50.3094 35.0785 30.913 43.9705 49.5705 29.284 29.847 27.7195 27.0868 18.9197 18.9617 21.5851 15.2544 15.9169 21.9493 11.9373 11.7785 15.5767 13.1306 12.9276 14.4173 11.5205 13.2355 17.379 9.05529 8.85644
threshold=1.5 2.5 0.5 0.5 2.5 12.5 1.5 0.5 0.5 1.5 2.5 1.5 0.5 3.5 0.5 4.5 1.5 3.5 0.5 7.5 0.5 0.5 0.5 2.5 0.5 0.5 0.5 0.5 4.5 3.5
decision_type=0 0 0 0 0 0 0 0 0 0 0 0 0 0 0 0 0 0 0 0 0 0 0 0 0 0 0 0 0 0
left_child=1 4 3 9 5 6 12 8 -8 10 11 -2 19 14 15 -3 17 -5 -19 28 21 22 23 24 -14 26 -21 -28 -1 -13
right_child=2 13 -4 16 -6 -7 7 -9 -10 -11 -12 29 20 -15 -16 -17 -18 18 -20 25 -22 -23 -24 -25 -26 -27 27 -29 -30 -31
leaf_parent=28 11 15 2 17 4 5 8 7 8 9 10 29 24 13 14 15 16 18 18 26 20 21 22 23 24 25 27 27 28 29
leaf_value=-0.0497855 0.143246 0.0194722 -0.0345354 -0.00325566 0.076085 0.0397304 0.138525 -0.0465381 -0.0563865 -0.0369901 -0.0110579 0.0375666 0.0353761 -0.0456762 -0.022 0.118919 -0.0451734 0.113567 -0.0176805 -0.0280599 -0.0499861 -0.045502 -0.0285941 -0.049377 -0.0401635 -0.0507979 0.0974307 -0.031328 -0.00648664 0.108753
leaf_count=32699 324 228 835 545 170 240 155 441 103 115 144 248 642 159 165 187 262 154 102 929 1003 951 954 172 163 921 113 111 263 117
internal_value=0 -0.427346 0.199024 0.396177 -0.441519 -0.447312 -0.453089 0.020565 0.689918 0.742138 0.867042 1.02812 -0.462229 0.25926 0.436461 0.678107 0.0447178 0.192775 0.634649 -0.483256 -0.278332 -0.204359 -0.0890331 0.0916589 0.206403 -0.31109 -0.156489 0.346529 -0.494286 0.606847
internal_count=43615 40769 2846 2011 40030 39860 39620 699 258 948 833 689 38921 739 580 415 1063 801 256 35036 3885 2882 1931 977 805 2074 1153 224 32962 365


Tree=19
num_leaves=31
split_feature=13 14 85 19 25 59 71 63 78 47 16 24 58 25 71 35 74 63 29 1 23 14 41 32 25 38 23 84 32 23
split_gain=2780.8 2070.69 642.448 426.77 304.186 237.118 231.964 199.711 195.445 171.027 169.87 143.106 131.404 130.036 110.006 105.507 99.6341 87.3109 78.0362 74.3795 73.2911 72.9981 72.3455 70.0604 65.6138 55.4319 54.0075 46.9054 46.0324 43.1056
threshold=1.5 1.5 0.5 1.5 0.5 0.5 3.5 5.5 0.5 1.5 0.5 2.5 0.5 0.5 2.5 2.5 1.5 4.5 0.5 0.5 0.5 4.5 0.5 1.5 1.5 1.5 2.5 2.5 2.5 7.5
decision_type=0 0 0 0 0 0 0 0 0 0 0 0 0 0 0 0 0 0 0 0 0 0 0 0 0 0 0 0 0 0
left_child=1 2 6 4 8 10 7 11 9 18 12 -1 16 14 17 25 19 21 23 22 -16 -3 29 -2 28 -11 -13 -22 -6 -4
right_child=3 13 5 -5 24 -7 -8 -9 -10 15 -12 26 -14 -15 20 -17 -18 -19 -20 -21 27 -23 -24 -25 -26 -27 -28 -29 -30 -31
leaf_parent=11 23 21 29 3 28 5 6 7 8 25 10 26 12 13 20 15 16 17 18 19 27 21 22 23 24 25 26 27 28 29
leaf_value=-0.0453693 0.122709 0.0627767 0.124257 -0.00972688 0.051287 -0.029511 0.195728 0.123 0.0348219 0.190904 -0.0175821 0.104984 -0.0119296 0.0411507 0.121285 0.0184711 -0.0278024 0.163455 0.00660581 -0.028529 0.225795 0.152362 0.0414572 0.172884 -0.0232547 0.0393099 -0.0416647 0.138863 0.185619 0.00547241
leaf_count=16887 3699 1233 2876 935 545 2013 178 340 579 4211 1163 400 692 586 602 162 336 946 185 226 854 494 665 1459 500 107 185 273 133 151
internal_value=0 0.202698 -0.0887016 1.33298 1.42322 0.41033 -0.343571 -0.373724 1.51702 1.57562 0.607168 -0.411457 0.769665 1.3181 1.42679 1.83199 0.903358 1.16854 1.33011 0.991109 1.78828 0.89595 1.05624 1.37459 0.380504 1.88018 0.639359 2.04767 0.797473 1.1887
internal_count=43615 31100 26112 12515 11580 8122 17990 17812 10402 9823 6109 17472 4946 4988 4402 4480 4254 2673 5343 3918 1729 1727 3692 5158 1178 4318 585 1127 678 3027


Tree=20
num_leaves=31
split_feature=85 14 59 66 8 13 8 66 31 33 84 0 84 91 25 91 8 13 69 13 63 66 66 24 47 14 84 24 89 47
split_gain=976.833 580.843 433.189 219.34 305.634 193.896 137.008 131.108 122.883 110.962 85.1075 74.7205 74.6414 64.8916 56.3319 47.8347 46.7763 45.5756 43.8492 40.3321 38.2704 60.1442 35.7512 35.5919 35.1948 33.5305 33.3094 32.6098 28.1568 27.9033
threshold=0.5 1.5 0.5 0.5 5.5 2.5 8.5 2.5 8.5 3.5 4.5 2.5 6.5 0.5 0.5 0.5 5.5 5.5 1.5 1.5 12.5 0.5 3.5 5.5 3.5 15.5 5.5 2.5 0.5 0.5
decision_type=0 0 0 0 0 0 0 0 0 0 0 0 0 0 0 0 0 0 0 0 0 0 0 0 0 0 0 0 0 0
left_child=1 5 3 11 7 6 10 13 12 17 27 14 15 18 19 20 -4 -9 -5 26 21 25 -7 -20 -6 -3 28 -1 -2 -21
right_child=2 8 16 4 24 22 -8 9 -10 -11 -12 -13 -14 -15 -16 -17 -18 -19 23 29 -22 -23 -24 -25 -26 -27 -28 -29 -30 -31
leaf_parent=27 28 25 16 18 24 22 6 17 8 9 10 11 12 13 14 15 16 17 23 29 20 21 22 23 24 25 26 27 28 29
leaf_value=-0.0508009 0.0823528 0.0625307 -0.030023 0.0500273 0.115599 0.0318933 0.118439 -0.0295393 0.172345 0.132386 0.120969 -0.0336318 0.190783 -0.0153463 0.0206912 -0.0198587 0.106654 0.0444104 0.0864032 0.13371 0.123208 0.0137837 -0.0456263 0.210141 0.194489 0.167448 0.162577 -0.00288223 -0.00519173 0.0898238
leaf_count=17971 1801 816 3477 2753 751 2086 196 2984 280 222 145 223 135 651 401 650 108 467 509 1929 246 1788 373 124 299 158 195 777 186 914
internal_value=0 -0.200605 0.474662 0.631434 0.407428 -0.36381 -0.448116 0.238405 0.529905 -0.0760826 -0.472267 0.943083 0.414182 0.505434 0.987532 0.352567 -0.248023 -0.186643 0.622078 1.04436 0.463991 0.387091 0.213738 1.12393 1.39662 0.796794 0.82916 -0.487044 0.74582 1.2027
internal_count=43615 25621 17994 14409 8760 21548 19089 7710 4073 3673 18893 5649 3793 4037 5426 3658 3585 3451 3386 5025 3008 2762 2459 633 1050 974 2182 18748 1987 2843


Tree=21
num_leaves=31
split_feature=24 25 66 14 66 66 17 85 66 59 41 71 24 13 61 13 14 84 41 61 66 84 61 91 24 13 13 25 13 66
split_gain=170.571 195.135 137.981 85.5161 73.0594 71.6197 61.1466 36.722 30.6914 40.7447 29.6919 31.0563 27.6082 26.2821 25.6779 22.9799 21.2791 20.8064 19.3156 25.9518 23.8926 18.0018 17.0941 14.3713 11.6284 11.2581 10.5451 10.3941 10.1851 12.2698
threshold=1.5 0.5 1.5 6.5 0.5 0.5 0.5 2.5 1.5 0.5 0.5 1.5 7.5 6.5 1.5 2.5 3.5 3.5 1.5 1.5 3.5 1.5 1.5 0.5 2.5 2.5 0.5 0.5 1.5 0.5
decision_type=0 0 0 0 0 0 0 0 0 0 0 0 0 0 0 0 0 0 0 0 0 0 0 0 0 0 0 0 0 0
left_child=3 4 6 7 12 10 14 17 9 -9 11 -5 16 -14 26 -4 22 28 -6 20 -20 -18 23 -2 -8 -25 -3 -7 -1 -30
right_child=1 2 15 5 18 27 24 8 -10 -11 -12 -13 13 -15 -16 -17 21 -19 19 -21 -22 -23 -24 25 -26 -27 -28 -29 29 -31
leaf_parent=28 23 26 15 11 18 27 24 9 8 9 10 11 13 13 14 15 21 17 20 19 20 21 22 25 24 25 26 27 29 29
leaf_value=-0.0509643 -0.0085187 0.104195 -0.0424758 0.12819 -0.040231 -0.0391375 -0.0188092 -0.00953573 -0.0534014 0.115826 0.166181 0.000600748 0.0120771 0.139423 0.066231 0.0583851 -0.0187159 -0.0015442 0.0875767 -0.0467891 -0.0242943 0.0847044 -0.0393149 0.0813601 0.0675195 0.00650944 0.178979 0.0345846 -0.02193 -0.0508354
leaf_count=22461 2615 111 600 131 7075 804 148 1091 755 152 113 260 198 116 159 134 133 490 209 377 175 219 830 158 134 250 338 110 1547 1722
internal_value=0 -0.118958 0.576258 -0.428315 -0.223989 0.107063 1.07508 -0.458163 -0.156055 0.0617889 0.733831 0.445108 0.00180054 0.612154 1.41645 -0.212384 -0.0492464 -0.482144 -0.363361 -0.0179 0.378606 0.467984 -0.0995577 -0.0214286 0.241363 0.361521 1.63982 -0.29729 -0.491637 -0.368731
internal_count=43615 13979 1624 29636 12355 1418 890 28218 1998 1243 504 391 4519 314 608 734 4205 26220 7836 761 384 352 3853 3023 282 408 449 914 25730 3269


Tree=22
num_leaves=31
split_feature=33 38 33 21 23 33 53 82 61 33 53 23 66 24 33 14 47 33 53 24 23 14 33 53 32 23 63 32 13 33
split_gain=3893.61 318.474 45.8244 23.717 22.2382 20.8262 22.7148 12.2796 4.38548 2.75596 4.60788 6.20234 1.62912 1.18274 0.932217 0.519967 0.456748 0.370366 0.476676 0.929282 1.58037 0.630503 0.169414 0.17527 0.137535 0.133932 0.116008 0.149248 0.225534 0.0752637
threshold=4.5 0.5 2.5 0.5 3.5 6.5 0.5 0.5 0.5 1.5 0.5 0.5 1.5 0.5 7.5 0.5 1.5 0.5 0.5 0.5 0.5 0.5 16.5 0.5 4.5 1.5 0.5 0.5 2.5 13.5
decision_type=0 0 0 0 0 0 0 0 0 0 0 0 0 0 0 0 0 0 0 0 0 0 0 0 0 0 0 0 0 0
left_child=2 5 9 4 8 6 -2 -3 -4 17 11 -11 -5 -13 -7 22 29 -1 19 20 -19 25 23 -16 -20 -22 -21 -28 -29 -17
right_child=1 7 3 12 -6 14 -8 -9 -10 10 -12 13 -14 -15 15 16 -18 18 24 26 21 -23 -24 -25 -26 -27 27 28 -30 -31
leaf_parent=17 6 7 8 12 4 14 6 7 8 11 10 13 12 13 23 29 16 20 24 26 25 21 22 23 24 25 27 28 28 29
leaf_value=-0.055134 0.210725 0.0344197 0.101433 -0.0238179 -0.034506 0.208295 0.0965204 -0.055843 0.0437205 0.0095008 -0.0543402 -0.0287402 -0.0532946 -0.0533991 0.223057 0.223309 0.24054 -0.026591 -0.0552299 -0.0555317 -0.0466777 -0.0358325 0.225975 0.216873 -0.0478078 -0.055465 -0.054243 -0.0415497 -0.0554374 0.229112
leaf_count=32578 148 124 128 180 147 106 103 200 112 161 1128 166 229 270 557 105 101 196 3514 1038 122 137 390 179 146 444 461 159 112 174
internal_value=0 1.95619 -0.532333 0.00220008 0.37764 2.17165 1.67324 -0.194025 0.756561 -0.543977 -0.451425 -0.288761 -0.400268 -0.434041 2.23852 2.2494 2.30451 -0.54811 -0.531485 -0.507627 -0.446419 -0.499972 2.23108 2.21579 -0.549292 -0.535277 -0.539287 -0.51639 -0.472353 2.26927
internal_count=43615 2187 41428 796 387 1863 251 324 240 40632 1725 597 409 436 1612 1506 380 38907 6329 2669 899 703 1126 736 3660 566 1770 732 271 279


Tree=23
num_leaves=31
split_feature=10 59 41 25 56 68 10 71 69 13 24 68 59 61 56 41 61 25 34 53 32 41 13 72 85 86 74 61 13 34
split_gain=5767.15 5232.2 1253.57 316.261 140.077 138.405 96.5995 91.9383 76.1135 69.2793 64.741 58.3043 72.898 52.052 51.8662 51.0795 31.1232 26.6561 23.1825 23.739 22.3678 19.113 26.9153 17.5108 16.4489 15.8681 14.4402 13.3806 17.5414 13.4948
threshold=4.5 3.5 2.5 1.5 0.5 4.5 3.5 2.5 1.5 2.5 0.5 0.5 1.5 3.5 2.5 1.5 4.5 0.5 2.5 3.5 0.5 0.5 1.5 0.5 2.5 3.5 1.5 1.5 1.5 0.5
decision_type=0 0 0 0 0 0 0 0 0 0 0 0 0 0 0 0 0 0 0 0 0 0 0 0 0 0 0 0 0 0
left_child=1 2 3 4 6 26 15 9 10 13 18 12 14 23 21 17 24 25 19 -5 -17 -6 -23 -4 -3 -1 -2 28 29 -19
right_child=5 16 7 8 11 -7 -8 -9 -10 -11 -12 -13 -14 -15 -16 20 -18 27 -20 -21 -22 22 -24 -25 -26 -27 -28 -29 -30 -31
leaf_parent=25 26 24 23 19 21 5 6 7 8 9 10 11 12 13 14 20 16 29 18 19 20 22 22 23 24 25 26 27 28 29
leaf_value=-0.0484315 0.222591 0.218356 0.199266 0.145101 -0.0133331 -0.0365333 0.0966947 -0.0281968 -0.020628 0.0382139 0.0444579 -0.0305382 0.158407 0.0656622 0.131951 0.0400233 0.111222 0.00267157 0.0783047 0.25908 -0.0271942 0.0801836 -0.0470306 0.121876 0.146325 0.00984581 0.160877 -0.0449188 -0.0457292 0.0807601
leaf_count=26869 4550 3094 885 181 1057 119 205 123 311 178 405 1269 154 175 135 501 104 501 104 104 548 276 128 117 112 254 120 574 320 142
internal_value=0 0.106663 -0.224149 -0.333314 -0.379102 2.17746 -0.429491 1.4877 0.762006 1.61689 1.07266 0.0801597 0.332853 1.7666 0.171692 -0.442173 2.13362 -0.461135 1.61072 1.88218 0.056174 0.0305998 0.4394 1.9069 2.16145 -0.478717 2.21096 -0.169978 -0.00836853 0.19967
internal_count=43615 38826 35516 34038 32933 4789 29914 1478 1105 1355 794 3019 1750 1177 1596 29709 3310 28660 389 285 1049 1461 404 1002 3206 27123 4670 1537 963 643


Tree=24
num_leaves=31
split_feature=38 49 38 85 22 49 89 85 68 85 49 13 10 38 43 49 61 16 38 61 49 63 66 71 85 66 13 53 23 38
split_gain=1103.99 224.361 102.625 99.2297 50.1337 47.2962 39.2043 33.4917 30.4201 28.5339 26.2687 22.0781 21.003 20.3483 19.8431 17.755 17.5794 13.3416 12.7622 11.1903 13.9926 10.7562 9.70275 10.2255 8.72337 8.71247 8.60853 8.21064 9.76085 10.6312
threshold=2.5 2.5 4.5 19.5 0.5 2.5 2.5 2.5 2.5 3.5 4.5 0.5 0.5 12.5 0.5 0.5 0.5 2.5 0.5 0.5 0.5 5.5 0.5 0.5 1.5 0.5 0.5 0.5 0.5 0.5
decision_type=0 0 0 0 0 0 0 0 0 0 0 0 0 0 0 0 0 0 0 0 0 0 0 0 0 0 0 0 0 0
left_child=1 3 5 4 7 8 10 19 12 17 14 18 -2 15 -3 -4 -12 -6 22 20 24 -13 23 -9 -1 26 -26 28 -22 -30
right_child=2 6 13 -5 9 -7 -8 11 -10 -11 16 21 -14 -15 -16 -17 -18 -19 -20 -21 27 -23 -24 -25 25 -27 -28 -29 29 -31
leaf_parent=24 12 14 15 3 17 5 6 23 8 9 16 21 12 13 14 15 16 17 18 19 28 21 22 23 26 25 26 27 29 29
leaf_value=-0.0467546 0.0356795 0.0888476 0.0896094 0.147393 -0.0235771 0.183968 -0.0322965 0.040157 -0.0518521 0.0671752 0.185402 -0.0394453 0.137759 0.218811 -0.00302841 0.18282 0.0839757 0.0422865 0.0713777 -0.0518544 0.037267 0.0299043 -0.0247345 -0.0272659 0.0282725 -0.0420923 -0.0271349 -0.0409717 -0.0369047 0.0422481
leaf_count=16494 244 253 106 113 1976 125 185 308 130 206 130 2997 140 338 185 257 156 176 113 14623 202 125 777 188 209 1223 481 603 448 104
internal_value=0 -0.387935 1.43279 -0.415844 -0.422843 0.779467 0.655673 -0.443464 0.465769 -0.0975891 0.855337 -0.255487 0.747402 1.88408 0.523953 1.55898 1.33103 -0.180814 -0.0165637 -0.46881 -0.432484 -0.366126 -0.0826668 0.160391 -0.44994 -0.300728 -0.093896 -0.208539 -0.0508594 -0.209687
internal_count=43615 42275 1340 41366 41253 639 909 38895 514 2358 724 4508 384 701 438 363 286 2152 1386 34387 19764 3122 1273 496 18407 1913 690 1357 754 552


Tree=25
num_leaves=31
split_feature=89 74 67 68 46 34 6 89 67 46 68 68 35 57 74 41 18 75 3 77 61 41 16 77 53 59 18 77 66 12
split_gain=3354.16 1548.04 1357.07 567.86 435.421 233.316 214.344 169.115 153.342 156.086 106.127 99.5087 89.4823 63.2915 60.71 60.4255 57.2233 46.6895 45.127 44.6655 38.5326 27.7698 27.1396 26.5591 25.3472 24.5866 28.2119 29.7967 22.945 22.7273
threshold=1.5 4.5 2.5 1.5 1.5 13.5 1.5 3.5 5.5 0.5 0.5 4.5 4.5 1.5 2.5 0.5 2.5 1.5 0.5 0.5 0.5 0.5 0.5 1.5 0.5 1.5 0.5 0.5 3.5 0.5
decision_type=0 0 0 0 0 0 0 0 0 0 0 0 0 0 0 0 0 0 0 0 0 0 0 0 0 0 0 0 0 0
left_child=1 2 3 4 5 6 14 10 9 -4 17 13 20 25 16 23 19 -2 29 -1 -3 -12 -10 -6 28 26 27 -5 -16 -8
right_child=7 12 8 11 15 -7 18 -9 22 -11 21 -13 -14 -15 24 -17 -18 -19 -20 -21 -22 -23 -24 -25 -26 -27 -28 -29 -30 -31
leaf_parent=19 17 20 9 27 23 5 29 7 22 9 21 11 12 13 28 15 16 17 18 19 20 21 22 23 24 25 26 27 28 29
leaf_value=-0.0484528 0.0507139 0.209441 0.00950276 -0.000371953 0.11312 0.210806 0.0840967 0.222675 0.239552 0.190382 0.212371 0.191739 0.0188385 0.190836 0.141385 0.0306008 0.0974618 0.181412 -0.0114774 -0.00975835 0.0984073 0.107869 0.132427 0.21057 -0.0309191 -0.0271245 0.147529 0.121211 0.0148573 0.187745
leaf_count=32762 647 1010 488 311 403 119 228 1892 591 355 445 296 136 130 116 355 128 134 159 1520 127 130 101 131 180 192 116 115 141 157
internal_value=0 -0.0998732 -0.201462 -0.30151 -0.360584 -0.408028 -0.422233 1.91162 1.62283 0.985124 1.33286 1.06224 1.848 0.664623 -0.446878 0.997828 -0.458738 0.776112 0.917582 -0.465093 1.98704 1.91599 2.24487 1.38091 0.356224 0.409884 0.627589 0.362716 0.766887 1.2904
internal_count=43615 40367 39094 37559 36399 35510 35391 3248 1535 843 1356 1160 1273 864 34847 889 34410 781 544 34282 1137 575 692 534 437 734 542 426 257 385


Tree=26
num_leaves=31
split_feature=35 52 58 90 7 61 58 61 29 75 71 66 31 91 58 85 43 59 41 35 23 7 28 13 63 23 58 35 61 59
split_gain=1655.56 1078.41 744.29 505.125 238.814 188.448 106.163 96.6111 83.7341 67.0342 53.2569 49.1164 43.1221 40.5464 39.0937 43.2971 45.7866 37.9905 37.825 32.9583 28.2619 54.6334 26.327 23.5676 24.3332 23.1325 21.7014 21.1964 20.7826 19.2085
threshold=2.5 3.5 3.5 6.5 2.5 5.5 8.5 4.5 1.5 2.5 1.5 1.5 0.5 4.5 2.5 0.5 0.5 0.5 0.5 0.5 3.5 2.5 0.5 2.5 1.5 5.5 1.5 4.5 3.5 1.5
decision_type=0 0 0 0 0 0 0 0 0 0 0 0 0 0 0 0 0 0 0 0 0 0 0 0 0 0 0 0 0 0
left_child=1 2 3 5 7 11 18 8 14 -6 12 -1 22 19 15 16 17 25 -4 26 21 23 -7 24 29 27 -13 -2 -3 -21
right_child=4 28 6 -5 9 10 -8 -9 -10 -11 -12 13 -14 -15 -16 -17 -18 -19 -20 20 -22 -23 -24 -25 -26 -27 -28 -29 -30 -31
leaf_parent=11 27 28 18 3 9 22 6 7 8 9 10 26 12 13 14 15 16 17 18 29 20 21 22 23 24 25 26 27 28 29
leaf_value=-0.0513042 0.100375 0.145499 0.203195 0.198011 0.204462 0.0933289 0.337665 0.180702 0.201595 0.0503544 -0.0202379 -0.0436495 0.00694944 0.0852592 0.158714 -0.0383139 -0.0317658 -0.00063162 0.0400706 0.0328011 -0.0393459 0.131529 0.209933 -0.0537233 -0.0440067 0.034957 0.0210129 0.219558 0.209989 -0.040243
leaf_count=22675 150 271 159 289 1004 269 202 246 130 123 324 11162 195 130 100 401 239 173 121 956 1928 118 104 524 432 104 282 101 470 233
internal_value=0 -0.280361 -0.346044 -0.38464 1.30481 -0.414063 2.2716 0.754248 0.510573 1.90603 0.537435 -0.441684 0.893316 -0.342907 0.328689 0.214836 0.504214 0.834612 1.37411 -0.354511 -0.18092 -0.0134034 1.27657 -0.10603 0.0256754 1.21025 -0.420104 1.53355 1.88266 0.190029
internal_count=43615 40844 40103 39621 2771 39332 482 1644 1398 1127 892 38440 568 15765 1268 1168 767 528 280 15635 4191 2263 373 2145 1621 355 11444 251 741 1189


Tree=27
num_leaves=31
split_feature=16 77 83 15 4 57 41 52 36 16 16 82 12 24 70 67 57 63 15 14 39 76 88 66 84 67 10 19 77 75
split_gain=197.834 68.6016 57.444 52.6688 47.5085 40.4683 40.9621 36.8148 30.5297 25.6565 21.4566 24.8313 16.8252 16.7629 15.7606 15.1916 16.9791 13.527 12.4888 11.9146 11.7483 17.4752 17.3293 11.9988 16.2331 11.6884 10.3955 10.0161 11.2091 9.66081
threshold=1.5 2.5 0.5 0.5 1.5 0.5 0.5 12.5 0.5 0.5 2.5 0.5 3.5 0.5 0.5 1.5 1.5 0.5 1.5 0.5 0.5 1.5 0.5 10.5 0.5 2.5 0.5 1.5 0.5 5.5
decision_type=0 0 0 0 0 0 0 0 0 0 0 0 0 0 0 0 0 0 0 0 0 0 0 0 0 0 0 0 0 0
left_child=1 2 7 5 8 6 10 9 -4 20 13 14 15 -2 -12 16 17 -3 19 26 21 23 -23 -1 -25 27 -11 28 -5 -19
right_child=3 12 4 25 -6 -7 -8 -9 -10 18 11 -13 -14 -15 -16 -17 -18 29 -20 -21 -22 22 -24 24 -26 -27 -28 -29 -30 -31
leaf_parent=23 13 17 8 28 4 5 6 7 8 26 14 11 12 13 14 15 16 29 18 19 20 22 22 24 24 25 26 27 28 29
leaf_value=-0.0451434 0.083709 0.0274913 -0.0301077 -0.0134394 0.14615 -0.0345934 -0.0142945 0.041852 0.0937056 -0.000470616 0.102379 0.0373227 -0.0448246 -0.0114422 0.192141 -0.0284056 -0.0170504 0.0656443 -0.0465477 -0.0491474 -0.0519081 0.078244 -0.0507565 -0.0333552 0.0604159 0.0624789 -0.0385479 -0.0404038 0.0533374 0.157342
leaf_count=16656 194 135 604 703 106 258 242 237 123 1468 163 124 159 151 155 129 110 105 1332 576 17630 104 101 406 124 109 563 589 158 101
internal_value=0 -0.418977 -0.433534 0.192122 0.169132 0.49893 0.668167 -0.447332 -0.0686203 -0.453628 0.88234 1.17621 0.248728 0.490933 1.46645 0.409033 0.588061 0.818106 -0.273428 -0.181424 -0.474865 -0.430563 0.208642 -0.439689 -0.0938376 -0.107605 -0.10101 -0.162691 -0.00866962 1.15166
internal_count=43615 40769 40030 2846 833 1287 1029 39197 727 38960 787 442 739 345 318 580 451 341 3939 2607 35021 17391 205 17186 530 1559 2031 1450 861 206


Tree=28
num_leaves=31
split_feature=13 14 85 23 25 59 71 63 39 47 16 59 25 54 39 8 82 66 29 24 42 28 15 39 61 31 66 31 59 8
split_gain=2091.17 1641.47 573.384 322.041 210.101 196.486 187.145 175.429 164.31 156.554 135.472 132.463 98.7194 95.0728 91.1517 91.0011 86.5922 77.3685 75.4713 65.3146 62.789 60.2011 55.9716 61.4669 53.6496 51.8079 47.6279 42.3127 41.6848 41.0067
threshold=1.5 1.5 0.5 6.5 1.5 0.5 4.5 4.5 3.5 2.5 0.5 0.5 1.5 0.5 0.5 8.5 0.5 0.5 0.5 3.5 2.5 0.5 0.5 0.5 5.5 9.5 0.5 0.5 0.5 3.5
decision_type=0 0 0 0 0 0 0 0 0 0 0 0 0 0 0 0 0 0 0 0 0 0 0 0 0 0 0 0 0 0
left_child=1 2 6 4 9 10 7 8 19 11 14 18 16 27 15 -4 17 28 20 -1 22 -15 26 -24 -16 -19 -2 -11 -3 -7
right_child=3 12 5 -5 -6 29 -8 -9 -10 13 -12 -13 -14 21 24 -17 -18 25 -20 -21 -22 -23 23 -25 -26 -27 -28 -29 -30 -31
leaf_parent=19 26 28 15 3 4 29 6 7 8 27 10 11 12 21 24 15 16 25 18 19 20 21 23 23 24 25 26 27 28 29
leaf_value=-0.0459395 0.0910364 0.0966199 0.0170203 -0.0247527 -0.0220661 -0.0371113 0.195323 0.0974138 0.0942684 0.169269 -0.0166838 0.0184104 -0.0173207 0.130941 0.103461 0.103728 0.00140277 0.145013 0.00243598 0.0702738 0.058494 -0.00302776 0.0563699 0.15211 -0.0414512 0.0480258 0.138058 0.110832 -0.0155045 0.102204
leaf_count=16870 2138 1380 2053 781 501 1912 114 404 381 2797 1163 668 245 272 2132 625 252 2706 224 221 609 261 283 2417 136 229 1091 473 176 101
internal_value=0 0.188325 -0.0840478 1.13641 1.20032 0.374817 -0.334421 -0.359756 -0.400937 1.24281 0.544109 1.07714 1.12348 1.52247 0.680057 0.409709 1.17585 1.22919 1.14704 -0.44041 1.1812 0.736207 1.23634 1.43213 0.966604 1.38869 1.07282 1.61867 0.866061 -0.283943
internal_count=43615 31100 26112 12515 11734 8122 17990 17876 17472 11233 6109 7430 4988 3803 4946 2678 4743 4491 6762 17091 6538 533 5929 2700 2268 2935 3229 3270 1556 2013


Tree=29
num_leaves=31
split_feature=85 14 59 42 13 39 8 66 8 33 91 31 47 84 42 8 39 23 42 39 63 88 84 42 66 14 14 14 33 91
split_gain=846.893 522.802 358.559 266.904 183.657 167.945 205.758 188.736 120.471 98.2764 97.2015 90.4649 80.0544 74.7476 61.3502 48.7936 47.6952 47.1764 46.9076 44.5253 40.3301 39.3913 36.6698 34.3939 31.5474 30.6049 29.1828 29.0475 28.0563 25.5264
threshold=0.5 1.5 0.5 3.5 2.5 5.5 5.5 2.5 8.5 3.5 0.5 8.5 1.5 4.5 0.5 1.5 3.5 0.5 0.5 0.5 8.5 1.5 1.5 4.5 3.5 9.5 1.5 0.5 0.5 0.5
decision_type=0 0 0 0 0 0 0 0 0 0 0 0 0 0 0 0 0 0 0 0 0 0 0 0 0 0 0 0 0 0
left_child=1 4 3 5 8 6 7 10 13 26 12 14 18 16 15 17 -1 -3 19 27 23 28 -16 -4 29 -19 -9 -2 -7 -6
right_child=2 11 20 -5 24 21 -8 9 -10 -11 -12 -13 -14 -15 22 -17 -18 25 -20 -21 -22 -23 -24 -25 -26 -27 -28 -29 -30 -31
leaf_parent=16 27 17 23 3 29 28 6 26 8 9 10 11 12 13 22 15 16 25 18 19 20 21 22 23 24 25 26 27 28 29
leaf_value=-0.0503769 -0.00316356 0.0474023 -0.0354993 0.164677 0.0425322 0.114047 0.119459 -0.0366511 0.102354 0.110811 -0.015314 0.144575 0.0208604 0.103524 0.0407463 0.0675876 0.0154458 -0.043902 0.104392 0.0746275 0.081961 0.215141 0.141894 0.0616718 -0.0447361 0.0207617 0.0263832 0.0658738 0.0366266 -0.014465
leaf_count=18172 712 830 3246 808 1602 1152 1047 2730 196 215 1068 280 2057 145 294 822 576 870 1203 2171 152 129 325 187 373 652 448 439 230 484
internal_value=0 -0.191865 0.434267 0.569262 -0.354465 0.494046 0.40633 0.309578 -0.44053 -0.153394 0.479228 0.483639 0.566636 -0.465298 0.381817 0.257388 -0.480545 0.0883407 0.711358 0.583162 -0.237257 1.11601 0.972255 -0.294897 0.20177 -0.160645 -0.274288 0.239426 1.01602 0.296311
internal_count=43615 25621 17994 14409 21548 13601 12090 11043 19089 3393 7650 4073 6582 18893 3793 3174 18748 2352 4525 3322 3585 1511 619 3433 2459 1522 3178 1151 1382 2086


Tree=30
num_leaves=31
split_feature=24 25 66 14 66 23 10 47 85 25 17 41 15 24 42 13 13 41 61 66 91 14 59 24 66 39 66 53 15 78
split_gain=165.125 171.587 109.961 82.3589 68.8776 67.9112 50.2577 34.5501 34.47 31.9023 27.818 25.0167 28.0866 34.7737 23.2113 21.1376 20.7104 18.9779 23.7278 19.8422 18.676 18.4436 18.4256 24.4452 14.8212 11.1662 12.3079 11.1856 10.9391 10.702
threshold=1.5 0.5 1.5 5.5 0.5 0.5 0.5 1.5 4.5 0.5 0.5 1.5 0.5 6.5 2.5 4.5 2.5 1.5 1.5 3.5 0.5 4.5 0.5 0.5 1.5 0.5 0.5 2.5 1.5 2.5
decision_type=0 0 0 0 0 0 0 0 0 0 0 0 0 0 0 0 0 0 0 0 0 0 0 0 0 0 0 0 0 0
left_child=3 4 6 8 11 9 7 10 14 -5 28 12 13 20 25 -15 -4 -6 19 -19 -2 -14 -16 -24 -10 -1 27 -27 -3 -28
right_child=1 2 16 5 17 -7 -8 -9 24 -11 -12 -13 21 15 22 -17 -18 18 -20 -21 -22 -23 23 -25 -26 26 29 -29 -30 -31
leaf_parent=25 20 28 16 9 17 5 6 7 24 9 10 11 21 15 22 15 16 19 18 19 20 21 23 23 24 27 29 27 28 29
leaf_value=-0.0515866 -0.0036942 0.180342 -0.0415543 0.034333 -0.0393212 -0.0318426 -0.0135012 0.0161473 0.0173241 0.148681 0.0580658 0.0666306 -0.0305779 0.0256481 -0.0298771 0.162192 0.0530756 0.0788232 -0.0458952 -0.0228649 0.0664376 0.0378901 -0.0338262 0.121502 -0.0506891 -0.0216533 -0.0505997 -0.0512736 0.120774 0.0149332
leaf_count=17704 1774 240 600 459 7075 1011 170 118 640 112 163 268 1876 104 566 101 134 209 377 175 188 208 114 113 252 2480 4969 1063 199 153
internal_value=0 -0.111573 0.525741 -0.419929 -0.214029 0.0777608 0.941042 1.14263 -0.452244 0.626756 1.32309 0.00429024 -0.0385516 0.138759 -0.468253 0.96622 -0.201776 -0.353388 -0.00851581 0.359742 0.040991 -0.229759 -0.0701597 0.497495 -0.00447973 -0.480812 -0.410035 -0.302311 1.55043 -0.486678
internal_count=43615 13979 1624 29636 12355 1582 890 720 28054 571 602 4519 4251 2167 27162 205 734 7836 761 384 1962 2084 793 227 892 26369 8665 3543 439 5122


Tree=31
num_leaves=31
split_feature=33 38 33 15 23 59 82 53 66 33 53 24 88 23 23 39 47 33 33 53 24 23 14 23 32 23 63 32 39 8
split_gain=3225.75 219.347 45.1614 27.7946 20.8806 13.4683 11.488 3.17067 3.94238 2.86514 4.58416 6.02572 2.28722 1.28723 0.606979 0.551294 0.754387 0.965839 0.386785 0.482566 0.94544 1.54982 0.641673 0.188624 0.142577 0.135967 0.121863 0.154361 0.28907 0.0635868
threshold=4.5 0.5 2.5 0.5 3.5 0.5 0.5 2.5 2.5 1.5 0.5 0.5 0.5 4.5 0.5 1.5 1.5 6.5 0.5 0.5 0.5 0.5 0.5 2.5 4.5 1.5 0.5 0.5 1.5 8.5
decision_type=0 0 0 0 0 0 0 0 0 0 0 0 0 0 0 0 0 0 0 0 0 0 0 0 0 0 0 0 0 0
left_child=2 5 9 4 -4 12 -3 8 -5 18 11 -11 13 15 -13 16 17 -2 29 20 21 -20 25 -18 -21 -23 -22 -28 -29 -1
right_child=1 6 3 7 -6 -7 -8 -9 -10 10 -12 14 -14 -15 -16 -17 23 -19 19 24 26 22 -24 -25 -26 -27 27 28 -30 -31
leaf_parent=29 17 6 4 8 4 5 6 7 8 11 10 14 12 13 14 15 23 17 21 24 26 25 22 23 24 25 27 28 28 29
leaf_value=-0.054852 0.200563 0.0318645 0.0901156 0.0109757 -0.0289084 0.12764 -0.0555489 -0.0551646 -0.0470162 0.00218222 -0.0538954 -0.0326257 0.157315 0.166292 -0.0529712 0.194128 0.171416 0.183545 -0.0259842 -0.0548542 -0.0552067 -0.0460959 -0.0349323 0.180172 -0.0471097 -0.0551332 -0.0538389 -0.0392379 -0.0551207 -0.0533436
leaf_count=30799 100 124 171 120 120 150 200 257 128 210 1128 117 101 113 270 136 143 1004 196 3514 1038 122 137 116 146 444 461 145 126 1779
internal_value=0 1.62071 -0.527813 0.00419459 0.498247 1.77687 -0.188169 -0.356441 -0.176315 -0.539972 -0.443271 -0.279887 1.81452 1.82877 -0.464296 1.84114 1.83171 1.84971 -0.544312 -0.526863 -0.502351 -0.439489 -0.4944 1.7532 -0.545374 -0.531157 -0.535219 -0.511147 -0.465346 -0.547706
internal_count=43615 2187 41428 796 291 1863 324 505 248 40632 1725 597 1713 1612 387 1499 1363 1104 38907 6329 2669 899 703 259 3660 566 1770 732 271 32578


Tree=32
num_leaves=31
split_feature=10 59 41 25 39 56 89 15 75 10 59 77 13 3 59 85 41 39 52 32 41 3 56 57 41 39 25 12 41 61
split_gain=4260.59 4072.66 971.03 280.887 135.768 96.665 82.9064 79.7886 73.149 58.8689 56.5771 51.886 46.4403 41.6813 32.236 41.3892 31.2496 33.5297 30.0887 29.7478 30.5698 24.2575 23.5369 23.9173 18.5817 17.6988 19.3383 16.3801 14.1207 14.1057
threshold=4.5 2.5 2.5 0.5 0.5 0.5 3.5 5.5 3.5 3.5 1.5 0.5 2.5 1.5 6.5 0.5 1.5 0.5 1.5 1.5 0.5 7.5 2.5 0.5 0.5 2.5 2.5 1.5 4.5 0.5
decision_type=0 0 0 0 0 0 0 0 0 0 0 0 0 0 0 0 0 0 0 0 0 0 0 0 0 0 0 0 0 0
left_child=1 2 3 5 11 9 -2 12 14 16 22 13 18 19 15 24 -1 -18 28 20 -5 -15 -7 -24 -3 26 -6 -17 -4 -22
right_child=6 8 7 4 25 10 -8 -9 -10 -11 -12 -13 -14 21 -16 27 17 -19 -20 -21 29 -23 23 -25 -26 -27 -28 -29 -30 -31
leaf_parent=16 6 24 28 20 26 22 6 7 8 9 10 11 12 21 14 27 17 17 18 19 29 21 23 23 24 25 26 27 28 29
leaf_value=-0.0474892 0.181315 0.104573 0.136215 0.0410777 -0.0117143 -0.0174614 0.0218075 -0.00955538 0.0437686 0.0717897 0.110255 -0.0278473 0.0333174 0.186599 0.182469 0.115546 0.0537665 -0.0388693 0.0556574 -0.0475912 0.156559 0.0695454 0.105072 -0.0319803 0.183119 -0.0459575 0.0789087 0.0215116 0.178824 0.0749937
leaf_count=27020 4638 127 466 471 828 2166 151 170 176 167 165 217 164 197 2558 212 318 563 117 101 187 100 129 108 490 737 121 111 484 156
internal_value=0 0.0986767 -0.228675 -0.331002 0.28465 -0.406415 1.78463 1.23753 1.69361 -0.449477 0.0100895 0.725402 1.37928 0.877645 1.73745 1.44957 -0.4598 -0.0321364 1.4956 0.64615 0.77017 1.48843 -0.0924604 0.528102 1.69381 -0.181928 0.0168391 0.881885 1.5889 1.21205
internal_count=43615 38826 35152 33751 3115 30636 4789 1401 3674 28068 2568 1429 1231 1212 3498 940 27901 881 1067 915 814 297 2403 237 617 1686 949 323 950 343


Tree=33
num_leaves=31
split_feature=38 55 49 85 44 49 22 89 49 42 85 16 38 63 49 54 13 61 44 23 38 85 13 31 52 55 88 63 39 61
split_gain=945.511 215.779 211.18 86.592 72.1417 68.1294 51.6298 31.6817 25.5938 22.7277 31.8408 29.0855 21.5963 21.5301 23.9274 22.6351 17.0375 13.9674 13.0916 15.2253 13.035 10.2121 10.8609 8.53384 8.02626 7.9941 7.96234 7.77816 7.16847 6.74865
threshold=2.5 8.5 2.5 17.5 0.5 2.5 0.5 3.5 0.5 0.5 3.5 0.5 4.5 9.5 5.5 0.5 2.5 0.5 4.5 10.5 0.5 4.5 0.5 1.5 0.5 4.5 0.5 0.5 0.5 0.5
decision_type=0 0 0 0 0 0 0 0 0 0 0 0 0 0 0 0 0 0 0 0 0 0 0 0 0 0 0 0 0 0
left_child=1 2 3 6 5 12 8 13 21 10 -8 28 26 14 15 23 -3 20 19 -6 -10 25 24 -4 -23 29 27 -2 -11 -1
right_child=4 16 7 -5 18 -7 9 -9 17 11 -12 -13 -14 -15 -16 -17 -18 -19 -20 -21 -22 22 -24 -25 -26 -27 -28 -29 -30 -31
leaf_parent=29 27 16 23 3 19 5 10 7 20 28 10 11 12 13 14 15 16 17 18 19 20 24 22 23 24 25 26 27 28 29
leaf_value=-0.0456659 0.063821 0.158196 0.0714666 0.11166 0.156544 0.181066 -0.0335714 -0.0406541 -0.0214951 0.0288934 0.0738547 0.105032 0.0883621 -0.015007 0.150285 0.00486496 0.0575725 -0.0427909 0.189085 0.0728138 0.0299205 0.0282979 -0.0406841 0.142875 -0.0459516 0.0151755 -0.0517378 -0.0159827 -0.0325996 -0.0526013
leaf_count=19538 104 204 187 140 350 135 1621 162 1493 177 139 175 141 103 161 189 113 1568 255 104 296 248 1015 106 116 108 117 134 226 14190
internal_value=0 -0.378753 -0.396441 -0.425553 1.23618 0.708348 -0.433447 0.594191 -0.455242 -0.0987345 -0.233758 0.290297 0.307531 0.745632 0.878016 0.635942 1.26944 -0.259311 1.59471 1.39997 -0.122582 -0.474901 -0.275537 0.97397 0.060092 -0.483383 -0.0239812 0.200851 -0.0529871 -0.485556
internal_count=43615 42275 41958 41050 1340 631 40910 908 38572 2338 1760 578 496 746 643 482 317 3357 709 454 1789 35215 1379 293 364 33836 355 238 403 33728


Tree=34
num_leaves=31
split_feature=89 74 67 77 18 46 15 75 77 59 59 66 89 46 3 6 82 24 82 36 26 57 10 38 24 67 46 15 70 70
split_gain=2616.86 1241.64 1122.23 470.193 223.592 152.634 151.121 150.875 121.257 112.235 111.612 95.8767 87.0391 84.4474 74.8567 52.2097 69.3422 50.4371 59.1874 50.0018 46.9163 44.7552 99.5704 44.5328 43.7182 37.9218 48.7247 30.8554 30.6117 27.2963
threshold=1.5 3.5 2.5 0.5 3.5 1.5 0.5 3.5 9.5 7.5 4.5 9.5 3.5 3.5 19.5 1.5 0.5 0.5 0.5 0.5 0.5 2.5 3.5 0.5 0.5 4.5 0.5 0.5 1.5 1.5
decision_type=0 0 0 0 0 0 0 0 0 0 0 0 0 0 0 0 0 0 0 0 0 0 0 0 0 0 0 0 0 0
left_child=1 2 3 4 5 7 -3 14 13 12 11 25 17 15 21 16 -5 20 -19 -18 -2 29 -23 -17 -9 26 -4 -21 -7 -1
right_child=9 6 10 8 -6 28 -8 24 -10 -11 -12 -13 -14 -15 -16 23 19 18 -20 27 -22 22 -24 -25 -26 -27 -28 -29 -30 -31
leaf_parent=29 20 6 26 16 4 28 6 24 8 9 10 11 12 13 14 23 19 18 18 27 20 22 22 23 24 25 26 27 28 29
leaf_value=-0.0477621 0.173033 0.169414 0.0448533 -0.0184258 0.186013 0.0256693 0.0279203 0.144082 0.195982 -0.0246533 -0.0540715 0.018037 0.185238 0.165345 0.122708 0.156364 0.011131 0.0134706 0.145839 0.173871 0.0280105 0.12618 -0.0550629 0.00531172 -0.00231953 0.191337 0.176862 0.0355105 0.118486 -0.0101907
leaf_count=31805 597 1127 239 1248 140 439 398 217 174 139 133 209 1852 161 110 199 348 327 218 156 115 203 486 131 168 721 215 103 170 1067
internal_value=0 -0.0959784 -0.201591 -0.300889 -0.382507 -0.398639 1.43074 -0.424494 0.549595 1.58759 1.36756 1.50401 1.64592 0.404626 -0.443766 0.278898 0.130603 1.23127 0.759206 0.674068 1.54742 -0.451374 0.13065 0.999402 0.885539 1.68508 1.21305 1.27178 0.563398 -0.46449
internal_count=43615 40367 38842 37325 34805 34665 1525 34056 2520 3248 1517 1384 3109 2346 33671 2185 1855 1257 545 607 712 33561 689 330 385 1175 454 259 609 32872


Tree=35
num_leaves=31
split_feature=35 52 90 61 7 14 75 66 77 39 35 59 7 66 63 40 66 23 43 16 10 63 39 23 59 77 40 77 63 10
split_gain=1382.94 889.321 403.724 307.455 163.029 89.8974 82.2303 74.6157 60.4536 63.289 58.3133 50.7701 46.9982 46.074 62.099 42.2986 36.1702 34.728 30.0147 25.5726 22.0876 21.6247 20.9692 30.2925 28.6502 40.2059 30.8492 20.9505 19.3782 23.8493
threshold=2.5 3.5 6.5 4.5 3.5 2.5 0.5 1.5 0.5 5.5 1.5 2.5 2.5 1.5 2.5 0.5 7.5 2.5 0.5 5.5 0.5 1.5 1.5 4.5 3.5 0.5 1.5 0.5 1.5 0.5
decision_type=0 0 0 0 0 0 0 0 0 0 0 0 0 0 0 0 0 0 0 0 0 0 0 0 0 0 0 0 0 0
left_child=1 2 3 7 6 8 11 -1 9 16 15 13 27 -2 18 19 17 20 -15 -9 -5 22 23 24 25 26 -17 28 29 -12
right_child=4 -3 -4 5 -6 -7 -8 10 -10 -11 12 -13 -14 14 -16 21 -18 -19 -20 -21 -22 -23 -24 -25 -26 -27 -28 -29 -30 -31
leaf_parent=7 13 1 2 20 4 5 6 19 8 9 29 11 12 18 14 26 16 17 18 19 20 21 22 23 24 25 26 27 28 29
leaf_value=-0.0505344 0.0230158 0.157447 0.164131 0.144281 0.164078 -0.0456404 0.012722 -0.0413982 -0.02903 -0.0342225 0.0586572 -0.0250948 0.113569 0.175111 -0.00230222 0.0467165 0.20057 0.0153809 0.0754462 0.0748773 0.0350457 -0.0457954 -0.0443802 -0.032341 -0.0493064 -0.0419026 0.149777 -0.0498097 -0.0384854 -0.0330556
leaf_count=22459 189 741 290 374 957 401 708 11503 207 148 496 129 161 523 124 507 157 181 141 101 106 635 402 518 185 192 197 396 275 212
internal_value=0 -0.271558 -0.337036 -0.365757 1.12235 0.547776 0.72328 -0.413811 0.803557 1.00168 -0.291296 1.03312 0.123607 1.16808 1.35338 -0.340692 1.20108 0.982502 1.55719 -0.4032 1.24163 -0.0745538 0.0420756 0.158464 0.368608 0.528227 0.769734 -0.0297979 0.140394 0.331754
internal_count=43615 40844 40103 39813 2771 1574 1814 38239 1173 966 15780 1106 1540 977 788 14240 818 661 664 11604 480 2636 2001 1599 1081 896 704 1379 983 708


Tree=36
num_leaves=31
split_feature=16 77 83 34 36 24 52 16 59 68 47 4 12 79 75 13 15 39 76 88 66 84 16 65 46 14 34 24 89 16
split_gain=188.124 65.7484 55.1969 48.3026 38.6401 35.9424 35.3723 25.7564 20.0898 18.5464 18.2738 16.5999 14.8566 14.3075 15.7633 13.1725 12.0405 12.0275 16.5672 14.6836 11.8417 14.4605 11.7585 16.0472 11.6616 11.4523 9.62318 9.89422 9.74216 8.45802
threshold=1.5 2.5 0.5 0.5 0.5 0.5 12.5 0.5 2.5 2.5 1.5 0.5 3.5 0.5 0.5 1.5 1.5 0.5 1.5 0.5 10.5 0.5 3.5 0.5 0.5 0.5 0.5 0.5 0.5 3.5
decision_type=0 0 0 0 0 0 0 0 0 0 0 0 0 0 0 0 0 0 0 0 0 0 0 0 0 0 0 0 0 0
left_child=1 2 6 5 11 8 7 17 9 10 -2 -4 13 14 -3 22 25 18 20 -20 -1 -22 -7 -24 -16 26 27 28 -9 -12
right_child=3 12 4 -5 -6 15 -8 16 -10 -11 29 -13 -14 -15 24 -17 -18 -19 19 -21 21 -23 23 -25 -26 -27 -28 -29 -30 -31
leaf_parent=20 10 14 11 3 4 22 6 28 8 9 29 11 12 13 24 15 16 17 19 19 21 21 23 23 24 25 26 27 28 29
leaf_value=-0.0443913 0.113843 -0.0113252 -0.0311989 -0.0324647 0.111321 -0.00226681 0.040246 0.0247903 -0.0149194 -0.014743 0.0271472 0.0541002 -0.043824 -0.0204619 0.111791 -0.0438195 -0.045764 -0.0514213 0.0691362 -0.0500276 -0.0322752 0.0553402 0.105171 -1.86129e-05 0.025678 -0.0485473 -0.041737 -0.022632 -0.038536 0.0952449
leaf_count=16656 330 121 539 835 151 545 237 716 162 106 241 143 159 165 187 262 1332 17630 104 101 406 124 116 140 107 576 438 713 164 109
internal_value=0 -0.410605 -0.425547 0.184916 0.163836 0.349585 -0.439726 -0.446238 0.622361 0.736114 0.841337 -0.098469 0.240642 0.385048 0.579214 0.0467191 -0.263069 -0.468208 -0.42246 0.1966 -0.4318 -0.0854723 0.178484 0.539079 0.821361 -0.172792 -0.0945677 -0.0149699 0.140849 0.496291
internal_count=43615 40769 40030 2846 833 2011 39197 38960 948 786 680 682 739 580 415 1063 3939 35021 17391 205 17186 530 801 256 294 2607 2031 1593 880 350


Tree=37
num_leaves=31
split_feature=39 14 13 63 25 24 1 71 19 65 40 41 42 53 71 47 74 58 21 42 42 74 68 41 10 61 15 63 63 70
split_gain=1644.58 933.963 778.376 380.969 221.955 164.323 139.727 127.617 121.599 119.57 114.491 109.536 92.4216 100.905 86.4396 85.8008 85.1088 83.0282 71.1075 55.7412 55.2968 54.8243 54.1287 49.2581 48.2437 42.1238 40.4246 40.139 38.3615 37.3788
threshold=1.5 1.5 2.5 5.5 1.5 1.5 0.5 4.5 0.5 0.5 0.5 0.5 0.5 0.5 2.5 2.5 0.5 0.5 0.5 0.5 3.5 0.5 0.5 2.5 3.5 8.5 0.5 4.5 3.5 0.5
decision_type=0 0 0 0 0 0 0 0 0 0 0 0 0 0 0 0 0 0 0 0 0 0 0 0 0 0 0 0 0 0
left_child=1 2 3 5 6 7 10 12 19 16 15 14 28 -14 22 20 17 18 29 21 23 -4 27 24 26 -12 -2 -3 -1 -7
right_child=4 11 8 -5 -6 9 -8 -9 -10 -11 25 -13 13 -15 -16 -17 -18 -19 -20 -21 -22 -23 -24 -25 -26 -27 -28 -29 -30 -31
leaf_parent=28 26 27 21 3 4 29 6 7 8 9 25 11 13 13 14 15 16 17 18 19 20 21 22 23 24 25 26 27 28 29
leaf_value=-0.0446359 0.0951336 0.0740691 0.128708 0.0827 -0.0202491 0.126179 -0.00237667 0.1569 -0.00765937 -0.0425879 0.0740902 0.0314623 0.0630915 -0.0378089 0.146737 0.139665 -0.033518 -0.0245636 -0.00774899 0.0463543 0.0416958 0.00977837 -0.0266643 -0.0188909 -0.0502892 -0.0376055 0.125135 0.124635 0.0373794 -0.00212885
leaf_count=16843 2574 1385 1474 1329 741 843 551 102 466 1272 1758 839 882 1286 1055 2895 568 382 284 427 498 154 158 127 108 180 3252 774 285 123
internal_value=0 0.177352 -0.0101115 -0.171912 1.00007 -0.257195 1.04791 -0.349672 0.903844 0.174077 1.08305 0.936403 -0.369277 0.0821787 1.07192 1.16012 0.448032 0.665612 0.898731 1.0605 1.04032 1.1973 0.867123 1.08445 1.10506 0.669508 1.1213 0.935018 -0.430234 1.13277
internal_count=43615 30931 26720 24199 12684 22870 11943 19398 2521 3472 11392 4211 19296 2168 3372 9454 2200 1632 1250 2055 6559 1628 2317 6061 5934 1938 5826 2159 17128 966


Tree=38
num_leaves=31
split_feature=24 59 42 8 66 14 87 91 39 47 42 87 2 39 39 42 13 8 23 23 82 89 47 84 39 14 14 42 25 42
split_gain=651.062 341.066 299.569 266.47 311.571 168.638 138.475 129.338 121.584 88.1682 87.4886 80.5183 71.6384 65.0799 55.8916 54.7597 47.7325 45.9292 42.7891 42.5894 38.4092 51.6609 38.2221 35.7425 33.1324 31.577 24.3 23.5474 22.2531 22.1755
threshold=0.5 0.5 3.5 5.5 2.5 1.5 3.5 0.5 5.5 0.5 0.5 2.5 0.5 0.5 6.5 4.5 6.5 5.5 2.5 1.5 0.5 0.5 4.5 0.5 3.5 1.5 0.5 0.5 0.5 0.5
decision_type=0 0 0 0 0 0 0 0 0 0 0 0 0 0 0 0 0 0 0 0 0 0 0 0 0 0 0 0 0 0
left_child=5 2 3 4 7 6 10 8 9 13 16 -11 20 26 25 17 -1 -3 -5 22 -12 -22 -10 -7 -9 -6 29 -15 -17 -2
right_child=1 15 -4 18 14 23 -8 24 19 11 12 -13 -14 27 -16 28 -18 -19 -20 -21 21 -23 -24 -25 -26 -27 -28 -29 -30 -31
leaf_parent=16 29 17 2 18 25 23 6 24 22 11 20 11 12 27 14 28 16 17 18 19 21 21 22 23 24 25 26 27 28 29
leaf_value=-0.0473435 -0.0205602 -0.0398047 0.145961 0.0618387 -0.0416466 0.00262792 0.0751256 -0.029963 0.100795 -0.00267125 0.00588772 0.0728106 -0.04893 0.0656531 0.0695526 0.119648 0.086233 0.0612303 0.114991 0.0295479 0.129761 -0.0390309 0.191603 0.0560424 0.0243601 0.0135779 0.0547598 0.107474 -0.00347457 0.0739252
leaf_count=14369 732 4395 883 925 4008 1235 437 1406 1065 2833 645 774 909 2227 233 127 117 180 1242 284 290 137 198 1061 888 614 502 654 124 121
internal_value=0 0.307651 0.419075 0.354377 0.247087 -0.252297 -0.344679 0.417239 0.517499 0.405891 -0.388128 0.152694 0.0565114 0.599149 -0.269102 -0.268801 -0.458471 -0.33765 0.94722 1.01048 0.400032 0.880157 1.1565 0.283031 -0.0662867 -0.334986 0.199094 0.758345 0.655894 -0.040611
internal_count=43615 24415 19589 18706 16539 19200 16904 11684 9390 7843 16467 3607 1981 4236 4855 4826 14486 4575 2167 1547 1072 427 1263 2296 2294 4622 1355 2881 251 853


Tree=39
num_leaves=31
split_feature=24 25 66 14 66 23 87 10 23 87 41 24 84 25 15 74 13 41 61 14 66 17 91 87 24 66 39 23 39 59
split_gain=159.559 152.835 89.7001 79.3327 64.4404 59.2776 45.6424 38.8276 28.0496 26.8029 22.0534 30.7882 21.6508 21.5735 20.7575 19.2597 18.8471 18.5212 21.6618 18.2971 16.5467 12.8985 12.7273 12.8269 23.8106 11.7924 11.0898 10.6719 10.3696 10.3694
threshold=1.5 0.5 1.5 5.5 0.5 0.5 2.5 0.5 1.5 0.5 0.5 6.5 3.5 0.5 0.5 0.5 2.5 1.5 1.5 3.5 3.5 0.5 0.5 1.5 4.5 0.5 0.5 0.5 0.5 0.5
decision_type=0 0 0 0 0 0 0 0 0 0 0 0 0 0 0 0 0 0 0 0 0 0 0 0 0 0 0 0 0 0
left_child=3 4 7 6 10 9 12 8 15 26 14 19 28 25 22 21 -4 27 20 -12 -19 -3 23 -2 -25 -8 -5 -6 -1 -14
right_child=1 2 16 5 17 -7 13 -9 -10 -11 11 -13 29 -15 -16 -17 -18 18 -20 -21 -22 -23 -24 24 -26 -27 -28 -29 -30 -31
leaf_parent=28 23 21 16 26 27 5 25 7 8 9 19 11 29 13 14 15 16 20 18 19 20 21 22 24 24 25 26 27 28 29
leaf_value=-0.0517371 -0.0136771 0.114041 -0.0405914 0.0598202 -0.025895 -0.0308013 -0.00144995 -0.012282 0.0213544 0.114296 0.00119702 0.124906 -0.0202051 0.0683099 -0.0286677 0.174814 0.0490216 0.0712993 -0.0450259 0.0897562 -0.021485 0.0357771 0.0576201 0.00175391 0.112091 -0.0447435 -0.0123682 -0.0455756 -0.0410652 0.0527293
leaf_count=17574 1116 341 600 172 2560 1011 944 170 145 205 885 125 452 161 1557 127 134 209 377 117 175 107 181 420 118 584 194 4515 8213 126
internal_value=0 -0.104437 0.486774 -0.411565 -0.204499 0.0766337 -0.444732 0.841032 1.00511 0.571076 0.00551962 0.276984 -0.471584 -0.0742274 -0.0868532 1.17402 -0.190312 -0.343365 -0.00054146 0.135134 0.341324 0.98 0.0714546 0.00258389 0.288288 -0.166112 0.227415 -0.383982 -0.483003 -0.0283341
internal_count=43615 13979 1624 29636 12355 1582 28054 890 720 571 4519 1127 26365 1689 3392 575 734 7836 761 1002 384 448 1835 1654 538 1528 366 7075 25787 578


Tree=40
num_leaves=31
split_feature=24 10 66 69 74 14 59 13 42 77 71 65 16 59 91 87 23 47 10 66 59 37 35 47 66 53 24 66 91 41
split_gain=279.855 262.939 188.575 191.986 159.094 159.902 143.371 143.128 83.1631 66.1632 59.9656 51.8849 34.7324 17.395 16.1953 21.3611 11.5355 9.75245 8.39198 8.37486 10.9397 10.6086 6.83412 7.31045 8.58923 7.66967 6.60106 6.40456 7.77824 11.0362
threshold=0.5 0.5 3.5 0.5 0.5 2.5 0.5 1.5 0.5 0.5 1.5 0.5 0.5 1.5 0.5 0.5 0.5 0.5 1.5 2.5 0.5 0.5 0.5 2.5 5.5 0.5 1.5 3.5 0.5 0.5
decision_type=0 0 0 0 0 0 0 0 0 0 0 0 0 0 0 0 0 0 0 0 0 0 0 0 0 0 0 0 0 0
left_child=1 2 3 4 5 6 7 8 9 10 11 12 14 17 15 16 -1 -8 19 20 21 -3 23 -4 25 -25 27 28 -2 -30
right_child=26 18 22 -5 -6 -7 13 -9 -10 -11 -12 -13 -14 -15 -16 -17 -18 -19 -20 -21 -22 -23 -24 24 -26 -27 -28 -29 29 -31
leaf_parent=16 28 21 23 3 4 5 17 7 8 9 10 11 12 13 14 15 16 17 18 19 20 21 22 25 24 25 26 27 29 29
leaf_value=0.0966822 -0.0438067 0.0177181 -0.0449258 -0.0390402 -0.0387859 -0.0518785 -0.0277304 -0.036462 -0.0286995 -0.0515882 -0.0354396 0.0157431 0.0266878 -0.0547821 0.145135 0.038207 0.133499 0.0533494 -0.053895 -0.0528985 -0.0509444 -0.0517224 -0.0533552 -0.0165378 -0.0434813 0.060212 -0.0524338 -0.052023 -0.00321797 -0.0481315
leaf_count=467 5112 379 830 2214 1231 765 152 545 264 159 157 241 171 539 679 152 679 137 5548 927 460 187 1824 151 239 103 13979 4072 654 598
internal_value=0 -0.100473 0.0943308 0.248237 0.415243 0.554075 0.676584 0.817613 0.945284 1.02414 1.07755 1.13142 1.20252 -0.254454 1.25568 1.13041 1.20127 0.158348 -0.485977 -0.351192 -0.209143 -0.0115167 -0.432447 -0.303918 -0.0866914 0.179124 -0.4885 -0.442009 -0.394533 -0.228054
internal_count=43615 19200 11699 8552 6338 5107 4342 3514 2969 2705 2546 2389 2148 828 1977 1298 1146 289 7501 1953 1026 566 3147 1323 493 254 24415 10436 6364 1252


Tree=41
num_leaves=31
split_feature=10 59 41 25 89 39 56 15 59 59 77 39 66 92 14 7 75 52 41 39 56 86 89 41 3 86 59 69 39 41
split_gain=3310.9 3324.08 837.27 237.291 139.27 107.179 94.3853 58.2101 56.2958 46.5755 38.0805 32.8212 32.4112 31.5076 29.5826 31.7655 28.7609 22.6797 21.5487 36.6871 21.0855 20.7096 20.1864 19.704 24.7483 16.7427 16.0518 25.7344 15.8288 17.1126
threshold=3.5 2.5 2.5 0.5 3.5 0.5 0.5 5.5 3.5 1.5 0.5 1.5 4.5 1.5 1.5 1.5 2.5 1.5 0.5 0.5 2.5 0.5 0.5 0.5 0.5 0.5 7.5 3.5 2.5 0.5
decision_type=0 0 0 0 0 0 0 0 0 0 0 0 0 0 0 0 0 0 0 0 0 0 0 0 0 0 0 0 0 0
left_child=1 2 3 6 12 10 13 11 16 20 14 17 -2 18 15 23 -3 -4 -1 25 -8 -15 -22 24 -5 -20 27 -10 29 -7
right_child=4 8 7 5 -6 28 9 -9 26 -11 -12 -13 -14 21 -16 -17 -18 -19 19 -21 22 -23 -24 -25 -26 -27 -28 -29 -30 -31
leaf_parent=18 12 16 17 24 4 29 20 7 27 9 10 11 12 21 14 15 16 17 25 19 22 21 22 23 24 25 26 27 28 29
leaf_value=-0.0492133 0.155427 0.0965394 0.137112 0.031636 -0.00678929 -0.0265251 -0.0171131 -0.00947511 0.139382 0.0965314 -0.0281092 0.0400708 0.0732322 -0.0320295 -0.0210364 -0.00756601 -0.0452073 0.0512191 -0.0171166 -0.0472242 0.0993634 0.104913 -0.0270674 0.125905 0.122235 0.0375235 0.155791 0.0422817 -0.0473273 0.0359242
leaf_count=23011 4734 256 900 320 254 568 2124 164 683 162 210 196 152 124 133 145 100 124 1180 3036 112 110 112 399 180 440 2485 113 725 363
internal_value=0 0.0825125 -0.234188 -0.33646 1.49279 0.23092 -0.40882 1.08 1.45068 0.00791534 0.611822 1.19016 1.53476 -0.453004 0.73479 0.837464 0.646831 1.29126 -0.461097 -0.309845 -0.091087 0.387054 0.500438 0.96398 0.687476 -0.0207949 1.49925 1.29804 -0.1995 -0.0111212
internal_count=43615 38475 34838 33454 5140 3043 30411 1384 3637 2510 1387 1220 4886 27901 1177 1044 356 1024 27667 4656 2348 234 224 899 500 1620 3281 796 1656 931


Tree=42
num_leaves=31
split_feature=49 44 55 68 22 49 44 31 16 49 22 44 44 43 54 87 79 44 34 49 84 61 88 23 61 16 42 53 53 16
split_gain=558.264 249.73 194.344 80.1781 72.0697 64.5597 53.4354 47.6582 45.7529 38.1915 25.5618 25.5583 20.3559 17.6746 13.7905 13.7798 11.6202 14.7973 11.492 11.228 11.5369 11.0917 10.4656 9.1406 8.67426 8.33611 12.9708 7.72232 6.19724 6.10391
threshold=1.5 2.5 8.5 5.5 0.5 4.5 2.5 3.5 1.5 0.5 0.5 0.5 4.5 0.5 0.5 0.5 0.5 0.5 0.5 12.5 3.5 0.5 0.5 7.5 1.5 0.5 0.5 0.5 1.5 0.5
decision_type=0 0 0 0 0 0 0 0 0 0 0 0 0 0 0 0 0 0 0 0 0 0 0 0 0 0 0 0 0 0
left_child=1 2 4 5 9 6 10 16 23 21 13 24 -3 22 -12 -4 17 -6 -13 20 27 25 29 -9 28 -1 -27 -7 -11 -2
right_child=3 12 15 -5 7 19 -8 8 -10 11 14 18 -14 -15 -16 -17 -18 -19 -20 -21 -22 -23 -24 -25 -26 26 -28 -29 -30 -31
leaf_parent=25 29 12 15 3 17 27 6 23 8 28 14 18 12 13 14 15 16 17 18 19 20 21 22 23 24 26 26 27 28 29
leaf_value=-0.0440237 0.0491082 0.0552525 0.139071 -0.0499049 -0.0154182 0.172168 0.170055 0.0436481 0.152257 -0.00925992 0.123254 0.0719317 0.153014 -0.00583171 0.0375474 0.0518609 -0.0447471 0.0594089 -0.0210404 0.176375 0.0656606 -0.0511844 -0.0115616 -0.0395109 -0.0504888 -0.0338243 0.0332886 0.110957 -0.038735 0.105148
leaf_count=18452 397 145 198 318 1067 106 102 145 142 1295 198 180 185 514 138 113 639 142 101 116 115 14897 114 135 651 1969 180 177 581 103
internal_value=0 -0.368609 -0.391277 0.65868 -0.41008 0.779626 0.542978 -0.0119043 0.640811 -0.436839 0.413896 -0.175023 1.21734 0.252327 0.905631 1.11787 -0.183323 -0.0529209 0.428037 1.30583 1.15337 -0.459853 0.487273 0.0551414 -0.257776 -0.423236 -0.279805 1.34585 -0.179829 0.613169
internal_count=43615 41217 40887 2398 40576 2080 1566 2270 422 38306 1464 2808 330 1128 336 311 1848 1209 281 514 398 35498 614 280 2527 20601 2149 283 1876 500


Tree=43
num_leaves=31
split_feature=89 29 46 68 77 15 34 46 59 18 59 89 68 74 75 46 70 68 40 6 58 77 77 10 70 75 75 70 41 31
split_gain=2114.02 1064.21 601.801 372.583 210.177 197.817 177.548 123.532 81.6235 70.0835 62.4529 62.0764 60.6808 57.5184 54.5563 52.9996 51.5206 50.6029 43.3115 57.6658 37.8472 36.0429 34.7562 29.1366 23.7229 23.5209 22.6475 21.992 18.7851 18.1268
threshold=1.5 0.5 1.5 1.5 0.5 0.5 13.5 0.5 7.5 2.5 4.5 3.5 4.5 4.5 4.5 0.5 1.5 0.5 1.5 1.5 0.5 0.5 0.5 3.5 1.5 1.5 1.5 1.5 1.5 2.5
decision_type=0 0 0 0 0 0 0 0 0 0 0 0 0 0 0 0 0 0 0 0 0 0 0 0 0 0 0 0 0 0
left_child=1 2 3 4 6 13 9 22 11 14 20 17 26 16 15 24 21 25 19 29 23 -3 -7 28 -1 -2 -5 -17 -4 -6
right_child=8 5 10 12 18 7 -8 -9 -10 -11 -12 -13 -14 -15 -16 27 -18 -19 -20 -21 -22 -23 -24 -25 -26 -27 -28 -29 -30 -31
leaf_parent=24 25 21 28 26 29 22 6 7 8 9 10 11 12 13 14 27 16 17 18 19 20 21 22 23 24 25 26 27 28 29
leaf_value=-0.0472589 0.0476942 0.0174073 0.13731 0.0207677 0.0158795 -0.0211351 0.167636 0.146997 -0.0230529 0.0966819 -0.0438851 0.157385 0.142917 0.153647 0.0822307 -0.0102763 0.189958 0.142762 0.111287 0.102436 0.028989 0.136424 0.0827514 0.0155124 -0.0104409 0.133586 0.0941242 0.0758993 0.0502642 -0.0363062
leaf_count=30427 581 441 752 515 1078 1028 113 235 139 138 134 1852 277 931 148 1140 108 545 188 240 180 115 146 109 971 131 236 142 106 469
internal_value=0 -0.092432 -0.225334 -0.300629 -0.353494 0.96589 -0.406587 0.317436 1.36454 -0.421853 0.963682 1.40916 0.814226 1.32727 -0.430958 -0.438863 0.820049 1.0713 0.302401 0.184164 1.07491 0.518532 -0.0373718 1.2049 -0.459838 0.682863 0.469439 0.0228843 1.29212 0.0101559
internal_count=43615 40367 37363 36082 35054 3004 33079 1409 3248 32966 1281 3109 1028 1595 32828 32680 664 1257 1975 1787 1147 556 1174 967 31398 712 751 1282 858 1547


Tree=44
num_leaves=31
split_feature=35 52 58 90 7 61 61 29 58 40 77 91 58 69 90 35 10 40 23 16 90 12 52 58 69 87 66 82 25 77
split_gain=1186.61 647.34 346.293 302.034 279.462 169.662 119.2 106.737 114.18 86.934 56.8636 50.9613 43.5627 39.9849 44.3793 44.8223 35.016 28.7144 25.6753 22.6624 22.4733 17.6552 17.216 17.2067 17.0634 16.8701 17.3636 24.0352 14.1196 13.6461
threshold=1.5 3.5 3.5 12.5 2.5 3.5 6.5 2.5 6.5 5.5 1.5 5.5 7.5 0.5 1.5 4.5 0.5 1.5 1.5 4.5 3.5 0.5 1.5 1.5 0.5 0.5 1.5 0.5 0.5 0.5
decision_type=0 0 0 0 0 0 0 0 0 0 0 0 0 0 0 0 0 0 0 0 0 0 0 0 0 0 0 0 0 0
left_child=1 2 3 6 5 7 9 8 13 11 19 17 -4 14 15 25 22 20 -8 -6 23 -3 -7 -1 28 26 -2 -28 29 -19
right_child=4 21 12 -5 10 16 18 -9 -10 -11 -12 -13 -14 -15 -16 -17 -18 24 -20 -21 -22 -23 -24 -25 -26 -27 27 -29 -30 -31
leaf_parent=23 26 21 12 3 19 22 18 7 8 9 10 11 12 13 14 15 16 29 18 19 20 21 22 23 24 25 27 27 28 29
leaf_value=-0.0475236 -0.0470897 0.0940134 0.0933756 0.162233 0.146476 0.118039 0.0925871 0.180979 0.194974 0.136504 0.00348628 0.0941134 0.238657 -0.0368973 0.139756 0.0860157 0.0359837 0.0746581 0.00305007 0.0615887 0.0360665 0.151504 0.189603 -0.00709135 -0.0364504 -0.0474327 0.0414275 -0.0480044 -0.0374864 -0.0243133
leaf_count=34589 287 227 180 185 1169 259 266 113 101 113 121 128 137 1236 109 204 139 257 260 102 134 410 163 609 583 453 581 221 165 114
internal_value=0 -0.305476 -0.365761 -0.392443 0.721857 0.373821 -0.416253 0.150464 0.0561787 -0.436466 1.31467 -0.444386 1.66887 -0.0372268 0.158687 0.0660731 1.26385 -0.45045 0.531454 1.40335 -0.463104 1.31763 1.49009 -0.467773 -0.0747368 -0.0907682 0.0555838 0.207199 0.224501 0.467834
internal_count=43615 38357 37720 37403 5258 3866 37218 3305 3192 36692 1392 36579 317 3091 1855 1746 561 36451 526 1271 35332 637 422 35198 1119 1542 1089 802 536 371


Tree=45
num_leaves=31
split_feature=16 77 83 57 41 4 24 16 78 36 70 13 14 10 76 47 39 77 75 1 15 35 14 16 15 9 10 68 24 59
split_gain=178.732 62.942 53.2549 42.3564 47.305 34.3029 26.4856 24.634 21.9327 21.8228 14.1812 12.5501 12.9603 16.4349 14.5767 20.7248 12.3826 12.2957 15.7306 22.6307 11.4511 11.3242 11.1535 10.7669 10.766 10.6445 9.36906 8.89259 9.2794 8.83023
threshold=1.5 2.5 0.5 0.5 0.5 1.5 0.5 0.5 0.5 0.5 1.5 1.5 0.5 2.5 1.5 1.5 0.5 16.5 4.5 0.5 1.5 1.5 0.5 4.5 0.5 0.5 0.5 0.5 0.5 1.5
decision_type=0 0 0 0 0 0 0 0 0 0 0 0 0 0 0 0 0 0 0 0 0 0 0 0 0 0 0 0 0 0
left_child=1 2 7 4 6 9 10 11 -8 -4 16 12 13 14 21 -16 24 18 -3 -20 22 25 26 -6 -2 -1 27 28 29 -9
right_child=3 17 5 -5 23 -7 8 20 -10 -11 -12 -13 -14 -15 15 -17 -18 -19 19 -21 -22 -23 -24 -25 -26 -27 -28 -29 -30 -31
leaf_parent=25 24 18 9 3 23 5 8 29 8 9 10 11 12 13 15 15 16 17 19 19 20 21 22 23 24 25 26 27 28 29
leaf_value=-0.0410325 0.0939729 0.00118555 -0.0279596 -0.03739 -0.0326895 0.116823 -0.00438724 0.0388114 0.0883808 0.0715797 0.140807 -0.05261 -0.0513555 -0.0538274 0.0882052 -0.0468732 -0.000884348 -0.0373242 0.126903 0.00585583 -0.0445647 -0.0154334 -0.0479659 0.0307194 0.0296005 -0.0166323 -0.0368542 -0.0348355 -0.0130423 -0.0380293
leaf_count=10376 329 322 604 671 592 106 538 483 150 123 107 11018 7119 3788 104 128 106 159 129 129 1339 1486 577 196 157 1227 563 313 573 103
internal_value=0 -0.402233 -0.417557 0.178533 0.31137 0.160948 0.523397 -0.432132 0.187799 -0.0584541 0.768008 -0.454161 -0.422407 -0.385101 -0.345428 0.214929 0.649284 0.232807 0.365933 0.721486 -0.250619 -0.357538 -0.162559 -0.16812 0.768807 -0.384041 -0.0859875 0.00362792 0.0935644 0.278724
internal_count=43615 40769 40030 2846 2175 833 1387 39197 688 727 699 35246 24228 17109 13321 232 592 739 580 258 3951 13089 2612 788 486 11603 2035 1472 1159 586


Tree=46
num_leaves=31
split_feature=39 14 10 85 59 35 13 59 63 14 71 35 49 47 68 85 24 63 13 67 34 1 34 71 78 78 40 39 87 54
split_gain=1320.17 745.437 393.561 322.713 302.231 210.49 159.031 115.139 107.35 107.09 90.0366 82.6543 78.3812 77.8707 63.5826 59.8642 59.6091 58.7896 68.7081 57.0449 49.4192 48.9486 48.3123 44.0937 44.0638 41.8928 37.016 36.7036 34.0906 33.1141
threshold=0.5 1.5 2.5 0.5 1.5 1.5 0.5 0.5 4.5 2.5 3.5 0.5 0.5 1.5 0.5 0.5 2.5 7.5 2.5 1.5 0.5 0.5 0.5 2.5 0.5 0.5 1.5 11.5 0.5 0.5
decision_type=0 0 0 0 0 0 0 0 0 0 0 0 0 0 0 0 0 0 0 0 0 0 0 0 0 0 0 0 0 0
left_child=1 3 4 8 5 6 9 11 10 19 16 22 13 15 20 27 -1 18 -7 21 23 24 25 28 29 -5 -15 -8 -3 -2
right_child=2 14 -4 7 -6 17 12 -9 -10 -11 -12 -13 -14 26 -16 -17 -18 -19 -20 -21 -22 -23 -24 -25 -26 -27 -28 -29 -30 -31
leaf_parent=16 29 28 2 25 4 18 27 7 8 9 10 11 12 26 14 15 16 17 18 19 20 21 22 23 24 25 26 27 28 29
leaf_value=-0.048869 0.0688956 0.05648 -0.045043 0.0663963 -0.023759 -0.0305682 0.102477 -0.0372641 0.0749589 0.105249 0.117733 -0.0168092 0.0526552 0.123233 -0.0266506 0.0766241 0.0334609 0.148687 0.0578005 -0.0452316 0.0104888 -0.0445679 -0.0216526 0.12913 -0.025613 -0.0215371 0.0123387 0.158946 0.105095 -0.0027169
leaf_count=13302 2551 965 1580 2564 1456 1165 1937 1479 298 1045 106 1080 1112 4089 201 3524 379 108 458 353 284 287 393 700 294 280 112 398 797 318
internal_value=0 0.0379853 0.746803 -0.167866 0.800947 0.851049 0.905365 0.22812 -0.390113 0.603325 -0.430216 0.37351 1.00776 1.05018 0.819677 0.913261 -0.454902 0.151702 0.0414449 0.420186 0.880297 0.490884 0.517299 0.94998 0.551978 0.595798 1.21134 1.12667 0.796041 0.619875
internal_count=43615 22828 20787 19881 19207 17751 16020 5796 14085 4848 13787 4317 11172 10060 2947 5859 13681 1731 1623 3803 2746 3450 3237 2462 3163 2844 4201 2335 1762 2869


Tree=47
num_leaves=31
split_feature=85 14 59 13 42 39 8 66 8 84 76 87 31 39 42 42 63 8 23 42 14 28 41 66 33 47 36 31 84 70
split_gain=668.423 424.797 258.056 164.358 157.578 126.412 159.556 120.776 96.5614 63.1493 61.4521 60.3385 56.4393 44.6851 44.2337 43.4784 33.9461 33.7171 38.1969 27.8994 27.2179 27.0974 26.7448 25.85 25.454 28.8034 23.6195 23.0479 22.5408 22.3521
threshold=0.5 1.5 0.5 2.5 0.5 5.5 5.5 0.5 8.5 4.5 1.5 5.5 8.5 3.5 0.5 3.5 8.5 1.5 0.5 4.5 9.5 0.5 0.5 2.5 0.5 1.5 0.5 6.5 1.5 0.5
decision_type=0 0 0 0 0 0 0 0 0 0 0 0 0 0 0 0 0 0 0 0 0 0 0 0 0 0 0 0 0 0
left_child=1 3 4 8 5 6 7 22 9 13 15 23 14 -1 17 26 19 18 -3 -4 -20 -7 -2 -9 25 -5 -6 -19 -16 -8
right_child=2 12 16 24 10 21 29 11 -10 -11 -12 -13 -14 -15 28 -17 -18 27 20 -21 -22 -23 -24 -25 -26 -27 -28 -29 -30 -31
leaf_parent=13 22 18 19 25 26 21 29 23 8 9 10 11 12 13 28 15 16 27 20 19 20 21 22 23 24 25 26 27 28 29
leaf_value=-0.0493838 0.0529385 0.0404011 -0.0334673 0.0515625 0.0801698 0.0828389 0.0692731 0.00318235 0.0798232 0.0851893 -0.0543541 0.0868499 0.110198 0.0139182 0.0351844 0.120806 0.071928 0.0832502 -0.0431327 0.0508059 0.0178 0.164127 0.0028484 -0.0285626 -0.0246122 -0.00173855 0.0260638 0.0180153 0.110824 0.12289
leaf_count=18172 2610 830 3246 1027 2267 869 592 2587 196 145 150 252 280 576 294 802 152 461 870 187 652 146 526 2848 554 878 379 361 325 381
internal_value=0 -0.178163 0.376449 -0.338057 0.481605 0.347009 0.265496 0.155523 -0.427039 -0.452822 0.814359 -0.0606106 0.40315 -0.46899 0.321232 0.859021 -0.215892 0.215024 0.0719071 -0.274008 -0.157627 0.966085 0.450318 -0.119989 0.177265 0.291174 0.732043 0.542076 0.793186 0.920922
internal_count=43615 25621 17994 21548 14409 10811 9796 8823 19089 18893 3598 5687 4073 18748 3793 3448 3585 3174 2352 3433 1522 1015 3136 5435 2459 1905 2646 822 619 973


Tree=48
num_leaves=31
split_feature=24 66 14 66 59 42 87 41 14 15 87 66 24 47 84 66 13 32 87 39 47 39 55 66 78 47 85 21 59 41
split_gain=154.177 118.138 76.8827 55.007 54.8512 59.5837 45.6497 35.571 33.5544 27.0817 23.2795 22.4755 24.7029 21.8276 19.3823 16.8001 12.4232 12.1627 11.3746 11.3593 11.1571 10.7813 10.6506 10.5055 11.1612 10.0487 10.1028 9.72641 9.26521 9.18207
threshold=1.5 1.5 4.5 0.5 0.5 0.5 2.5 1.5 1.5 0.5 0.5 0.5 6.5 1.5 3.5 0.5 4.5 0.5 2.5 0.5 1.5 0.5 0.5 0.5 2.5 1.5 4.5 0.5 0.5 2.5
decision_type=0 0 0 0 0 0 0 0 0 0 0 0 0 0 0 0 0 0 0 0 0 0 0 0 0 0 0 0 0 0
left_child=2 4 6 10 7 8 14 9 19 11 17 12 -2 29 21 22 -14 -4 -3 -6 -21 -1 -8 -23 -25 26 -11 -7 -16 -9
right_child=1 18 3 -5 5 27 15 13 -10 25 -12 -13 16 -15 28 -17 -18 -19 -20 20 -22 23 -24 24 -26 -27 -28 -29 -30 -31
leaf_parent=21 12 18 17 3 19 27 22 29 8 26 10 11 16 13 28 15 16 17 18 20 20 23 22 24 24 25 26 27 28 29
leaf_value=-0.051482 0.01274 -0.0407469 0.047084 -0.0304783 -0.047742 0.139907 0.000357359 0.0586828 0.12316 -0.0188485 0.101358 -0.0197128 0.0324876 -0.0293019 -0.0211473 -0.038382 0.129511 -0.0263858 -0.0130883 0.0532463 -0.0261464 -0.0291831 0.0628993 -0.0500409 0.0154213 -0.0464899 0.0341716 0.0675832 0.0484594 0.132534
leaf_count=17479 1978 5200 273 1131 236 214 861 212 101 2022 222 1131 106 106 426 660 104 169 1083 161 187 3191 162 4771 169 707 211 115 122 105
internal_value=0 -0.097253 -0.403227 0.0506231 0.0806228 0.532886 -0.439353 0.000360423 0.127816 -0.0468654 0.498286 0.0915022 0.212114 0.587286 -0.467542 -0.0665064 0.852516 0.203024 -0.358909 -0.0893768 0.160925 -0.478652 0.106914 -0.402936 -0.477233 -0.21165 -0.138458 1.17875 -0.0355035 0.846736
internal_count=43615 13979 29636 1795 7696 1014 27841 6682 685 6259 664 3319 2188 423 26158 1683 210 442 6283 584 348 25610 1023 8131 4940 2940 2233 329 548 317


Tree=49
num_leaves=31
split_feature=33 42 33 15 43 24 82 33 15 23 33 10 66 24 7 23 23 39 33 15 24 23 59 66 14 23 41 7 70 23
split_gain=2523.71 129.197 45.0152 22.9872 17.7527 16.068 11.8631 3.09609 3.30016 5.39184 3.02504 2.25081 2.69492 2.13238 1.18463 2.16007 0.755551 0.670659 0.424541 0.459406 0.581369 1.30904 1.59457 0.514667 0.306782 0.266315 0.37596 0.200417 0.177328 0.176418
threshold=4.5 0.5 2.5 0.5 0.5 0.5 0.5 1.5 0.5 0.5 5.5 0.5 2.5 0.5 0.5 3.5 4.5 1.5 0.5 0.5 0.5 2.5 0.5 1.5 0.5 0.5 0.5 2.5 0.5 2.5
decision_type=0 0 0 0 0 0 0 0 0 0 0 0 0 0 0 0 0 0 0 0 0 0 0 0 0 0 0 0 0 0
left_child=2 4 7 5 10 -4 -3 18 9 -9 -2 12 -5 16 -11 -16 17 24 -1 20 21 22 23 -20 28 26 -10 -22 29 -12
right_child=1 6 3 11 -6 -7 -8 8 25 14 13 -13 -14 -15 15 -17 -18 -19 19 -21 27 -23 -24 -25 -26 -27 -28 -29 -30 -31
leaf_parent=18 10 6 5 12 4 5 6 9 26 14 29 11 12 13 15 15 16 17 23 19 27 21 22 23 24 25 26 27 28 29
leaf_value=-0.0541789 0.115243 0.0304211 0.0823968 -0.000308113 0.0690626 -0.0180149 -0.055971 0.0146755 -0.0375871 -0.052523 0.139588 -0.0546807 -0.0462871 0.160219 -0.00238071 -0.0544913 0.130757 0.154938 -0.02057 -0.0537525 -0.0532687 -0.054549 -0.0546782 -0.0402392 0.147252 -0.0536881 -0.0546105 -0.0414411 0.146748 0.14465
leaf_count=32578 105 131 169 160 108 122 159 127 190 253 667 204 141 188 102 101 128 112 224 3720 1449 505 210 119 262 799 153 102 127 200
internal_value=0 1.29183 -0.520072 0.0193865 1.40059 0.44956 -0.0654484 -0.533281 -0.427934 -0.278588 1.43145 -0.334534 -0.206528 1.44541 -0.411757 -0.267748 1.42702 1.43657 -0.538047 -0.518811 -0.493252 -0.448249 -0.368195 -0.271385 1.42687 -0.510726 -0.451428 -0.525072 1.41496 1.40742
internal_count=43615 2187 41428 796 1897 291 290 40632 1725 583 1789 505 301 1684 456 203 1496 1368 38907 6329 2609 1058 553 343 1256 1142 343 1551 994 867


Tree=50
num_leaves=31
split_feature=10 59 41 59 56 68 2 41 41 39 39 56 75 41 88 85 71 14 71 56 68 32 61 13 31 10 61 56 42 66
split_gain=2659.16 2770.06 643.393 169.302 116.108 104.558 92.5217 56.1228 54.3679 64.8191 45.1187 42.3567 45.8724 39.2722 37.9571 31.9599 27.6581 22.8176 21.378 21.2244 20.1995 21.1499 18.8104 18.4411 16.8422 16.5711 14.8144 13.197 17.7878 12.8526
threshold=3.5 1.5 2.5 3.5 0.5 2.5 2.5 1.5 0.5 0.5 2.5 0.5 1.5 0.5 1.5 1.5 1.5 0.5 0.5 2.5 0.5 0.5 1.5 1.5 1.5 0.5 3.5 0.5 0.5 3.5
decision_type=0 0 0 0 0 0 0 0 0 0 0 0 0 0 0 0 0 0 0 0 0 0 0 0 0 0 0 0 0 0
left_child=1 2 4 7 6 15 8 11 -1 17 16 -3 -13 19 -8 29 26 22 20 -6 21 -15 23 24 -10 -9 -4 28 -5 -2
right_child=5 3 10 27 13 -7 14 25 9 -11 -12 12 -14 18 -16 -17 -18 -19 -20 -21 -22 -23 -24 -25 -26 -27 -28 -29 -30 -31
leaf_parent=8 29 11 26 28 19 5 14 25 24 9 10 12 12 21 14 15 16 17 18 19 20 21 22 23 24 25 26 27 28 29
leaf_value=-0.0468829 0.137262 -0.014722 0.118006 0.124295 -0.0191282 -0.0124641 0.119899 0.0750358 0.076021 -0.0412398 -0.0164417 0.132579 -0.0254326 0.121143 -0.0350888 0.043656 0.019998 -0.0271469 -0.00905307 0.0519423 0.000752335 0.0187786 -0.0164217 -0.0282315 0.000616248 0.150643 0.0389091 0.138333 0.0590749 0.0902668
leaf_count=24059 4631 729 819 1023 1827 241 185 242 577 3451 156 163 140 253 125 105 133 565 257 193 182 132 366 169 219 149 103 2136 123 163
internal_value=0 0.0764432 -0.257354 1.16799 -0.349811 1.31157 -0.399669 0.519966 -0.416822 -0.197673 0.937876 0.20892 0.775748 0.0811144 0.71387 1.34376 1.03579 0.132269 0.465281 -0.101298 0.678454 0.909314 0.288957 0.448699 0.580004 1.06885 1.12198 1.31473 1.18221 1.35969
internal_count=43615 38475 33771 4704 32560 5140 29716 1423 29406 5347 1211 1032 303 2844 310 4899 1055 1896 824 2020 567 385 1331 965 796 391 922 3281 1146 4794


Tree=51
num_leaves=31
split_feature=49 44 55 22 68 85 49 44 49 44 85 22 42 6 44 31 63 61 85 87 39 87 34 61 39 79 33 61 44 16
split_gain=506.958 220.566 171.803 70.3405 66.5136 65.1356 51.5666 39.5339 37.7968 23.044 22.8293 16.3706 15.8502 23.0378 15.2501 14.1499 11.5832 11.3101 10.6383 17.2575 12.3153 9.77267 9.4003 8.4464 8.41498 7.65484 7.10765 6.92325 6.04598 5.40809
threshold=1.5 2.5 8.5 0.5 5.5 4.5 3.5 0.5 0.5 0.5 7.5 0.5 0.5 0.5 4.5 0.5 6.5 0.5 4.5 1.5 0.5 0.5 0.5 1.5 0.5 0.5 0.5 0.5 0.5 0.5
decision_type=0 0 0 0 0 0 0 0 0 0 0 0 0 0 0 0 0 0 0 0 0 0 0 0 0 0 0 0 0 0
left_child=1 2 3 8 6 12 7 10 17 23 11 27 25 24 -3 -8 -17 18 29 20 -20 -4 -11 -10 -14 28 -9 -2 -5 -1
right_child=4 14 21 5 -6 -7 15 26 9 22 -12 -13 13 -15 -16 16 -18 -19 19 -21 -22 -23 -24 -25 -26 -27 -28 -29 -30 -31
leaf_parent=29 27 14 21 28 4 5 15 26 23 22 10 11 24 13 14 16 16 17 20 19 20 21 22 23 24 25 26 27 28 29
leaf_value=-0.0442228 0.0133084 0.0515244 0.120097 -0.0238536 -0.049084 0.106132 0.0691071 0.0753533 -0.0170941 0.0647873 0.107772 0.0619247 0.029237 0.107038 0.134398 0.136213 0.0656509 -0.0506916 0.0895911 -0.0380197 -0.0139524 0.048373 -0.0196421 -0.0499212 -0.0399828 -0.0526563 0.130927 -0.0300677 0.0250473 -0.030821
leaf_count=17647 374 145 198 941 318 189 229 202 1876 180 112 193 168 111 185 381 104 14897 117 623 139 113 101 651 211 508 120 365 142 2075
internal_value=0 -0.35978 -0.382624 -0.401732 0.605724 -0.00632749 0.70817 0.446407 -0.429186 -0.166104 0.214694 0.0947689 -0.151346 0.203962 1.08685 1.07198 1.23593 -0.452897 -0.415228 -0.155705 0.354467 0.985859 0.397946 -0.247658 -0.0796077 -0.271787 0.988204 -0.0664035 -0.163171 -0.427746
internal_count=43615 41217 40887 40576 2398 2270 2080 1366 38306 2808 1044 932 2081 490 330 714 485 35498 20601 879 256 311 281 2527 379 1591 322 739 1083 19722


Tree=52
num_leaves=31
split_feature=89 67 29 68 6 15 34 67 46 75 68 89 46 59 18 46 77 14 13 10 59 69 82 36 24 3 41 41 6 70
split_gain=1801.11 792.684 626.875 262.41 222.196 193.125 180.581 120.924 120.122 119.245 119.082 111.92 107.211 56.366 43.9401 36.3748 35.8977 31.2419 30.8746 37.2245 29.2208 29.09 28.9374 27.0363 25.7523 24.4828 23.3642 21.3342 20.0672 18.5737
threshold=0.5 1.5 0.5 0.5 1.5 0.5 17.5 5.5 1.5 1.5 4.5 3.5 0.5 3.5 2.5 0.5 0.5 0.5 0.5 4.5 2.5 8.5 0.5 0.5 0.5 0.5 0.5 1.5 2.5 0.5
decision_type=0 0 0 0 0 0 0 0 0 0 0 0 0 0 0 0 0 0 0 0 0 0 0 0 0 0 0 0 0 0
left_child=1 2 4 9 6 17 8 12 10 11 14 18 -3 21 16 -7 -1 -4 19 20 24 -5 -18 -24 -2 28 29 -14 -6 -10
right_child=3 7 5 13 25 15 -8 -9 26 -11 -12 -13 27 -15 -16 -17 22 -19 -20 -21 -22 -23 23 -25 -26 -27 -28 -29 -30 -31
leaf_parent=16 24 12 17 21 28 15 6 7 29 9 10 11 27 13 14 15 22 17 18 19 20 21 23 23 24 25 26 27 28 29
leaf_value=-0.0477454 0.0949273 0.0073951 0.117125 0.135177 0.0562899 -0.0278716 0.17547 0.143592 0.0180521 0.120588 0.125492 0.124537 0.125032 0.00657877 0.0721347 0.0919706 -0.0338086 0.0191872 -0.0284569 -0.0528921 -0.0368775 0.0351812 -0.0165268 0.089585 0.0194794 0.00696037 -0.00848532 0.0268157 0.138038 0.103535
leaf_count=30329 391 1105 1029 2589 195 944 100 677 144 534 103 251 459 147 115 105 993 155 934 308 219 101 240 153 411 153 236 109 210 176
internal_value=0 -0.14207 -0.253195 0.977365 -0.359743 0.700145 -0.393827 0.902647 -0.409408 0.504165 -0.43607 0.265814 0.557221 1.28198 -0.449636 -0.102636 -0.456922 1.08791 0.0511228 0.261821 0.437353 1.32382 -0.115301 0.332352 0.602518 0.814616 0.431811 1.11407 1.0245 0.706657
internal_count=43615 37730 35380 5885 33147 2233 32589 2350 32489 3048 31933 2514 1673 2837 31830 1049 31715 1184 2263 1329 1021 2690 1386 393 802 558 556 568 405 320


Tree=53
num_leaves=31
split_feature=35 61 58 7 90 61 14 58 29 40 77 40 10 87 19 66 31 77 58 58 78 90 59 40 67 23 43 16 59 61
split_gain=1041.05 541.458 240.812 214.517 175.973 134.969 97.5561 87.9247 91.902 73.8036 42.2732 40.0303 39.1787 44.3369 31.584 31.3251 35.4906 30.4897 29.3653 27.2789 23.5522 21.0224 20.7719 26.5011 19.2267 17.4347 16.956 16.5512 16.2913 14.0521
threshold=1.5 4.5 3.5 2.5 12.5 4.5 2.5 7.5 2.5 1.5 1.5 0.5 0.5 0.5 0.5 1.5 1.5 0.5 7.5 0.5 3.5 3.5 3.5 3.5 1.5 1.5 0.5 4.5 0.5 9.5
decision_type=0 0 0 0 0 0 0 0 0 0 0 0 0 0 0 0 0 0 0 0 0 0 0 0 0 0 0 0 0 0
left_child=1 2 4 5 9 7 11 8 12 20 27 19 13 15 22 -2 26 -13 -4 -3 21 24 23 -11 -1 28 -17 -5 -26 -7
right_child=3 6 18 10 -6 29 -8 -9 -10 14 -12 17 -14 -15 -16 16 -18 -19 -20 -21 -22 -23 -24 -25 25 -27 -28 -29 -30 -31
leaf_parent=24 15 19 18 27 4 29 6 7 8 23 10 17 12 13 14 26 16 17 18 19 20 21 22 23 28 25 26 27 28 29
leaf_value=-0.0470122 -0.03394 0.0271774 0.071089 0.127102 0.141316 0.0946587 -0.0406798 0.16909 0.153241 0.0303019 0.00400363 0.125548 -0.0403218 -0.0334726 -0.040756 0.0901445 0.000919915 0.00867777 0.192396 0.117497 0.0126668 0.0358528 -0.0551078 0.139105 0.0383012 -0.0393776 0.00436314 0.0559542 -0.054814 0.156445
leaf_count=32848 318 506 161 1169 123 274 399 105 115 551 121 656 1038 733 433 538 463 109 123 144 361 127 127 103 427 996 129 102 163 153
internal_value=0 -0.297137 -0.381197 0.653667 -0.404905 0.3464 0.711883 0.16519 0.0847895 -0.421557 1.15056 0.889521 -0.00844861 0.146697 0.133923 0.347247 0.487976 1.14142 1.34243 0.514411 -0.444623 -0.452077 0.387908 0.529416 -0.456828 -0.190366 0.763509 1.22147 0.14195 1.20433
internal_count=43615 38357 36543 5258 36259 3866 1814 3439 3334 36136 1392 1415 3219 2181 1214 1448 1130 765 284 650 34922 34561 781 654 34434 1586 667 1271 590 427


Tree=54
num_leaves=31
split_feature=16 77 83 34 52 4 16 24 77 49 16 35 39 76 41 12 66 84 88 39 67 1 75 34 57 14 10 35 10 14
split_gain=169.178 60.0505 51.175 38.0268 35.119 28.5013 25.9692 25.161 20.8417 20.2379 16.3944 14.7635 12.7067 15.3917 12.7027 12.3627 12.0361 13.1993 12.0105 11.707 11.1322 12.1774 10.8945 10.4932 10.1916 9.15096 9.63747 8.54573 7.45235 10.6995
threshold=1.5 2.5 0.5 0.5 12.5 1.5 0.5 1.5 2.5 0.5 4.5 0.5 0.5 1.5 0.5 3.5 10.5 0.5 0.5 0.5 1.5 1.5 4.5 0.5 0.5 0.5 0.5 1.5 0.5 0.5
decision_type=0 0 0 0 0 0 0 0 0 0 0 0 0 0 0 0 0 0 0 0 0 0 0 0 0 0 0 0 0 0
left_child=1 2 4 7 6 11 12 8 9 10 14 -4 13 16 24 20 28 -18 -15 23 21 22 -3 25 -2 26 -8 -12 29 -1
right_child=3 15 5 -5 -6 -7 19 -9 -10 -11 27 -13 -14 18 -16 -17 17 -19 -20 -21 -22 -23 -24 -25 -26 -27 -28 -29 -30 -31
leaf_parent=29 24 22 11 3 4 5 26 7 8 9 27 11 12 18 14 15 17 17 18 19 20 21 22 23 24 25 26 27 28 29
leaf_value=-0.034151 0.05608 0.0259634 -0.026682 -0.0303528 0.0422486 0.103649 0.0118457 -0.0153531 0.118806 -0.0123622 0.053785 0.0495362 -0.0504966 0.0608954 -0.018603 -0.0425093 -0.0300179 0.0543847 -0.048917 -0.0422569 -0.0267674 -0.0126041 0.100278 -0.0430545 -0.0231521 -0.043217 -0.0358232 0.129731 -0.0510699 -0.0515003
leaf_count=7863 527 171 541 835 237 106 1100 506 132 329 104 186 17630 104 192 159 406 124 101 1485 129 119 161 652 103 356 346 118 5438 3355
