gbdt
num_class=9
label_index=0
max_feature_idx=92
objective=multiclass
sigmoid=-1
feature_names=Column_0 Column_1 Column_2 Column_3 Column_4 Column_5 Column_6 Column_7 Column_8 Column_9 Column_10 Column_11 Column_12 Column_13 Column_14 Column_15 Column_16 Column_17 Column_18 Column_19 Column_20 Column_21 Column_22 Column_23 Column_24 Column_25 Column_26 Column_27 Column_28 Column_29 Column_30 Column_31 Column_32 Column_33 Column_34 Column_35 Column_36 Column_37 Column_38 Column_39 Column_40 Column_41 Column_42 Column_43 Column_44 Column_45 Column_46 Column_47 Column_48 Column_49 Column_50 Column_51 Column_52 Column_53 Column_54 Column_55 Column_56 Column_57 Column_58 Column_59 Column_60 Column_61 Column_62 Column_63 Column_64 Column_65 Column_66 Column_67 Column_68 Column_69 Column_70 Column_71 Column_72 Column_73 Column_74 Column_75 Column_76 Column_77 Column_78 Column_79 Column_80 Column_81 Column_82 Column_83 Column_84 Column_85 Column_86 Column_87 Column_88 Column_89 Column_90 Column_91 Column_92

Tree=0
num_leaves=31
split_feature=35 39 34 24 39 46 16 78 77 7 10 29 83 79 34 24 66 79 91 15 14 7 61 16 79 16 35 53 33 13
split_gain=77.512 56.4149 38.9259 39.4745 23.224 23.8051 19.9936 17.2691 16.8102 14.7688 13.1391 14.4328 13.0935 12.6927 12.3343 11.6324 11.8745 11.5215 11.215 10.7809 14.5165 9.50739 8.10804 7.54347 7.08611 9.06507 6.1071 5.6642 5.60429 7.96704
threshold=0 0 0 0 0 1 2 1 3 0 0 1 1 0 0 0 0 0 0 0 0 0 0 2 0 1 1 0 1 0
decision_type=1 1 1 1 1 1 1 1 1 1 1 1 1 1 1 1 1 1 1 1 1 1 1 1 1 1 1 1 1 1
left_child=4 2 3 6 5 14 -2 -5 -7 23 11 -8 -3 18 15 16 -1 -12 19 20 22 -14 26 27 25 -11 -13 -10 29 -27
right_child=1 12 -4 7 -6 8 10 -9 9 24 17 13 21 -15 -16 -17 -18 -19 -20 -21 -22 -23 -24 -25 -26 28 -28 -29 -30 -31
leaf_parent=16 6 12 2 7 4 8 11 7 27 25 17 26 21 13 14 15 16 17 18 19 20 21 22 23 24 29 26 27 28 29
leaf_value=-0.009375 0.0933239 0.0349662 -0.0405893 0.0488208 -0.0518587 0.0432692 -0.0290078 -0.0284951 0.028125 0.0110461 0.0134174 0.0455991 -0.0514907 0.0995192 -0.0421875 -0.0181224 0.0855 -0.0503174 -0.0191541 -0.00296053 -0.0160182 -0.0313153 0.0302727 -0.0466509 -0.0491097 0.0198933 0.0997984 -0.0401786 -0.0334483 -0.0518478
leaf_count=108 176 111 1487 159 15794 117 223 1824 120 331 327 169 2872 130 252 239 175 256 232 285 151 2010 275 12341 709 246 279 126 1976 115
internal_value=0 -0.237957 -0.0904068 0.0141691 -0.456595 -0.398506 0.202033 -0.222958 -0.417057 -0.423284 0.146729 0.244481 -0.414468 0.322855 -0.0130814 0.184267 0.492933 -0.14569 0.26002 0.35041 0.474328 -0.431841 0.606846 -0.458732 -0.291161 -0.238029 0.793527 -0.0685976 -0.287388 -0.0296053
internal_count=43615 10966 5973 4486 32649 16855 2503 1983 16081 15964 2327 1744 4993 1521 774 522 283 583 1391 1159 874 4882 723 12587 3377 2668 448 246 2337 361


Tree=1
num_leaves=31
split_feature=39 13 14 25 14 14 37 85 47 13 14 85 75 28 25 53 66 74 23 59 47 53 54 25 14 7 39 32 14 31
split_gain=4272.12 1900.98 1582.98 925.247 668.954 660.696 494.045 459.279 418.059 309.088 280.167 230.709 228.639 210.793 205.973 205.412 173.509 163.869 141.834 112.451 108.705 106.604 105.617 101.603 99.4744 96.9842 96.2741 89.4351 87.2931 85.4576
threshold=0 0 0 0 0 1 0 0 0 1 1 0 0 1 0 0 0 0 1 0 1 0 1 1 0 0 1 0 2 0
decision_type=1 1 1 1 1 1 1 1 1 1 1 1 1 1 1 1 1 1 1 1 1 1 1 1 1 1 1 1 1 1
left_child=2 4 7 6 11 21 8 -1 27 -10 -6 -2 24 22 18 17 -12 25 -7 -13 -15 -4 -11 -5 26 -9 -8 -3 -18 -22
right_child=1 3 5 23 10 14 12 15 9 13 16 19 -14 20 -16 -17 28 -19 -20 -21 29 -23 -24 -25 -26 -27 -28 -29 -30 -31
leaf_parent=7 11 27 21 23 10 18 26 25 9 22 16 19 12 20 14 15 28 17 18 19 29 21 22 23 24 25 26 27 28 29
leaf_value=-0.0471669 -0.0289474 0.150586 0.070521 0.0893552 0.0558445 0.297581 0.009375 0.119711 0.166142 -0.00494088 0.109185 0.104305 0.0206877 0.256037 0.00341518 -0.0279503 0.155317 -0.0192073 0.176786 -0.0286582 0.356683 -0.0275852 0.253286 -0.0233291 0.225526 0.0049811 0.166951 0.220877 0.305162 0.24625
leaf_count=12652 3078 1728 1214 977 971 651 270 1919 906 148 560 1359 658 937 280 1771 268 820 2016 422 2859 1042 175 692 963 463 719 1951 741 405
internal_value=0 1.48788 0.0779635 1.99371 0.572611 1.16846 2.21693 -0.243957 2.46422 2.86098 1.50834 0.0834662 1.35388 3.10121 1.86997 0.335374 2.0962 0.675457 2.06271 0.727997 3.23588 0.252078 1.34965 0.426341 1.74052 0.974103 1.23932 1.87862 2.65362 3.4298
internal_count=43615 20787 22828 13388 7399 5203 11719 17625 9109 5430 2540 4859 2610 4524 2947 4973 1569 3202 2667 1781 4201 2256 323 1669 1952 2382 989 3679 1009 3264


Tree=2
num_leaves=31
split_feature=85 59 14 66 14 91 31 91 91 39 39 31 13 47 24 47 13 35 70 13 66 91 31 66 74 47 23 87 87 39
split_gain=1264.21 600.895 525.726 392.046 230.746 145.294 107.861 91.897 89.3592 87.9636 87.6719 82.8446 78.5973 75.1085 66.666 62.7253 62.6571 61.9031 61.6125 50.6567 49.4702 41.235 41.009 57.0543 67.9907 57.3593 38.5781 38.4073 42.1856 37.6066
threshold=0 0 0 0 1 0 10 0 0 0 0 7 0 0 0 3 1 0 1 0 0 0 6 0 1 1 0 0 1 0
decision_type=1 1 1 1 1 1 1 1 1 1 1 1 1 1 1 1 1 1 1 1 1 1 1 1 1 1 1 1 1 1
left_child=2 3 9 7 -4 11 -6 10 14 -1 19 -5 -11 -12 26 -13 -14 18 -17 -2 21 -18 -16 -24 25 -25 -8 -20 -29 -19
right_child=1 -3 4 5 6 -7 8 -9 -10 12 13 15 16 -15 22 17 20 29 27 -21 -22 -23 23 24 -26 -27 -28 28 -30 -31
leaf_parent=9 19 1 4 11 6 5 26 7 8 12 13 15 16 13 22 18 21 29 27 19 20 21 23 25 24 25 26 28 28 29
leaf_value=-0.0518085 0.0432053 -0.0261715 -0.0178165 0.160529 0.290893 -0.0194187 0.0864205 0.0535909 -0.0152642 -0.0440789 0.17634 -0.00493665 -0.0422652 0.103925 0.196875 0.150805 0.0865542 -0.0122862 0.0435995 0.128793 -0.00949443 -0.00934505 0.14818 0.231152 0.0337843 0.0389098 0.00304054 0.0476282 0.113581 0.0556875
leaf_count=12652 677 3585 2832 390 105 1402 440 825 667 3078 2379 809 905 1043 198 489 826 760 1952 725 942 313 577 192 984 133 777 809 1249 900
internal_value=0 0.562594 -0.215529 0.767684 0.315098 0.469649 0.658068 1.22985 0.598507 -0.411296 1.34853 0.596137 -0.188489 1.54268 0.750284 0.539654 0.0715841 0.617024 0.754043 0.874643 0.286521 0.602008 0.994632 0.892365 0.632544 1.52481 0.331861 0.662095 0.876549 0.24567
internal_count=43615 17994 25621 14409 6905 8760 4073 5649 3968 18716 4824 7358 6064 3422 3301 6968 2986 6159 4499 1402 2081 1139 2084 1886 1309 325 1217 4010 2058 1660


Tree=3
num_leaves=31
split_feature=66 87 25 3 24 25 13 17 17 85 78 79 87 25 53 13 59 14 15 24 14 85 41 14 10 23 85 39 17 24
split_gain=163.402 167.792 110.46 233.656 71.7632 60.1755 72.896 59.1174 53.8829 24.896 24.3234 47.3996 27.1018 28.3743 34.9318 39.7509 20.5056 36.9374 21.9519 20.5898 18.5743 17.9533 15.8836 14.934 14.8723 13.1406 12.8311 13.7328 17.0777 11.5704
threshold=0 0 0 0 0 0 0 0 0 0 3 0 0 0 0 0 0 0 0 1 0 0 0 1 0 0 0 0 0 0
decision_type=1 1 1 1 1 1 1 1 1 1 1 1 1 1 1 1 1 1 1 1 1 1 1 1 1 1 1 1 1 1
left_child=1 4 16 8 20 -6 -7 9 21 -8 11 -2 -12 25 15 -15 18 29 19 -3 -1 -4 -21 -22 -5 -14 -16 -28 -29 -18
right_child=10 2 3 24 5 6 7 -9 -10 -11 12 -13 13 14 26 -17 17 -19 -20 22 23 -23 -24 -25 -26 -27 27 28 -30 -31
leaf_parent=20 11 19 21 24 5 6 9 7 8 9 12 11 25 15 26 15 29 17 18 22 23 21 22 23 24 25 27 28 28 29
leaf_value=-0.0534715 -0.0535714 -0.0232649 0.18501 0.0372115 -0.0225811 -0.0197165 0.115596 0.00171756 0.071413 0.266316 -0.0512662 0.126332 -0.0251667 -0.028125 -0.0495 0.155317 -0.0422845 0.144761 -0.0232148 0.0127988 -0.0484854 0.293242 0.0694631 -0.00112822 -0.053076 -0.0465521 -0.0464516 0.107679 -0.012545 0.0505371
leaf_count=5466 189 706 128 130 3744 388 109 131 115 113 17878 122 1987 108 450 134 145 136 1747 1569 652 197 298 698 319 5429 155 105 139 128
internal_value=0 -0.172916 0.14488 0.872539 -0.3309 -0.109866 0.475962 1.21583 2.03778 1.92314 -0.455546 0.170016 -0.462919 -0.358381 -0.0195921 0.734504 0.00808839 0.489609 -0.0375 0.0946609 -0.476342 2.50615 0.218432 -0.24 -0.269349 -0.408222 -0.234541 0.0592105 0.391906 0.0123626
internal_count=43615 16919 5618 889 11301 4485 741 353 440 222 26696 311 26385 8507 1091 242 4729 409 4320 2573 6816 325 1867 1350 449 7416 849 399 244 273


Tree=4
num_leaves=31
split_feature=33 33 33 85 33 33 43 59 15 15 86 53 24 53 38 43 7 23 53 24 23 66 47 47 8 7 13 34 61 8
split_gain=1261.11 2178.57 2040.89 1167.15 888.314 341.281 122.92 27.2089 19.9252 14.8638 4.89695 4.64464 6.72474 2.38463 1.44131 3.00058 0.715392 0.629551 0.475119 0.892636 1.65365 1.63164 0.281263 0.917039 0.19145 0.176476 0.148626 0.110429 0.102584 0.0914913
threshold=0 1 2 0 3 4 0 0 0 0 1 0 0 0 1 0 0 0 0 0 0 1 0 1 9 3 1 0 2 12
decision_type=1 1 1 1 1 1 1 1 1 1 1 1 1 1 1 1 1 1 1 1 1 1 1 1 1 1 1 1 1 1
left_child=24 18 11 4 9 -6 7 10 -5 -4 -7 12 -3 22 -10 -16 -15 -14 19 20 -2 -22 26 -24 -1 -20 -12 -11 -13 -26
right_child=1 2 3 8 5 6 -8 -9 14 27 13 28 17 16 15 -17 -18 -19 25 -21 21 -23 23 -25 29 -27 -28 -29 -30 -31
leaf_parent=24 20 12 9 8 5 10 6 7 14 27 26 28 17 16 15 15 16 17 25 19 21 21 23 23 29 25 26 27 28 29
leaf_value=-0.046125 -0.027838 0.00160714 0.052531 0.0444699 0.0863147 0.395481 0.182813 0.322297 -0.05625 -0.0412129 0.439875 -0.0502232 -0.0346154 0.412267 -0.00270433 -0.05625 0.435938 -0.054375 -0.046875 -0.0548199 -0.0279 -0.05625 0.448418 0.428684 -0.0511875 -0.0561075 0.449205 -0.0515625 -0.05625 -0.0560147
leaf_count=100 196 210 121 191 174 130 108 111 211 101 100 168 117 161 104 108 108 270 108 1770 125 578 320 190 200 3552 637 108 960 32278
internal_value=0 0.320468 1.47949 2.60602 3.32253 3.87681 4.15798 4.30119 -0.158489 -0.102273 4.3739 -0.468587 -0.308103 4.40984 -0.430851 -0.299823 4.2177 -0.484012 -0.541703 -0.518874 -0.461137 -0.512091 4.45128 4.41066 -0.559547 -0.55835 4.47939 -0.46561 -0.553524 -0.55985
internal_count=43615 11037 4708 2983 2369 2039 1865 1757 614 330 1646 1725 597 1516 423 212 269 387 6329 2669 899 703 1247 510 32578 3660 737 209 1128 32478


Tree=5
num_leaves=31
split_feature=25 10 10 24 10 10 39 59 10 59 59 59 3 59 59 59 41 59 74 25 10 24 59 10 59 59 75 3 10 59
split_gain=10515.5 2957.04 2214.26 1636.59 1326.17 922.485 621.921 597.922 435.902 387.053 700.668 465.458 377.116 434.184 356.988 380.832 249.558 174.371 170.585 152.367 151.707 147.338 106.894 99.2036 281.307 98.4837 98.4034 91.3193 89.2133 88.3957
threshold=0 0 1 0 2 3 0 12 4 0 1 2 0 0 0 1 0 3 0 1 0 1 0 0 0 1 0 0 2 2
decision_type=1 1 1 1 1 1 1 1 1 1 1 1 1 1 1 1 1 1 1 1 1 1 1 1 1 1 1 1 1 1
left_child=1 7 14 12 22 -6 16 -1 -7 -9 -11 -12 13 20 -3 -16 27 -13 -10 -8 -2 -21 -4 24 -14 -15 -20 -5 -25 -17
right_child=3 2 4 6 5 8 19 9 18 10 11 17 23 25 15 29 -18 -19 26 21 -22 -23 -24 28 -26 -27 -28 -29 -30 -31
leaf_parent=7 20 14 22 27 5 8 19 9 18 10 11 17 24 25 15 29 16 17 26 21 20 21 22 28 24 25 26 27 28 29
leaf_value=0.438833 0.0640881 -0.0401092 -0.028125 0.0546875 0.0135776 0.09521 0.0162586 -0.0451315 0.437047 -0.0322855 0.0109863 0.07875 0.14518 0.225531 -0.010318 0.115289 0.317041 0.352644 0.389552 0.264429 0.277954 0.0531337 0.124654 0.238433 0.411919 0.397253 0.123826 0.254213 0.426781 0.342463
leaf_count=136 488 2666 648 324 406 244 1159 23267 1876 2704 512 150 284 212 507 121 1108 546 134 311 256 361 361 134 678 835 149 181 2551 306
internal_value=0 0.0244544 1.28424 2.76785 2.47792 3.27267 1.55422 -0.317669 3.80267 -0.341217 0.313602 1.73826 3.53647 2.69095 0.0182812 1.21534 2.57292 2.93615 4.12483 0.656813 1.37676 1.50921 0.265362 3.95169 3.33173 3.62482 2.49647 1.262 4.17381 2.78088
internal_count=43615 34733 7418 8882 3818 2809 3444 27315 2403 27179 3912 1208 5438 1791 3600 934 1613 696 2159 1831 744 672 1009 3647 962 1047 283 505 2685 427


Tree=6
num_leaves=31
split_feature=38 38 49 49 49 49 49 22 31 38 38 31 43 31 31 10 37 31 55 24 69 33 87 85 61 21 53 74 39 85
split_gain=155.77 125.565 110.555 110.95 87.4182 84.5167 80.2404 41.9422 31.9272 28.8079 22.5402 21.2221 20.0039 19.5576 20.3588 17.3186 17.0368 22.986 23.1141 19.7917 15.6458 14.961 14.8899 12.8131 14.7926 12.3436 11.1735 9.64288 9.52784 23.7156
threshold=5 4 3 5 2 4 1 2 5 3 2 0 0 0 1 1 0 0 1 0 0 0 0 0 0 0 0 0 0 0
decision_type=1 1 1 1 1 1 1 1 1 1 1 1 1 1 1 1 1 1 1 1 1 1 1 1 1 1 1 1 1 1
left_child=-1 25 12 -4 11 -6 8 22 -7 -9 23 26 -3 -10 -15 -16 28 -18 19 -19 -13 -17 -8 -11 -25 -2 -5 -23 29 -12
right_child=1 2 3 4 5 6 7 9 13 10 16 20 -14 14 15 21 17 18 -20 -21 -22 27 -24 24 -26 -27 -28 -29 -30 -31
leaf_parent=0 25 12 3 26 5 8 22 9 13 23 29 20 12 14 15 21 17 19 18 19 20 27 22 24 24 25 26 27 28 29
leaf_value=0.210197 0.181985 0.1179 0.155515 0.0308721 0.101663 0.111033 0.00387931 0.0374174 -0.0249727 -0.0266793 -0.0477074 0.114533 0.0241822 -0.0304688 0.0916433 -0.00527344 -0.0436743 -0.016655 -0.0258421 0.090065 0.0328012 0.104464 0.101953 0.101356 -0.00757212 0.0781527 -0.037706 0.011899 -0.0504889 -0.0275754
leaf_count=133 119 250 153 215 218 115 261 227 1829 428 11082 166 214 432 178 576 4871 179 2464 173 415 126 112 106 156 113 273 104 13884 4043
internal_value=0 -0.336747 -0.345603 -0.357449 -0.364313 -0.380652 -0.38802 -0.417499 -0.0547433 -0.424945 -0.429797 0.270989 0.746767 -0.0960324 0.102489 0.28125 -0.437372 -0.343193 -0.181374 0.357955 0.561532 0.140974 0.333277 -0.0269022 0.364981 1.31412 -0.0749232 0.626087 -0.462329 -0.42326
internal_count=43615 43482 43250 42786 42633 41564 41346 37986 3360 37613 37386 1069 464 3245 1416 984 36696 7687 2816 352 581 806 373 690 262 232 488 230 29009 15125


Tree=7
num_leaves=31
split_feature=75 75 29 77 74 74 37 29 15 77 25 82 77 24 15 37 46 37 37 24 31 74 14 85 59 85 24 24 53 85
split_gain=2323.43 1372.97 1037.6 647.018 446.884 411.128 391.927 322.479 260.757 246.028 208.889 188.694 188.594 181.254 150.903 136.988 132.825 124.435 102.341 100.09 93.6353 86.7044 84.9342 77.7993 65.8457 63.0715 59.1097 58.2794 47.8623 47.2037
threshold=0 1 1 1 0 0 0 1 0 2 0 1 1 0 0 1 2 0 1 1 1 0 0 0 0 0 0 1 0 0
decision_type=1 1 1 1 1 1 1 1 1 1 1 1 1 1 1 1 1 1 1 1 1 1 1 1 1 1 1 1 1 1
left_child=2 7 4 11 27 6 -3 14 -6 -5 13 28 25 -7 -2 -8 -11 -18 -19 20 -13 -14 23 24 -20 -9 -17 -1 -4 -23
right_child=1 5 3 9 8 10 15 12 -10 16 -12 19 21 -15 -16 26 17 18 22 -21 -22 29 -24 -25 -26 -27 -28 -29 -30 -31
leaf_parent=27 14 6 28 9 8 13 15 25 8 16 10 20 21 13 14 26 17 18 24 19 20 29 22 23 24 25 26 27 28 29
leaf_value=0.124865 0.359946 0.0453488 0.363707 0.171896 0.343379 0.355843 0.118451 0.225859 0.0801199 0.121382 0.109888 0.360105 -0.0178906 0.199646 0.0644454 0.323673 -0.0402338 -0.0255384 0.159623 0.0388842 0.107659 0.100616 -0.0226245 -0.00033284 0.0299882 0.0436678 0.199381 -0.0106681 0.173438 -0.0027439
leaf_count=232 208 1161 176 304 641 1199 397 262 271 285 323 107 3207 548 151 537 24307 4121 530 745 244 568 813 507 317 152 303 522 108 369
internal_value=0 1.12374 -0.139959 -0.228565 1.59195 2.02654 1.39241 0.303386 2.65152 -0.295284 2.76114 1.27908 0.141674 3.06847 2.35655 2.27365 -0.315113 -0.329355 -0.0472328 0.855554 1.84615 -0.00298625 0.34861 0.693778 1.11105 1.58967 2.78839 0.310345 2.91351 0.59912
internal_count=43615 9385 34230 32564 1666 4468 2398 4917 912 31184 2070 1380 4558 1747 359 1237 30880 30595 6288 1096 351 4144 2167 1354 847 414 840 754 284 937


Tree=8
num_leaves=31
split_feature=7 35 35 7 7 12 29 0 61 7 61 61 61 61 74 91 91 0 10 10 66 37 35 91 24 82 35 91 61 7
split_gain=1108.85 903.798 675.509 459.835 338.142 293.872 182.571 170.881 140.648 116.134 114.757 102.116 119.018 94.3162 77.1639 57.2213 56.3605 69.6671 49.0907 48.4597 45.1141 43.8829 38.1008 38.0582 44.9321 37.7443 31.6168 28.4546 27.3443 25.1306
threshold=0 0 1 1 2 5 3 5 0 3 1 2 3 4 0 0 0 3 0 0 0 0 2 1 0 1 0 1 0 4
decision_type=1 1 1 1 1 1 1 1 1 1 1 1 1 1 1 1 1 1 1 1 1 1 1 1 1 1 1 1 1 1
left_child=5 8 -3 18 19 -1 -7 -8 -2 21 -10 -12 -13 -14 29 -15 26 -18 25 22 -19 -6 -5 -22 -25 -4 -9 -17 -27 -11
right_child=1 2 3 4 9 6 7 16 10 14 11 12 13 15 -16 27 17 20 -20 -21 23 -23 -24 24 -26 28 -28 -29 -30 -31
leaf_parent=5 8 2 25 22 21 6 7 26 10 29 11 12 13 15 14 27 17 20 18 19 23 21 22 24 24 28 26 27 28 29
leaf_value=0.317002 -0.0427603 0.00489983 -0.036 0.0762266 0.254779 0.249324 0.17078 -0.0495943 -0.02625 0.284766 -0.0112052 -0.000606142 0.0365625 0.117829 0.230233 0.177985 0.155455 -0.04632 -0.0124399 0.00555959 -0.0250927 0.0734504 0.206173 -0.0211188 0.0668254 0.0599101 -0.0290064 0.314447 0.150911 0.387779
leaf_count=118 3265 1722 100 214 153 111 194 20537 1485 144 753 464 300 285 258 134 110 2804 312 172 2226 121 245 562 617 292 4627 183 391 716
internal_value=0 0.435386 1.18009 1.80476 2.44047 -0.37416 -0.387316 -0.39741 -0.0893416 3.05981 0.217103 0.553209 0.91993 1.39627 3.38154 1.90988 -0.410382 -0.220407 0.630308 1.07419 -0.251852 1.74703 1.45588 -0.0778084 0.249046 0.931034 -0.458087 2.56763 1.12006 3.70531
internal_count=43615 11709 4840 3118 2023 31906 31788 31677 6869 1392 3604 2119 1366 902 1118 602 31483 6319 1095 631 6209 274 459 3405 1179 783 25164 317 683 860


Tree=9
num_leaves=31
split_feature=7 16 24 35 39 35 70 34 34 46 41 36 46 16 16 68 33 69 10 24 68 38 16 66 10 14 53 43 28 14
split_gain=78.0231 49.3512 38.3262 35.2697 28.8957 25.4777 21.3374 14.6082 13.5756 12.5855 11.7715 11.6335 11.4234 10.798 9.10271 8.64234 8.51301 12.7601 8.08272 8.55215 7.9431 6.58358 6.20049 6.18103 5.59211 9.33116 5.4388 4.85378 5.1241 4.81785
threshold=0 5 0 0 0 0 2 0 0 1 0 1 1 2 2 1 1 0 0 0 1 1 1 0 0 0 0 1 1 0
decision_type=1 1 1 1 1 1 1 1 1 1 1 1 1 1 1 1 1 1 1 1 1 1 1 1 1 1 1 1 1 1
left_child=4 -2 3 12 5 9 -5 10 13 18 15 16 -3 -8 26 -7 17 -4 19 -1 -14 -17 -22 -15 25 -16 -11 -25 -29 -23
right_child=1 2 11 6 -6 7 8 -9 -10 14 -12 -13 20 23 24 21 -18 -19 -20 -21 22 29 -24 27 -26 -27 -28 28 -30 -31
leaf_parent=19 1 12 17 6 4 15 13 7 8 26 10 11 20 23 25 21 16 17 18 19 22 29 22 27 24 25 26 28 28 29
leaf_value=0.0408028 0.129064 0.0320724 0.0714909 0.105395 -0.0523119 0.0561735 0.0713854 -0.0442902 -0.029625 0.0302144 -0.0367556 -0.0417505 0.0117467 -0.0231065 -0.036422 0.0387941 -0.0272716 -0.0260149 -0.0444754 -0.0296632 -0.0029392 -0.00396521 -0.0371133 0.0630793 -0.0522062 -0.0528397 -0.0357063 0.0576057 0.00670381 -0.0392001
leaf_count=197 110 162 124 117 15444 125 152 962 450 125 635 5044 224 248 5432 153 1004 157 224 155 310 1090 2385 103 4244 2746 130 112 1007 244
internal_value=0 -0.232578 -0.247053 -0.103774 -0.451157 -0.384676 0.114797 -0.203703 0.0616059 -0.429518 -0.105745 -0.367699 -0.262986 0.155451 -0.444883 -0.00409113 -0.173645 0.175891 -0.103986 0.105158 -0.296361 -0.0520314 -0.330966 0.0950705 -0.453863 -0.41901 -0.0229804 0.160648 0.117743 -0.102977
internal_count=43615 11709 11599 5270 31906 16462 2189 3209 2072 13253 2247 6329 3081 1622 12677 1612 1285 281 576 352 2919 1487 2695 1470 12422 8178 255 1222 1119 1334


Tree=10
num_leaves=31
split_feature=39 14 13 25 14 14 65 24 47 53 7 14 39 59 53 13 13 66 54 53 72 39 63 13 25 39 15 66 74 74
split_gain=3089.07 1294.2 1190.6 533.077 493.699 441.327 301.084 290.105 204.796 204.282 173.55 172.817 158.832 148.016 134.402 129.709 122.592 92.9608 91.6359 88.8233 88.0276 83.7506 82.0078 80.7964 77.593 75.6173 75.0008 72.2449 75.7543 69.0018
threshold=0 0 0 0 0 1 0 0 0 0 0 1 1 0 0 0 1 0 1 0 2 1 0 1 1 1 0 0 0 0
decision_type=1 1 1 1 1 1 1 1 1 1 1 1 1 1 1 1 1 1 1 1 1 1 1 1 1 1 1 1 1 1
left_child=1 7 4 6 14 19 8 -1 26 10 15 -6 -8 27 25 20 -10 -13 -18 -3 -9 -5 -20 -17 -23 -2 -4 -7 -29 -25
right_child=2 5 3 21 11 13 12 9 16 -11 -12 17 -14 -15 -16 23 18 -19 22 -21 -22 24 -24 29 -26 -27 -28 28 -30 -31
leaf_parent=7 25 19 26 21 11 27 12 20 16 9 10 17 12 13 14 23 18 17 22 19 20 24 22 29 24 25 26 28 28 29
leaf_value=-0.0463966 0.016196 0.0627075 0.125383 -0.0250884 0.0504381 0.118702 0.027038 0.151097 0.14223 -0.0366495 -0.0318463 0.0940006 0.142469 0.0310617 -0.0248738 0.0533954 0.129158 0.200928 0.251699 -0.0264238 0.0183189 0.123685 0.187829 0.215993 -0.00176925 0.103165 0.184497 0.219442 0.120149 0.0139896
leaf_count=11091 1267 1214 2080 622 971 841 773 274 890 2598 1112 560 1746 408 2795 349 382 1009 3073 1042 1580 643 1089 518 404 797 1686 1241 457 103
internal_value=0 0.0727615 1.23208 1.58687 0.511648 0.998759 1.73083 -0.235283 1.89881 0.137336 0.450483 1.25073 1.08687 1.50927 0.0770453 0.733139 2.14378 1.65757 2.27054 0.235457 0.389163 0.400461 2.35264 1.37898 0.781169 0.50329 1.52009 1.69122 1.9344 1.85021
internal_count=43615 22828 20787 13388 7399 5203 11719 17625 9200 6534 3936 2540 2519 2947 4859 2824 5434 1569 4544 2256 1854 1669 4162 970 1047 2064 3766 2539 1698 621


Tree=11
num_leaves=31
split_feature=24 59 91 66 63 14 7 39 63 28 54 47 84 39 23 66 87 87 47 14 66 38 33 33 31 87 34 3 66 33
split_gain=925.931 518.008 326.256 228.246 265.491 180.334 165.57 113.11 111.998 107.978 122.338 92.2295 82.5377 76.827 59.4132 56.2113 54.5252 79.254 51.6522 51.2146 48.9703 48.7688 82.6751 76.5762 43.8237 38.1252 34.8651 31.659 33.2515 48.8004
threshold=0 0 0 0 0 0 0 0 1 1 1 0 0 0 4 0 0 1 0 0 0 1 0 1 10 0 0 0 0 0
decision_type=1 1 1 1 1 1 1 1 1 1 1 1 1 1 1 1 1 1 1 1 1 1 1 1 1 1 1 1 1 1
left_child=5 2 3 11 7 16 8 -5 25 10 -9 13 27 19 -10 -4 21 -18 -11 -2 -14 22 -1 -24 -16 -6 -19 28 29 -7
right_child=1 -3 15 4 6 12 -8 9 14 18 -12 -13 20 -15 24 -17 17 26 -20 -21 -22 -23 23 -25 -26 -27 -28 -29 -30 -31
leaf_parent=22 19 1 15 7 25 29 6 10 14 18 10 11 20 13 24 15 17 26 18 19 20 21 23 23 24 25 26 27 28 29
leaf_value=-0.0507741 0.0286002 -0.0291724 0.0276771 -0.035934 -0.0014787 0.0725661 0.0041338 0.319861 0.209581 0.0681021 0.0336118 0.060054 0.0979801 0.135855 0.236654 -0.0301464 -0.03985 0.0717665 0.00568778 0.124503 0.0160508 -0.050809 -0.0367315 0.153168 0.108061 0.0816396 -0.034131 -0.0493744 -0.0195398 -0.0414273
leaf_count=706 658 4826 1367 1709 490 586 1033 129 370 883 163 1885 671 2918 119 2260 1556 614 2439 445 768 11322 191 252 2116 605 215 783 1256 280
internal_value=0 0.382576 0.537203 0.668323 0.462676 -0.278267 0.837428 0.118784 1.0484 0.338999 1.62046 1.00144 0.121041 1.18233 1.28926 -0.0784705 -0.400371 -0.0876259 0.224437 0.684841 0.55357 -0.461922 -0.0155993 0.741565 1.15658 0.451706 0.459698 -0.0992763 0.0405832 0.373195
internal_count=43615 24415 19589 15962 10056 19200 4733 5323 3700 3614 292 5906 4344 4021 2605 3627 14856 2385 3322 1103 1439 12471 1149 443 2235 1095 829 2905 2122 866


Tree=12
num_leaves=31
split_feature=66 87 25 3 24 25 24 13 88 21 13 25 39 66 13 78 10 41 14 59 15 14 10 7 24 41 23 87 91 14
split_gain=160.144 155.829 92.6328 168.911 68.8936 53.4839 63.6369 42.6953 27.0333 25.1297 25.0913 26.9656 35.3326 51.5257 28.6481 24.6733 20.153 27.1175 18.827 15.3784 14.6099 14.271 13.9761 12.5267 12.3092 10.6595 10.4528 10.2282 8.99703 8.91474
threshold=0 0 0 0 0 0 1 0 0 0 0 0 0 1 1 3 0 0 0 0 0 1 0 0 1 0 0 1 0 2
decision_type=1 1 1 1 1 1 1 1 1 1 1 1 1 1 1 1 1 1 1 1 1 1 1 1 1 1 1 1 1 1
left_child=1 4 16 8 18 25 -7 -8 9 27 15 26 -13 14 -14 23 17 19 -1 20 24 -20 -5 -2 -3 -6 -12 -4 -26 -23
right_child=10 2 3 22 5 6 7 -9 -10 -11 11 12 13 -15 -16 -17 -18 -19 21 -21 -22 29 -24 -25 28 -27 -28 -29 -30 -31
leaf_parent=18 23 24 27 22 25 6 7 7 8 9 26 12 14 13 14 15 16 17 21 19 20 29 22 23 28 25 26 27 28 29
leaf_value=-0.052907 0.0791402 -0.0234161 0.187894 0.0354787 -0.0279842 -0.0200793 0.00783298 0.165841 0.0751882 0.114433 -0.0303296 -0.0451809 0.0144666 -0.0138238 0.169637 -0.0518949 -0.0336166 0.0429444 -0.0475924 0.0564174 -0.0296661 -0.0364394 -0.052368 -0.0310611 0.0101949 0.00180441 -0.0465024 0.277941 0.0746329 0.0176823
leaf_count=5466 105 588 102 130 2958 388 137 216 111 113 3115 798 105 626 147 15186 725 845 652 202 963 237 319 103 1287 786 6511 114 119 461
internal_value=0 -0.163458 0.139862 0.783415 -0.320382 -0.10434 0.435583 1.09473 1.65705 1.95228 -0.447438 -0.36521 -0.0974334 0.214312 1.07329 -0.507895 0.0109119 0.0733528 -0.468181 -0.023273 -0.0655022 -0.226831 -0.254234 0.259442 0.0437814 -0.217362 -0.412298 2.36003 0.156561 -0.00485448
internal_count=43615 16919 5618 889 11301 4485 741 353 440 329 26696 11302 1676 878 252 15394 4729 4004 6816 3159 2957 1350 449 208 1994 3744 9626 216 1406 698


Tree=13
num_leaves=31
split_feature=33 33 33 33 38 33 43 33 21 33 15 42 86 53 24 14 23 88 53 24 23 66 47 7 8 7 39 61 63 32
split_gain=1173.81 1723.35 1323.61 537.594 399.063 215 68.9057 29.295 27.7999 16.9639 12.9712 5.83411 5.15053 4.62777 6.42181 1.16492 0.639258 0.537836 0.473495 0.908896 1.61745 1.61491 0.447275 0.308991 0.194156 0.184095 0.152479 0.116009 0.108161 0.192034
threshold=0 1 2 3 1 4 0 5 0 6 0 1 1 0 0 0 0 0 0 0 0 1 0 1 9 3 0 0 0 1
decision_type=1 1 1 1 1 1 1 1 1 1 1 1 1 1 1 1 1 1 1 1 1 1 1 1 1 1 1 1 1 1
left_child=24 18 13 10 11 8 7 -7 -6 -9 -4 -5 -11 14 -3 23 -16 -12 19 20 -2 -22 -17 27 -1 -20 -25 -14 -21 -30
right_child=1 2 3 4 5 6 -8 9 -10 12 17 -13 15 -15 16 22 -18 -19 25 28 21 -23 -24 26 -26 -27 -28 -29 29 -31
leaf_parent=24 20 14 10 11 8 7 6 9 8 12 17 11 27 13 16 22 16 17 25 28 21 21 22 26 24 25 26 27 29 29
leaf_value=-0.0454514 -0.0272261 0.00154373 0.0278603 -0.0561875 0.127132 0.184155 0.122614 0.218571 -0.0263885 0.256545 -0.0372801 0.0080018 0.296314 -0.0548483 -0.0336053 0.300857 -0.0539047 -0.0558415 -0.0459803 -0.0558822 -0.0273138 -0.0558433 0.314559 0.290406 -0.0555683 -0.0556588 0.296455 0.303748 -0.0445989 -0.0540545
leaf_count=100 196 210 185 134 114 109 129 122 115 133 170 150 213 1128 117 205 270 162 108 1038 125 578 154 565 32478 3552 205 118 142 590
internal_value=0 0.290764 1.22008 1.96624 2.30841 2.55921 2.74251 2.82883 0.514422 2.88841 -0.182926 -0.214636 2.9398 -0.460269 -0.298664 2.97123 -0.477023 -0.462844 -0.536553 -0.513287 -0.453935 -0.506127 3.0663 2.94089 -0.555368 -0.553715 2.92007 2.98938 -0.543707 -0.522207
internal_count=43615 11037 4708 2983 2466 2182 1953 1824 229 1715 517 284 1593 1725 597 1460 387 332 6329 2669 899 703 359 1101 32578 3660 770 331 1770 732


Tree=14
num_leaves=31
split_feature=25 10 10 24 10 59 59 10 41 59 59 59 41 10 10 59 10 41 59 10 59 41 41 41 59 39 7 75 59 25
split_gain=6981.15 2393.74 1410.1 730.127 699.807 502.844 714.163 447.535 368.406 337.453 295.207 245.925 229.448 182.421 143.176 384.991 126.777 103.829 99.286 98.2741 96.3354 89.705 111.953 109.187 86.5565 75.4263 60.5691 66.4309 59.9695 56.7093
threshold=0 0 1 0 2 0 1 3 0 2 0 1 1 4 0 0 0 2 1 1 3 0 1 2 0 0 0 0 1 1
decision_type=1 1 1 1 1 1 1 1 1 1 1 1 1 1 1 1 1 1 1 1 1 1 1 1 1 1 1 1 1 1
left_child=1 5 10 14 24 21 -7 -6 16 -8 -3 -12 25 -9 15 29 -5 -14 -17 -18 -11 -1 -23 -24 -4 -10 -15 -28 -26 -2
right_child=3 2 4 8 7 6 9 13 12 20 11 -13 17 26 -16 18 19 -19 -20 -21 -22 22 23 -25 28 -27 27 -29 -30 -31
leaf_parent=21 29 10 24 16 7 6 9 13 25 20 11 11 17 26 14 18 19 17 18 19 20 22 23 23 28 25 27 27 28 29
leaf_value=-0.0507142 0.0284494 -0.0392106 -0.0271043 -0.00394661 0.013013 -0.0314887 0.010272 0.0832996 0.157322 0.0703021 -0.00980408 0.209697 0.139975 0.289448 0.272524 0.112586 0.00512478 0.265259 0.285189 0.233968 0.259934 -0.0352949 -8.40953e-05 0.16177 0.016605 0.0221987 0.27853 0.0690799 0.191349 0.146068
leaf_count=19425 432 2666 648 987 406 2704 512 244 305 150 507 427 397 1920 3383 149 146 965 1134 214 682 2863 651 328 175 430 122 117 186 340
internal_value=0 0.0198695 1.07518 2.06483 1.88824 -0.309319 0.402664 2.34866 1.28308 1.59551 0.0166097 1.03144 1.80733 2.62746 2.48875 2.06493 0.375904 2.29604 2.66543 1.45172 2.31682 -0.443789 -0.12328 0.545268 0.247945 0.850994 2.78562 1.84368 1.06915 0.811796
internal_count=43615 34733 7418 8882 3818 27315 4048 2809 3444 1344 3600 934 2097 2403 5438 2055 1347 1362 1283 360 832 23267 3842 979 1009 735 2159 239 361 772


Tree=15
num_leaves=31
split_feature=84 31 31 38 33 49 33 49 44 49 59 22 31 55 38 10 68 84 36 14 84 22 91 10 22 39 66 24 10 23
split_gain=138.298 150.389 89.6349 68.4217 65.7035 49.3363 39.063 34.4353 32.3608 30.3956 25.6718 23.8532 21.454 22.184 19.9735 19.8947 19.6667 19.374 17.606 17.2801 17.4951 14.5697 12.0164 10.924 10.4298 9.59411 12.3854 34.6851 13.921 11.1105
threshold=0 0 1 4 0 1 1 2 1 3 0 1 0 1 3 1 1 1 3 0 1 2 0 1 3 0 0 0 0 0
decision_type=1 1 1 1 1 1 1 1 1 1 1 1 1 1 1 1 1 1 1 1 1 1 1 1 1 1 1 1 1 1
left_child=3 11 -3 -1 8 12 17 23 -4 -9 -8 -2 -5 -14 -11 -15 -10 -6 -16 20 -13 -20 24 -7 -23 26 27 28 -26 -29
right_child=1 2 4 5 6 7 10 9 16 14 -12 19 13 15 18 -17 -18 -19 21 -21 -22 22 -24 -25 25 -27 -28 29 -30 -31
leaf_parent=3 11 2 8 12 17 23 10 9 16 14 10 20 13 15 18 15 16 17 21 19 20 24 22 23 28 25 26 29 28 29
leaf_value=0.114267 0.0405352 -0.021663 0.118769 -0.0269058 0.0269325 0.0772393 0.239462 0.0432736 0.083371 0.0301821 0.10727 -0.0302885 0.0963495 0.0741676 0.0232855 -0.0137807 0.00604947 0.122984 0.00842618 -0.0436254 0.0131774 0.0274362 -0.052652 -0.00184111 -0.0249705 -0.0474303 -0.043538 0.0312206 -0.0532745 -0.0162466
leaf_count=133 239 1123 177 1175 240 107 148 196 193 182 144 1690 153 155 205 655 1122 184 262 3199 669 111 7324 448 1808 10653 8025 529 1869 497
internal_value=0 -0.0704222 0.308293 -0.385713 0.567884 -0.39253 1.12158 -0.415252 0.298279 -0.425471 1.74879 -0.295395 -0.0604282 0.185183 -0.431366 0.0369606 0.175361 0.689463 -0.435931 -0.326135 -0.178205 -0.440371 -0.445085 0.135391 -0.419812 -0.423184 -0.380857 -0.287208 -0.392273 0.0826557
internal_count=43615 9128 3331 34487 2208 34354 716 32216 1492 31661 292 5797 2138 963 31465 810 1315 424 31283 5558 2359 31078 30816 555 23492 23381 12728 4703 3677 1026


Tree=16
num_leaves=31
split_feature=75 75 77 74 74 75 15 74 74 77 37 36 77 87 41 46 24 24 75 14 13 37 41 61 37 39 79 37 74 36
split_gain=1877.42 915.007 671.158 416 358.01 264.375 262.156 215.271 198.366 163.377 147.061 147.334 118.521 108.792 92.8097 86.4565 86.2132 85.6707 78.781 77.5934 75.6787 76.2 62.077 59.7395 56.5942 53.6047 53.2674 50.9779 48.0399 47.487
threshold=0 1 1 0 1 2 0 0 2 2 0 2 1 0 0 2 0 1 3 0 0 0 0 0 1 0 0 1 0 1
decision_type=1 1 1 1 1 1 1 1 1 1 1 1 1 1 1 1 1 1 1 1 1 1 1 1 1 1 1 1 1 1
left_child=2 7 13 9 -5 16 8 12 -6 -4 11 -7 -2 17 19 -11 22 -1 -12 25 21 -17 26 -13 -23 -9 -3 -20 -18 -19
right_child=1 5 3 4 6 10 -8 14 -10 15 18 23 -14 -15 -16 20 28 29 27 -21 -22 24 -24 -25 -26 -27 -28 -29 -30 -31
leaf_parent=17 12 26 9 4 8 11 6 25 8 15 18 23 12 13 14 21 28 29 27 19 20 24 22 23 24 25 26 27 28 29
leaf_value=0.228278 0.124005 0.206299 0.146293 -0.00733021 0.0181832 0.285503 0.0199895 0.205798 0.237033 0.105948 0.142981 0.141893 -0.0145148 0.0265103 0.0169589 -0.0322405 -0.00742087 0.223875 0.182432 0.00771158 -0.0481295 -0.0134937 0.0488566 0.0309883 0.0556476 0.0733645 0.064362 0.275686 0.109537 0.0816173
leaf_count=428 302 442 224 3757 280 217 903 507 678 200 323 595 3315 397 422 11043 458 130 324 173 12960 1777 265 348 881 198 156 1100 240 572
internal_value=0 0.964166 -0.133316 -0.206453 0.343043 1.62077 1.10303 0.279199 1.82788 -0.326061 1.98227 1.4002 -0.0126895 1.24337 1.01988 -0.34363 0.916711 1.57409 2.35039 1.40766 -0.3556 -0.237636 1.34768 1.01933 0.103774 1.70934 1.7084 2.55393 0.349044 1.09306
internal_count=43615 9385 34230 32703 5618 4468 1861 4917 958 27085 2907 1160 3617 1527 1300 26861 1561 1130 1747 878 26661 13701 863 943 2658 705 598 1424 698 702


Tree=17
num_leaves=31
split_feature=7 35 35 7 12 7 0 61 61 61 61 35 35 35 15 31 61 37 63 0 61 10 10 61 14 15 91 35 61 61
split_gain=998.272 707.374 461.642 268.419 218.943 172.494 142.521 129.37 98.5253 81.6249 88.3987 76.9482 78.6844 72.0777 73.7827 64.6353 62.2361 55.0528 44.6041 42.2021 41.9668 33.8655 30.4639 26.5038 25.6521 24.9754 24.8907 23.349 21.4885 22.0153
threshold=0 0 1 1 5 2 5 0 1 2 3 0 1 2 1 0 4 0 0 3 5 0 0 0 0 1 0 2 0 1
decision_type=1 1 1 1 1 1 1 1 1 1 1 1 1 1 1 1 1 1 1 1 1 1 1 1 1 1 1 1 1 1
left_child=4 7 28 18 -1 21 -6 -2 -9 -10 -11 19 -13 -14 -15 -7 -12 -17 22 23 -18 27 25 -8 -22 -4 -21 -5 -3 -30
right_child=1 2 3 5 6 15 11 8 9 10 16 12 13 14 -16 17 20 -19 -20 26 24 -23 -24 -25 -26 -27 -28 -29 29 -31
leaf_parent=4 7 28 25 27 6 15 23 8 9 10 16 12 13 14 14 17 20 17 18 26 24 21 22 23 24 25 26 27 29 29
leaf_value=0.234488 -0.0418842 -0.0242037 0.222907 0.0679197 0.142532 0.255784 -0.0314157 -0.0252445 -0.0104827 -0.000373519 0.0341487 -0.0349373 -0.0135757 0.183578 0.0300221 0.219416 0.0653925 0.0764099 0.0138983 -0.0492416 0.225262 0.00621456 -0.00204161 0.101871 0.118101 0.0988366 -0.0311504 0.16426 -0.0136265 0.0546794
leaf_count=118 3265 731 100 214 194 924 146 1485 753 464 300 3933 1285 211 570 276 169 192 570 20357 286 172 115 154 147 310 4938 245 406 585
internal_value=0 0.397934 1.01216 1.46929 -0.364595 1.8888 -0.377888 -0.0834137 0.204119 0.502904 0.810563 -0.390952 -0.159011 0.198788 0.735825 2.26014 1.18512 1.6394 0.570957 -0.446189 1.55673 0.932075 1.02637 0.388335 1.89403 1.29005 -0.456614 1.21882 0.0514603 0.267489
internal_count=43615 11709 4840 3118 31906 2023 31788 6869 3604 2119 1366 31594 5999 2066 781 1392 902 468 1095 25595 602 631 525 300 433 410 25295 459 1722 991


Tree=18
num_leaves=31
split_feature=35 24 34 46 66 77 7 80 13 16 36 36 7 66 14 16 13 34 33 84 53 29 36 16 19 24 53 13 28 14
split_gain=78.2064 49.8898 47.4477 20.8955 20.8258 16.9281 15.8339 15.3693 12.8788 12.7583 12.3471 12.0588 10.7558 9.17777 9.17093 8.09734 7.95823 7.65653 7.38026 7.12314 9.41195 7.4131 6.96827 8.00226 6.70894 6.65778 6.24271 5.19926 5.26523 5.02264
threshold=0 0 0 1 0 3 0 1 0 2 1 1 2 1 0 2 1 0 1 0 0 1 1 1 0 0 0 0 2 0
decision_type=1 1 1 1 1 1 1 1 1 1 1 1 1 1 1 1 1 1 1 1 1 1 1 1 1 1 1 1 1 1
left_child=3 2 4 10 -2 -5 15 -6 11 -9 -1 18 -11 -14 17 26 -10 22 -3 21 -21 -15 -8 25 -25 -24 -7 28 -17 -30
right_child=1 8 -4 5 7 6 14 9 16 12 -12 -13 13 19 -16 27 -18 -19 -20 20 -22 -23 23 24 -26 -27 -28 -29 29 -31
leaf_parent=10 4 18 2 5 7 26 22 9 16 12 10 11 13 21 14 28 16 17 18 20 20 21 25 24 24 25 26 27 29 29
leaf_value=0.0371876 -0.0261377 0.0561986 -0.0395408 0.0315931 0.10095 0.0199025 -0.00683145 0.0652952 -0.0285019 0.0523672 -0.0250976 -0.031141 -0.0394511 -0.0348771 -0.0495613 -0.000497023 -0.0524148 -0.0487161 -0.00787147 0.0901101 0.00628538 0.00987456 0.0349033 -0.0410272 -0.00993649 -0.0314461 -0.0417614 -0.0527347 -0.0432743 -0.0532937
leaf_count=194 692 127 1556 145 109 148 839 215 1105 264 1113 1910 224 223 1833 138 2484 954 348 120 160 1429 163 2041 464 157 199 11174 9072 4016
internal_value=0 -0.213924 -0.0462952 -0.44093 0.0968538 -0.45335 -0.457229 0.183193 -0.359769 0.148911 -0.156806 -0.228315 0.100323 0.0468527 -0.354416 -0.484512 -0.449549 -0.299549 0.0993857 0.0961433 0.431135 0.0401109 -0.251679 -0.307629 -0.352665 0.0338034 -0.13744 -0.489742 -0.458282 -0.463136
internal_count=43615 10966 4992 32649 3436 31342 31197 2744 5974 2635 1307 2385 2420 2156 6451 24746 3589 4618 475 1932 280 1652 3664 2825 2505 320 347 24399 13225 13088


Tree=19
num_leaves=31
split_feature=24 14 13 14 19 71 13 85 85 47 41 79 41 19 85 59 2 47 7 74 54 66 17 35 28 85 71 25 63 31
split_gain=2209.27 1203.86 870.326 479.239 419.363 352.974 275.795 192.945 168.768 153.308 150.884 128.742 128.455 118.191 107.801 107.112 93.3372 89.3593 80.7197 76.166 68.9716 67.4516 65.619 61.0815 58.1756 57.6109 55.4483 54.6811 53.0679 44.0622
threshold=0 0 0 0 0 0 1 0 0 0 0 0 0 1 0 0 0 1 0 0 1 0 0 0 1 0 1 0 0 7
decision_type=1 1 1 1 1 1 1 1 1 1 1 1 1 1 1 1 1 1 1 1 1 1 1 1 1 1 1 1 1 1
left_child=1 8 3 7 6 16 12 -2 -1 14 29 21 23 -6 -8 18 25 -11 -9 22 24 -7 -10 -4 -19 -3 -23 -16 -22 -5
right_child=2 5 4 10 13 11 9 15 19 17 -12 -13 -14 -15 27 -17 -18 20 -20 -21 28 26 -24 -25 -26 -27 -28 -29 -30 -31
leaf_parent=8 7 25 23 29 13 21 14 18 22 17 10 11 12 13 27 15 16 24 18 19 28 26 22 23 24 25 26 27 28 29
leaf_value=-0.0464076 -0.0277021 0.027204 0.132875 0.201936 0.0862979 0.125906 0.173312 0.0867346 0.0642261 0.13161 0.0288514 0.0276468 0.0178806 -0.00418004 0.108554 -0.0318821 -0.0492566 -0.00539588 -0.00874508 -0.0423185 0.208255 0.111607 -0.0291525 0.0457652 0.161323 0.108097 0.227248 -0.0017495 0.156486 0.121781
leaf_count=12174 3500 1133 1478 287 1519 824 1169 1983 1313 1302 798 343 907 1100 2132 688 553 139 548 856 2834 215 513 467 249 547 729 234 941 2140
internal_value=0 -0.00234457 0.974275 0.468223 1.26772 0.920699 1.41598 0.105515 -0.342877 1.57175 1.08244 1.48946 0.845914 0.505288 1.24062 0.478447 0.319438 1.76155 0.674623 0.154829 1.89093 1.68956 0.395339 1.13481 1.07797 0.54853 2.03368 0.994326 1.96154 1.3204
internal_count=43615 19200 24415 9944 14471 4344 11852 6719 14856 9000 3225 2111 2852 2619 3535 3219 2233 5465 2531 2682 4163 1768 1826 1945 388 1680 944 2366 3775 2427


Tree=20
num_leaves=31
split_feature=85 14 59 66 14 91 24 91 25 63 35 38 63 47 63 33 31 66 24 28 54 47 13 13 24 69 23 47 24 14
split_gain=987.356 451.201 409.2 224.386 171.619 103.183 72.786 69.9813 60.9338 59.6034 71.7251 53.6725 51.0873 43.0492 41.9148 41.1369 40.3374 39.4635 38.1896 37.7153 64.734 40.8953 34.4152 33.2168 31.4555 29.3025 29.2279 28.4313 25.977 25.7136
threshold=0 0 0 0 1 0 0 0 0 0 0 1 4 0 1 0 0 0 0 1 1 0 0 0 0 0 4 0 0 0
decision_type=1 1 1 1 1 1 1 1 1 1 1 1 1 1 1 1 1 1 1 1 1 1 1 1 1 1 1 1 1 1
left_child=1 6 3 8 24 9 -1 12 13 11 14 15 -6 22 -11 -5 -16 23 27 20 -13 28 -2 -8 -3 -15 -18 -14 -21 -23
right_child=2 4 -4 5 7 -7 17 -9 -10 10 -12 19 18 25 16 -17 26 -19 -20 21 -22 29 -24 -25 -26 -27 -28 -29 -30 -31
leaf_parent=6 22 24 2 15 12 5 23 7 8 14 10 20 27 25 16 15 26 17 18 28 20 29 22 23 24 25 26 27 28 29
leaf_value=-0.0507639 0.0805967 -0.039578 -0.0237055 0.0176116 0.202934 -0.0175387 -0.0316119 -0.0138359 0.0156704 0.0518986 0.0175126 0.198421 0.051753 0.0482626 0.0440485 0.154333 0.19662 -0.0336738 0.0777312 -0.0171793 0.00342474 -0.0101666 0.124804 0.0243778 0.00844727 0.10686 0.112518 -0.0218484 0.078899 0.0409248
leaf_count=12174 1064 1534 3585 174 105 1402 876 670 421 871 908 125 829 993 319 264 199 4354 2087 174 176 1948 2542 1312 1298 629 946 382 616 638
internal_value=0 -0.202003 0.47645 0.626571 0.271435 0.401207 -0.396833 0.545092 0.94203 0.498411 0.711537 0.320894 0.661572 1.00102 0.898312 1.03354 1.1064 -0.207283 0.611841 0.233269 0.941719 0.163715 1.122 0.0311609 -0.168313 0.710128 1.28305 0.29338 0.588992 0.0257449
internal_count=43615 25621 17994 14409 6905 8760 18716 4073 5649 7358 3243 4115 3403 5228 2335 438 1464 6542 3298 3677 301 3376 3606 2188 2832 1622 1145 1211 790 2586


Tree=21
num_leaves=31
split_feature=66 24 25 3 14 17 14 13 25 85 66 24 61 91 78 19 41 13 52 85 41 85 59 59 69 13 65 23 53 23
split_gain=156.597 142.87 170.752 95.869 52.2981 50.0935 33.9813 25.5587 26.7096 44.6688 55.6266 24.0882 23.8461 26.8585 23.7706 22.9992 21.5434 16.1693 15.3922 14.0132 13.9699 12.9677 12.3773 11.5097 11.4693 11.3707 11.0092 10.3884 10.2715 9.08773
threshold=0 0 0 0 0 0 1 0 0 0 1 1 0 0 3 0 0 0 1 0 0 1 0 0 0 0 0 0 0 0
decision_type=1 1 1 1 1 1 1 1 1 1 1 1 1 1 1 1 1 1 1 1 1 1 1 1 1 1 1 1 1 1
left_child=1 4 11 5 19 17 -6 14 27 -10 -11 -3 13 18 15 -2 -8 -4 -13 -1 -14 -21 -20 28 -15 -5 -12 -9 -19 -7
right_child=7 2 3 25 6 29 16 8 9 10 26 12 20 24 -16 -17 -18 23 22 21 -22 -23 -24 -25 -26 -27 -28 -29 -30 -31
leaf_parent=19 15 11 17 25 6 29 16 27 9 10 26 18 20 24 14 15 16 28 22 21 20 21 22 23 24 25 26 27 28 29
leaf_value=-0.0515085 0.0967929 -0.0261934 0.093699 -0.0486154 -0.0379163 0.0697789 0.00943834 -0.029331 -0.041182 0.142206 0.0352192 0.0497456 -0.0306557 0.114571 -0.0513636 -0.051351 0.0995651 0.183279 -0.00585705 -0.0504291 0.0113039 0.00601078 0.070061 0.217318 0.0235012 0.0264967 -0.0326588 -0.0457402 0.101866 -0.0182107
leaf_count=5764 103 2678 172 217 895 124 865 3115 988 168 217 364 1376 180 15186 105 158 126 1791 413 581 448 112 131 115 191 303 6511 114 104
internal_value=0 -0.15461 0.051015 0.790367 -0.37112 1.19272 -0.0396517 -0.439546 -0.355129 -0.086015 0.352323 -0.0892985 0.0115628 0.154905 -0.502173 0.244941 0.23465 1.50551 0.0704198 -0.472053 -0.178947 -0.2003 -0.0114933 1.71741 0.792893 -0.117191 -0.0376051 -0.403331 1.45913 0.312271
internal_count=43615 16919 8376 1179 8543 771 1918 26696 11302 1676 688 7197 4519 2562 15394 208 1023 543 2267 6625 1957 861 1903 371 295 408 520 9626 240 228


Tree=22
num_leaves=31
split_feature=33 33 33 85 33 34 75 38 43 53 59 53 23 41 24 10 53 24 23 66 31 53 90 17 8 7 32 47 63 32
split_gain=1099.74 1429.08 959.099 447.856 272.169 103.011 28.9446 14.1846 15.0401 10.3264 7.13222 4.61716 6.19851 1.19808 1.19752 1.12622 0.47612 0.913772 1.56907 1.60601 0.424973 0.346114 0.335559 0.248916 0.199706 0.192999 0.1476 0.313049 0.11397 0.196909
threshold=0 1 2 0 3 0 0 1 0 0 0 0 0 0 0 0 0 0 0 1 1 1 1 1 9 3 0 0 0 1
decision_type=1 1 1 1 1 1 1 1 1 1 1 1 1 1 1 1 1 1 1 1 1 1 1 1 1 1 1 1 1 1
left_child=24 16 11 4 9 6 10 -5 -9 -4 13 12 -3 20 -14 -11 17 18 -2 -20 -6 -22 -23 -24 -1 -18 27 -25 -19 -30
right_child=1 2 3 7 5 -7 -8 8 -10 15 -12 -13 14 -15 -16 -17 25 28 19 -21 21 22 23 26 -26 -27 -28 -29 29 -31
leaf_parent=24 18 12 9 7 20 5 6 8 8 15 10 11 14 13 14 15 25 28 19 19 21 22 23 27 24 25 26 27 29 29
leaf_value=-0.0447165 -0.026822 0.009422 0.0464123 -0.0541582 0.237785 0.0537498 0.127884 0.0483068 -0.0514395 -0.0221053 0.180132 -0.0543796 -0.0286302 0.212714 -0.053441 -0.0555377 -0.0450833 -0.0555296 -0.0267201 -0.0554963 0.219993 0.222015 0.224948 0.233283 -0.0551899 -0.055258 0.234747 0.224697 -0.0437949 -0.0535883
leaf_count=100 196 161 109 287 161 155 114 203 124 111 114 1128 166 148 270 110 108 1038 125 578 138 165 202 329 32478 3552 307 206 142 590
internal_value=0 0.269028 1.05375 1.60828 1.90949 2.10002 2.20071 -0.162909 0.144101 -0.0815564 2.25175 -0.452058 -0.289253 2.27892 -0.434332 -0.383568 -0.531782 -0.50797 -0.447498 -0.500723 2.29327 2.28327 2.29252 2.30399 -0.551568 -0.549547 2.31708 2.29981 -0.53939 -0.516751
internal_count=43615 11037 4708 2983 2369 2039 1884 614 327 330 1770 1725 597 1656 436 221 6329 2669 899 703 1508 1347 1209 1044 32578 3660 842 535 1770 732


Tree=23
num_leaves=31
split_feature=25 10 10 85 59 59 10 10 59 59 59 10 59 13 19 10 41 41 41 75 41 59 41 85 84 59 32 84 59 59
split_gain=5081.76 2002.52 997.566 462.773 459.009 561.279 444.269 272.574 250.238 224.494 200.945 426.478 174.846 115.68 113.557 113.032 88.5117 99.6803 81.2342 78.0319 76.0107 71.0213 64.6072 64.3591 60.7424 55.4187 52.2279 50.7585 49.1908 53.7123
threshold=0 0 1 0 0 1 2 3 0 2 0 0 1 0 0 1 0 1 2 0 0 0 0 0 0 0 0 1 1 2
decision_type=1 1 1 1 1 1 1 1 1 1 1 1 1 1 1 1 1 1 1 1 1 1 1 1 1 1 1 1 1 1
left_child=1 4 8 10 16 -6 21 -8 -3 -7 11 20 -10 22 -9 -13 -1 -18 -19 -16 -2 -4 -5 -11 -12 -15 -22 -26 -27 -30
right_child=3 2 6 13 5 9 7 14 12 23 24 15 -14 25 19 -17 17 18 -20 -21 26 -23 -24 -25 27 28 -28 -29 29 -31
leaf_parent=16 20 8 21 22 5 9 7 14 12 23 24 15 12 25 19 15 17 18 18 19 26 21 22 23 27 28 26 27 29 29
leaf_value=-0.0501609 0.01211 -0.038351 -0.0261613 0.0649203 -0.0307443 0.0094421 0.0123748 0.222882 -0.00938296 0.213575 0.224045 0.0718309 0.169625 -0.0065823 0.193253 0.221328 -0.0343491 0.00014819 0.13409 0.0446195 0.15099 0.0928539 0.165805 0.0949669 0.193588 0.0184192 0.0231681 0.0613743 0.0349673 0.21205
leaf_count=19425 757 2666 648 393 2704 512 406 1909 507 617 3229 201 427 604 235 1495 2863 651 328 259 392 361 623 215 315 257 196 153 115 152
internal_value=0 0.0162187 0.93215 1.66582 -0.301473 0.364145 1.54591 1.86401 0.0150566 1.3344 1.88704 1.51812 0.898663 0.849609 2.04721 2.05675 -0.436434 -0.116756 0.494322 1.23889 0.589198 0.230476 1.30189 1.84824 2.15716 0.381617 1.10825 1.53073 0.842742 1.40744
internal_count=43615 34733 7418 8882 27315 4048 3818 2809 3600 1344 6738 3041 934 2144 2403 1696 23267 3842 979 494 1345 1009 1016 832 3697 1128 588 468 524 267


Tree=24
num_leaves=31
split_feature=84 31 31 38 33 49 49 49 33 14 84 31 38 10 36 10 75 61 84 19 22 65 59 85 85 13 85 10 14 85
split_gain=133.02 137.364 77.4737 60.1872 51.5536 47.7933 33.1201 28.7671 27.3774 22.031 20.9459 19.6976 18.9993 18.466 16.9061 16.8995 17 15.5319 14.6851 14.5366 15.9218 12.8928 12.3386 10.0241 9.79501 12.1902 9.42632 9.20428 9.0126 8.0144
threshold=0 0 1 4 0 1 2 3 1 0 1 0 3 1 3 1 0 0 1 0 2 0 0 0 4 0 0 1 1 1
decision_type=1 1 1 1 1 1 1 1 1 1 1 1 1 1 1 1 1 1 1 1 1 1 1 1 1 1 1 1 1 1
left_child=3 9 23 -1 15 11 27 -8 18 10 -2 -5 -9 -13 -14 22 -17 -10 -6 24 -21 -18 -4 -3 25 -16 -12 -7 -11 -28
right_child=1 2 4 5 8 6 7 12 17 28 26 13 14 -15 19 16 21 -19 -20 20 -22 -23 -24 -25 -26 -27 29 -29 -30 -31
leaf_parent=3 10 23 22 11 18 27 7 12 17 28 26 13 14 13 25 16 21 17 18 20 20 21 22 23 24 25 29 27 28 29
leaf_value=0.09993 -0.0262166 -0.0414982 0.112562 -0.0259569 0.0258477 0.0698304 0.0408635 0.0286175 0.202345 -0.0197164 -0.0107658 0.079446 0.0224511 0.00230605 0.0378764 -0.00738391 0.00518262 0.104792 0.107277 0.0474038 -0.033532 0.0765035 0.0226543 0.00194914 -0.0460045 -0.0379061 -0.00683804 -0.00129388 -0.0481902 0.0614621
leaf_count=133 1775 589 174 1175 240 107 196 182 126 795 301 177 205 786 163 673 218 166 184 125 4501 298 129 534 25915 374 124 448 2504 298
internal_value=0 -0.0645011 0.291185 -0.376347 0.523443 -0.383268 -0.406426 -0.416887 0.99106 -0.285746 -0.124224 -0.055153 -0.422934 0.177228 -0.427617 0.281983 0.160714 1.47839 0.629737 -0.432178 -0.311379 0.464492 0.744795 -0.207128 -0.453498 -0.141687 0.196693 0.132435 -0.41249 0.414434
internal_count=43615 9128 3331 34487 2208 34354 32216 31661 716 5797 2498 2138 31465 963 31283 1492 1189 292 424 31078 4626 516 303 1123 26452 537 723 555 3299 422


Tree=25
num_leaves=31
split_feature=75 29 75 77 89 29 74 77 19 74 41 85 19 46 19 77 82 37 85 19 74 46 25 24 74 41 19 85 24 47
split_gain=1550.33 718.922 652.674 456.049 186.563 185.694 180.902 173.763 172.383 163.827 123.776 122.064 120.782 106.842 105.729 96.0609 92.7822 92.0618 88.1688 84.6973 75.2291 59.4113 57.7843 55.1111 54.2497 54.0362 51.0353 50.8734 58.9023 45.6216
threshold=0 1 1 1 4 1 0 2 0 0 0 0 0 2 1 1 1 0 0 0 1 1 0 0 1 0 2 0 1 0
decision_type=1 1 1 1 1 1 1 1 1 1 1 1 1 1 1 1 1 1 1 1 1 1 1 1 1 1 1 1 1 1
left_child=1 6 5 16 -5 -2 -1 -6 9 23 20 15 13 -9 -14 -7 -3 -10 25 -17 -11 -15 -21 29 -8 26 -16 28 -18 -4
right_child=2 3 8 4 7 11 24 12 17 10 -12 -13 14 21 18 19 27 -19 -20 22 -22 -23 -24 -25 -26 -27 -28 -29 -30 -31
leaf_parent=6 5 16 29 4 7 15 24 13 17 20 10 11 14 21 26 19 28 17 18 22 20 21 22 23 24 25 26 27 28 29
leaf_value=0.0298049 0.159397 0.187789 0.14632 0.268299 0.124181 0.155579 0.0650008 0.108912 0.101197 0.0948479 0.00649719 -0.0282011 -0.0198775 0.0192088 0.0930995 0.0017309 0.169847 0.193164 -0.0113609 0.144385 0.220259 -0.0404631 -0.0147039 -0.0121718 0.188974 0.0343725 0.245456 -0.00193152 0.0489087 0.0390232
leaf_count=754 359 284 255 102 298 262 188 215 585 249 198 2103 3153 920 280 1634 236 1685 606 399 523 25099 160 516 724 335 176 363 497 457
internal_value=0 -0.127072 0.844731 -0.211741 -0.276585 0.258366 1.16564 -0.287392 1.35332 0.951577 1.5037 0.121598 -0.306943 -0.368161 0.0368743 0.449566 0.929131 1.71943 0.554177 0.278875 1.81773 -0.383212 1.01358 0.420595 1.68206 1.04058 1.53432 0.634161 0.941984 0.777335
internal_count=43615 34230 9385 32564 31184 4917 1666 31082 4468 2198 970 4558 30784 26234 4550 2455 1380 2270 1397 2193 772 26019 559 1228 912 791 456 1096 733 712


Tree=26
num_leaves=31
split_feature=7 35 35 7 12 29 0 61 35 61 19 61 61 91 66 91 24 91 63 61 10 35 75 61 61 61 43 25 36 35
split_gain=903.052 570.395 336.747 177.276 175.19 129.56 123.972 119.256 107.028 85.2445 68.5887 66.3381 68.0515 56.4432 56.8103 52.8864 52.322 45.1283 33.9528 32.3418 39.61 31.3754 30.4837 26.9407 42.9891 31.8297 25.5773 22.298 29.9526 21.6817
threshold=0 0 1 1 5 3 5 0 2 1 0 2 3 0 0 1 0 0 0 0 0 0 0 0 1 2 0 0 1 1
decision_type=1 1 1 1 1 1 1 1 1 1 1 1 1 1 1 1 1 1 1 1 1 1 1 1 1 1 1 1 1 1
left_child=4 7 -3 18 -1 -6 -7 -2 19 -9 -10 -11 -13 21 -15 -16 -17 -14 27 -5 -21 -8 -12 -18 -25 -26 -27 28 -4 -23
right_child=1 2 3 8 5 6 13 9 10 11 22 12 17 14 15 16 23 -19 -20 20 -22 29 -24 24 25 26 -28 -29 -30 -31
leaf_parent=4 7 2 28 19 5 6 21 9 10 11 22 12 17 14 15 16 23 17 18 20 20 29 22 24 25 26 26 27 28 29
leaf_value=0.187557 -0.0410432 0.00529572 0.0136783 0.008701 0.175687 0.121664 -0.0482978 -0.024271 0.204961 -0.00976863 0.154498 -0.000203972 0.0557691 -0.0448888 -0.0218094 -0.016694 -0.000479108 0.147129 0.0135964 0.156005 0.0132852 -0.0388369 0.0478076 -0.0034141 0.0352303 0.235642 0.0970214 0.00214266 0.142859 -0.00574745
leaf_count=118 3265 1722 107 190 111 194 20537 1485 1039 753 246 464 463 2814 2274 566 167 439 570 250 121 3041 177 137 101 155 105 107 311 1586
internal_value=0 0.366796 0.888581 1.24496 -0.355322 -0.368705 -0.379154 -0.0781468 1.55325 0.192499 1.80326 0.460513 0.723272 -0.392538 -0.197846 -0.00656166 0.365798 1.02836 0.51955 0.783714 1.12401 -0.442901 1.14016 0.769556 1.02099 1.41103 1.80524 0.893952 1.10756 -0.271713
internal_count=43615 11709 4840 3118 31906 31788 31677 6869 2023 3604 1462 2119 1366 31483 6319 3505 1231 902 1095 561 371 25164 423 665 498 361 260 525 418 4627


Tree=27
num_leaves=31
split_feature=7 16 24 35 39 35 70 3 46 41 36 46 10 16 16 67 33 41 33 10 24 29 39 16 10 14 43 63 36 74
split_gain=78.505 43.4141 36.0269 31.4408 29.7226 24.6089 17.7437 12.347 12.1409 11.5658 11.1611 10.3435 9.85849 10.8227 8.63496 8.47429 8.63151 8.32058 10.3085 7.23109 7.45479 7.03233 8.15403 6.05624 5.52154 9.28452 5.10004 7.64094 4.96375 5.03963
threshold=0 5 0 0 0 0 2 0 1 0 1 1 0 2 2 1 1 0 1 0 0 1 0 1 0 0 0 0 1 1
decision_type=1 1 1 1 1 1 1 1 1 1 1 1 1 1 1 1 1 1 1 1 1 1 1 1 1 1 1 1 1 1
left_child=4 -2 3 11 5 8 -5 9 19 15 17 -3 13 -8 -10 -7 -17 18 -4 20 -1 -15 26 -13 25 -16 27 -23 -25 -30
right_child=1 2 10 6 -6 7 12 -9 14 -11 -12 23 -14 21 24 16 -18 -19 -20 -21 -22 22 -24 28 -26 -27 -28 -29 29 -31
leaf_parent=20 1 11 18 6 4 15 13 7 14 9 10 23 12 21 25 16 16 17 18 19 20 27 22 28 24 25 26 27 29 29
leaf_value=0.0377113 0.117554 0.0310514 0.0462694 0.0949538 -0.051299 0.0586528 0.0714871 -0.0407049 -0.00158512 -0.0363892 -0.039891 -1.14752e-05 -0.0193345 -0.0501863 -0.0347425 0.0393698 -0.0109361 -0.0403448 -0.0156684 -0.0429579 -0.0283899 0.0024097 -0.0145082 -0.0114116 -0.051062 -0.0518445 0.0708182 0.0490978 -0.00112461 -0.0410755
leaf_count=197 110 162 176 117 15444 119 146 1012 255 627 5044 360 575 100 5432 200 1251 472 637 224 155 480 383 524 4244 2746 113 275 201 1834
internal_value=0 -0.209435 -0.224276 -0.0839422 -0.435968 -0.366418 0.121258 -0.185345 -0.413031 -0.092044 -0.347125 -0.241018 0.0706065 0.164317 -0.429191 0.00922866 -0.03873 -0.153702 -0.0121244 -0.0890367 0.103714 0.0974846 0.142217 -0.274961 -0.43865 -0.403118 0.258498 0.193225 -0.317297 -0.371464
internal_count=43615 11709 11599 5270 31906 16462 2189 3209 13253 2197 6329 3081 2072 1497 12677 1570 1451 1285 813 576 352 1351 1251 2919 12422 8178 868 755 2559 2035


Tree=28
num_leaves=31
split_feature=39 14 13 85 14 14 25 19 85 59 35 14 66 28 31 41 59 59 25 13 71 74 14 21 66 29 19 14 66 2
split_gain=1918.33 903.168 582.609 362.997 293.807 256.377 252.318 171.127 162.365 142.921 102.612 93.9061 92.3618 93.0117 89.4173 83.6413 71.0885 65.7944 64.6411 63.3376 62.2782 59.7726 52.465 50.9749 48.4831 46.8482 45.3703 43.7248 41.9594 41.9487
threshold=0 0 0 0 0 1 0 0 0 0 0 1 0 1 0 0 0 0 1 1 0 0 0 0 0 1 0 0 0 0
decision_type=1 1 1 1 1 1 1 1 1 1 1 1 1 1 1 1 1 1 1 1 1 1 1 1 1 1 1 1 1 1
left_child=1 3 4 -1 8 17 7 12 -2 10 21 -6 25 -14 -9 20 26 29 22 27 28 23 -8 -5 -13 -4 -10 -15 -7 -3
right_child=2 5 6 9 11 15 18 14 16 -11 -12 24 13 19 -16 -17 -18 -19 -20 -21 -22 -23 -24 -25 -26 -27 -28 -29 -30 -31
leaf_parent=3 8 29 25 23 11 28 22 14 26 9 10 24 13 27 14 15 16 17 18 19 20 21 22 23 24 25 26 27 28 29
leaf_value=-0.0453795 -0.0266429 0.0541063 -0.00789259 0.0927401 0.03993 0.0226771 0.026044 0.0990278 0.0952463 -0.0417804 -0.0188421 0.0707528 0.0593962 0.0737902 0.00842508 0.034354 -0.027396 -0.0422123 -0.0217523 0.162229 0.153547 -0.00311001 0.123913 0.00873544 0.141255 0.114227 -0.00457981 0.151772 0.109969 -0.045757
leaf_count=12652 3078 1322 112 1801 971 264 586 1099 1106 1271 945 560 421 581 718 506 422 674 692 3888 1140 549 391 407 1009 4424 253 476 1037 260
internal_value=0 0.0543097 0.928432 -0.225154 0.429917 0.753542 1.14107 1.22288 0.0761614 0.255633 0.455048 0.935305 1.31031 1.46485 0.662886 1.08966 0.566419 0.175604 0.340516 1.52779 1.224 0.649258 0.664809 0.788547 1.19422 1.11264 0.779145 1.10424 0.941245 0.402415
internal_count=43615 22828 20787 17625 7399 5203 13388 11719 4859 4973 3702 2540 9902 5366 1817 2947 1781 2256 1669 4945 2441 2757 977 2208 1569 4536 1359 1057 1301 1582


Tree=29
num_leaves=31
split_feature=85 14 59 66 14 91 39 13 91 36 63 13 38 25 24 74 66 31 47 39 28 70 47 39 29 84 13 61 66 24
split_gain=851.473 418.014 337.688 170.876 144.054 86.309 85.8362 69.9849 56.9849 51.4425 55.6023 50.221 46.1247 45.0717 44.9821 43.4201 50.7358 46.0039 45.0259 40.3719 51.6498 39.2267 39.006 38.1289 38.1193 32.7276 42.6947 31.7668 29.922 29.4778
threshold=0 0 0 0 1 0 0 0 0 1 0 1 1 0 0 1 0 6 1 0 1 1 0 0 1 0 0 0 0 0
decision_type=1 1 1 1 1 1 1 1 1 1 1 1 1 1 1 1 1 1 1 1 1 1 1 1 1 1 1 1 1 1
left_child=1 6 3 13 29 9 -1 -8 15 -5 12 -9 27 23 -12 18 -17 -18 -6 -14 -21 -16 -22 25 -25 26 -2 -11 -13 -3
right_child=2 4 -4 5 8 -7 7 11 -10 10 14 28 19 -15 21 16 17 -19 -20 20 22 -23 -24 24 -26 -27 -28 -29 -30 -31
leaf_parent=6 26 29 2 9 18 5 7 11 8 27 14 28 19 13 21 16 17 17 18 20 22 21 22 24 24 25 26 27 28 29
leaf_value=-0.0503242 -0.011058 -0.0385227 -0.0226981 -0.00571943 0.153215 -0.0167361 -0.0420919 -0.0399891 -0.012927 0.0288529 0.00909048 0.0479296 -0.0138056 0.015106 0.133494 0.0848527 0.120655 0.0138832 0.0455872 0.134905 0.0793773 0.0695748 0.012306 0.209465 0.0939151 0.100972 0.0762869 0.152786 -0.00604737 0.00848384
leaf_count=12652 455 1534 3585 830 320 1402 3078 905 670 157 462 1139 957 421 475 969 174 1636 304 196 491 1898 1682 116 3685 487 485 210 942 1298
internal_value=0 -0.193124 0.433742 0.562742 0.255274 0.366797 -0.388062 -0.16448 0.496178 0.451848 0.513511 0.0763327 0.33429 0.825824 0.725749 0.595759 0.478337 0.261172 1.06426 0.250203 0.397345 0.831623 0.291443 0.87303 0.973958 0.587364 0.362924 1.02642 0.25677 -0.157387
internal_count=43615 25621 17994 14409 6905 8760 18716 6064 4073 7358 6528 2986 3693 5649 2835 3403 2779 1810 624 3326 2369 2373 2173 5228 3801 1427 940 367 2081 2832


Tree=30
num_leaves=31
split_feature=66 24 25 10 17 14 84 13 25 85 66 78 24 15 91 13 85 59 14 39 85 85 23 41 41 14 43 65 41 32
split_gain=152.487 133.913 146.386 81.3848 52.6792 51.0523 31.6201 26.0558 26.4199 40.2534 43.1315 22.814 22.5609 22.6354 27.8161 21.0427 19.8805 19.5674 18.0571 16.3629 13.8388 12.2737 10.3181 10.2187 10.9174 10.1462 12.155 9.96684 9.36357 9.09853
threshold=0 0 0 0 0 0 0 0 0 0 1 3 1 0 0 0 0 0 0 0 0 1 0 0 1 1 0 0 0 0
decision_type=1 1 1 1 1 1 1 1 1 1 1 1 1 1 1 1 1 1 1 1 1 1 1 1 1 1 1 1 1 1
left_child=1 5 12 4 15 20 -7 11 22 -10 -11 16 -3 14 28 -4 -2 23 -19 -6 -1 -22 -9 -15 -25 -8 29 -12 -14 -27
right_child=7 2 3 -5 19 6 25 8 9 10 27 -13 13 17 -16 -17 -18 18 -20 -21 21 -23 -24 24 -26 26 -28 -29 -30 -31
leaf_parent=20 16 12 15 3 19 6 25 22 9 10 27 11 28 23 14 15 16 18 18 19 21 21 22 24 24 29 26 27 28 29
leaf_value=-0.0509777 -0.0467592 -0.0252795 0.0732657 -0.0214769 -0.0510878 -0.0259895 -0.0143063 -0.0283277 -0.0399728 0.120834 0.033215 -0.050845 0.00105077 -0.0335779 0.0870092 0.157783 0.0898536 -0.0185971 0.102382 0.061022 -0.0499169 0.00554764 -0.0449723 -0.0163293 0.0524183 0.0573254 0.112589 -0.0315228 0.0416166 -0.0139425
leaf_count=5764 107 2678 186 342 105 1247 173 3115 988 168 217 15186 1654 1429 244 376 101 117 120 170 413 448 6511 453 162 243 116 303 340 139
internal_value=0 -0.146409 0.0510177 0.715673 1.03288 -0.36182 -0.0340377 -0.431656 -0.344955 -0.0746424 0.330285 -0.496574 -0.0830326 0.0141676 0.174077 1.34711 0.229094 -0.148641 0.443339 0.217666 -0.465252 -0.193715 -0.394265 -0.225366 0.0173024 0.353571 0.507204 -0.0304403 0.0829628 0.313757
internal_count=43615 16919 8376 1179 837 8543 1918 26696 11302 1676 688 15394 7197 4519 2238 562 208 2281 237 275 6625 861 9626 2044 615 671 498 520 1994 382


Tree=31
num_leaves=31
split_feature=33 33 33 85 33 74 43 15 15 53 24 15 47 38 43 23 53 24 23 66 14 66 39 8 7 47 47 63 63 32
split_gain=1030.27 1209.91 732.986 317.734 185.711 63.3777 29.235 16.1348 11.406 4.59236 6.04403 2.17383 1.36685 1.28803 2.18242 0.607269 0.478435 0.920556 1.52324 1.59911 0.445372 0.407458 0.316382 0.205111 0.200886 0.151685 0.529342 0.127991 0.118633 0.202448
threshold=0 1 2 0 3 0 0 0 0 0 0 0 0 1 0 0 0 0 0 1 0 1 0 9 3 1 0 0 0 1
decision_type=1 1 1 1 1 1 1 1 1 1 1 1 1 1 1 1 1 1 1 1 1 1 1 1 1 1 1 1 1 1
left_child=23 16 9 4 8 6 11 -5 -4 10 -3 20 -13 -9 -15 -12 17 18 -2 -20 22 -14 25 -1 -18 27 -27 -6 -19 -30
right_child=1 2 3 7 5 -7 -8 13 -10 -11 15 12 21 14 -16 -17 24 28 19 -21 -22 -23 -24 -25 -26 26 -28 -29 29 -31
leaf_parent=23 18 10 8 7 27 5 6 13 8 9 15 12 21 14 14 15 24 28 19 19 20 21 22 23 24 26 26 27 29 29
leaf_value=-0.044013 -0.0264257 0.00218202 0.0429683 0.035399 0.191593 0.0521963 0.0898145 -0.0554446 -0.0440822 -0.0539393 -0.0326741 0.157448 0.188045 -0.0090735 -0.0552984 -0.0529989 -0.0442401 -0.0552006 -0.0261349 -0.0551781 0.193178 0.175337 0.191531 -0.0548389 -0.0548822 0.185847 0.174105 0.183943 -0.0430159 -0.0531653
leaf_count=100 196 210 121 191 129 141 132 211 209 1128 117 105 101 104 108 270 108 1038 125 578 309 207 226 32478 3552 459 129 101 142 590
internal_value=0 0.250372 0.930096 1.36681 1.59218 1.73022 1.80058 -0.154288 -0.0743665 -0.444031 -0.280548 1.84657 1.74107 -0.419698 -0.298044 -0.464738 -0.527217 -0.502869 -0.441203 -0.495494 1.87731 1.79532 1.86156 -0.548043 -0.545621 1.84694 1.83329 1.88204 -0.535348 -0.511692
internal_count=43615 11037 4708 2983 2369 2039 1898 614 330 1725 597 1766 413 423 212 387 6329 2669 899 703 1353 308 1044 32578 3660 818 588 230 1770 732


Tree=32
num_leaves=31
split_feature=25 10 10 59 59 10 85 59 10 59 59 59 10 39 41 41 10 39 10 39 59 59 59 59 59 41 59 85 75 84
split_gain=3892.35 1709.12 746.767 420.433 454.576 308.708 300.906 215.296 185.611 160.38 130.998 127.206 291.413 103.039 86.8677 89.2031 84.657 81.8331 73.3577 72.8697 59.4543 48.8465 47.7873 57.6237 47.6094 43.0577 39.1059 38.0668 36.3411 36.0897
threshold=0 0 1 0 1 2 0 0 3 2 1 0 0 0 0 1 4 0 1 0 0 3 0 1 2 0 1 0 0 0
decision_type=1 1 1 1 1 1 1 1 1 1 1 1 1 1 1 1 1 1 1 1 1 1 1 1 1 1 1 1 1 1
left_child=1 3 7 14 -5 20 11 -3 -7 -6 -9 12 19 25 -1 -16 28 -17 -14 -2 -4 -11 -15 -24 -25 -8 -22 -18 -10 -13
right_child=6 2 5 4 9 8 13 10 16 21 -12 29 18 22 15 17 27 -19 -20 -21 26 -23 23 24 -26 -27 -28 -29 -30 -31
leaf_parent=14 19 7 20 4 9 8 25 10 28 21 10 29 18 22 15 17 27 17 18 19 26 21 23 24 24 25 26 27 28 29
leaf_value=-0.0496178 0.0937785 -0.0374605 -0.0251912 -0.0299859 0.00875411 0.0117875 0.058036 -0.00889171 0.132571 0.0478525 0.142705 0.182332 0.0637258 -0.00724754 -0.0334874 0.116695 0.183535 -0.0114291 0.18043 -0.00120415 0.0100198 0.170389 0.00309476 0.0147618 0.182708 0.14248 0.14146 0.0978303 -0.0196195 0.130418
leaf_count=19425 717 2666 648 2704 512 406 326 507 114 150 427 3229 201 649 2863 412 1984 567 1495 628 175 682 265 100 175 629 186 175 130 468
internal_value=0 0.013016 0.826073 -0.294068 0.331906 1.31642 1.40255 0.0145433 1.55639 1.14732 0.797268 1.566 1.28501 0.758278 -0.429243 -0.111646 1.69076 0.450154 1.69115 0.524825 0.216725 1.54018 0.332868 0.743819 1.31125 1.17717 0.822159 1.7769 0.571659 1.76462
internal_count=43615 34733 7418 27315 4048 3818 8882 3600 2809 1344 934 6738 3041 2144 23267 3842 2403 979 1696 1345 1009 832 1189 540 275 955 361 2159 244 3697


Tree=33
num_leaves=31
split_feature=84 31 31 55 44 55 10 49 41 49 36 42 22 10 75 84 10 22 21 14 84 91 22 19 55 85 39 85 85 66
split_gain=127.639 125.475 67.2675 56.5116 56.1015 43.2821 36.6704 34.0855 32.7663 28.3081 28.3809 27.5689 22.1914 20.6964 20.3589 17.49 16.8049 16.7451 16.4491 16.0697 14.6943 13.8964 12.9668 12.1853 10.2788 9.52635 9.03726 16.0001 9.11561 14.2628
threshold=0 0 1 1 1 1 1 1 0 3 3 1 1 1 2 1 1 2 0 0 1 0 1 0 1 0 0 4 0 0
decision_type=1 1 1 1 1 1 1 1 1 1 1 1 1 1 1 1 1 1 1 1 1 1 1 1 1 1 1 1 1 1
left_child=4 12 25 8 5 -1 -5 16 15 -9 -11 -8 -2 -7 -13 -4 18 -12 -6 20 -14 23 -16 26 -25 -3 27 -19 -29 -30
right_child=1 2 3 6 7 13 11 9 -10 10 17 14 19 -15 22 -17 -18 21 -20 -21 -22 -23 -24 24 -26 -27 -28 28 29 -31
leaf_parent=5 12 25 15 6 18 13 11 9 8 10 17 14 20 13 22 15 16 27 18 19 20 21 22 24 24 25 26 28 29 29
leaf_value=0.104452 0.0395636 -0.040649 0.116381 0.0880568 0.0832946 0.054945 0.112333 0.0472169 0.0455911 0.0417672 0.0144557 0.0957992 -0.0285165 -0.0241169 0.0666731 0.232719 -0.0191712 0.0338776 -0.0186018 -0.0420052 0.0112913 -0.0517252 -0.0103805 0.0180786 -0.0303889 0.00214223 -0.0474685 -0.0425608 0.000888385 -0.0374955
leaf_count=206 239 589 125 399 166 205 125 166 156 209 260 106 1690 945 112 102 1662 161 145 3199 669 7261 1083 262 3123 534 9268 7853 735 1860
internal_value=0 -0.0589395 0.275489 0.484444 -0.367 0.0967737 0.321255 -0.386876 1.21847 -0.407013 -0.412913 0.151388 -0.276252 -0.085817 0.0555787 1.71922 -0.0968409 -0.419217 0.370661 -0.307813 -0.164574 -0.424738 -0.0281368 -0.396544 -0.266188 -0.197921 -0.419436 -0.372343 -0.384342 -0.264547
internal_count=43615 9128 3331 2208 34487 1356 1825 33131 383 31158 30992 1426 5797 1150 1301 227 1973 30783 311 5558 2359 30523 1195 23262 3385 1123 19877 10609 10448 2595


Tree=34
num_leaves=31
split_feature=75 29 75 77 19 74 75 15 19 46 77 29 85 77 14 82 29 19 61 67 67 85 13 85 24 41 46 89 24 85
split_gain=1297.47 601.989 487.417 395.296 165.193 153.681 136.031 134.877 123.008 103.185 82.6702 81.8172 79.5573 76.4312 73.5878 65.3846 64.214 63.1487 78.0174 56.8587 55.4716 55.4272 42.3129 40.4334 41.5991 40.2522 37.905 38.9994 37.4462 36.6641
threshold=0 1 1 1 0 0 2 0 1 2 1 1 0 2 0 1 1 0 0 4 3 0 0 0 1 0 1 2 0 0
decision_type=1 1 1 1 1 1 1 1 1 1 1 1 1 1 1 1 1 1 1 1 1 1 1 1 1 1 1 1 1 1
left_child=1 7 5 15 9 10 11 14 -6 -5 -2 -4 25 -11 -1 -3 -7 18 28 -15 -21 -13 26 24 -17 -10 -22 -28 -8 -12
right_child=2 3 6 4 8 16 17 -9 12 13 29 21 -14 19 -16 23 -18 -19 -20 20 22 -23 -24 -25 -26 -27 27 -29 -30 -31
leaf_parent=14 10 15 11 9 8 16 28 7 25 13 29 21 12 19 14 24 16 17 18 20 26 21 22 23 24 25 27 27 28 29
leaf_value=0.163012 0.0935257 0.1563 0.165803 0.0997783 -0.0143025 0.161963 0.15761 0.0293641 0.139151 0.0975047 0.00904311 0.0797633 -5.02358e-05 0.111114 0.00275069 0.142154 0.0566083 0.159685 0.03517 0.0834373 0.0286169 -0.00360729 -0.0490425 -0.00173134 0.044817 0.0449982 0.0808159 -0.0339783 0.0565615 -0.0390249
leaf_count=761 302 284 232 225 3238 239 587 768 506 156 1699 795 644 137 137 236 1061 1720 423 204 548 534 12360 363 497 363 160 12643 177 1616
internal_value=0 -0.121187 0.750241 -0.203421 -0.267339 0.239355 1.16113 1.01061 0.119998 -0.342476 -0.0172333 0.685117 0.627134 -0.358671 1.43999 0.822218 0.818025 1.38319 1.0464 -0.370871 -0.379114 0.479693 -0.388989 0.572698 0.831685 1.02961 -0.298138 -0.324921 1.37609 -0.138273
internal_count=43615 34230 9385 32564 31184 4917 4468 1666 4751 26433 3617 1561 1513 26208 898 1380 1300 2907 1187 26052 25915 1329 25711 1096 733 869 13351 12803 764 3315


Tree=35
num_leaves=31
split_feature=35 35 35 12 61 61 75 61 61 61 61 10 61 35 14 19 35 61 61 61 66 61 61 61 61 61 61 63 61 74
split_gain=821.85 581.889 273.579 174.985 134.405 116.317 115.421 101.714 94.2584 92.2593 91.6434 80.4903 75.4347 75.0704 60.5412 53.1765 42.5085 40.8295 44.398 38.7871 38.2977 34.5206 32.6313 34.7597 31.7899 39.3238 39.2 31.2667 25.0871 23.5959
threshold=0 1 2 5 0 1 0 2 3 4 0 0 5 3 0 0 4 1 2 0 0 6 0 1 2 3 4 0 0 4
decision_type=1 1 1 1 1 1 1 1 1 1 1 1 1 1 1 1 1 1 1 1 1 1 1 1 1 1 1 1 1 1
left_child=3 20 10 -1 29 -6 13 -7 -9 -10 -3 17 -11 19 21 28 -15 -12 -19 -4 -2 -14 -22 -24 -25 -26 -27 -16 -8 -5
right_child=1 2 6 4 5 7 15 8 9 12 11 -13 14 16 27 -17 -18 18 -20 -21 22 -23 23 24 25 26 -28 -29 -30 -31
leaf_parent=3 20 10 19 29 5 7 28 8 9 12 17 11 21 16 27 15 16 18 18 19 22 21 23 24 25 26 26 27 28 29
leaf_value=0.170432 -0.0465961 -0.0181236 0.0163053 0.0569871 -0.0407597 -0.0307046 0.0533033 -0.0208181 -0.00607239 0.0105222 0.0414816 -0.0171931 0.0627295 0.106031 0.0981562 0.011404 0.186171 0.0434258 0.173662 0.124144 -0.026783 0.182698 -0.0207323 -0.00903103 0.0066432 0.0172692 0.16822 -0.026628 0.147329 -0.0484695
leaf_count=141 1859 1224 230 122 6192 2870 199 1468 896 476 333 419 142 323 229 516 939 162 349 334 1978 430 818 395 276 132 250 163 230 19520
internal_value=0 0.364757 0.815882 -0.336491 -0.351195 -0.168276 1.20149 0.036664 0.268304 0.527504 0.2649 0.652369 0.844804 1.45785 1.16245 0.607144 1.6862 0.996523 1.34719 0.836671 -0.18583 1.56463 -0.0562495 0.157549 0.42306 0.721233 1.17836 0.492285 1.07955 -0.478108
internal_count=43615 10966 5258 32649 32508 12866 2771 6674 3804 2336 2487 1263 1440 1826 964 945 1262 844 511 564 5708 572 3849 1871 1053 658 382 392 429 19642


Tree=36
num_leaves=31
split_feature=35 39 34 24 39 46 16 7 83 36 36 66 7 29 7 36 16 72 7 87 19 79 16 36 34 35 31 41 68 12
split_gain=78.0885 47.7297 30.0842 27.6288 24.3726 21.0888 18.8035 14.8853 14.2413 13.8843 11.8941 11.0436 10.2642 10.1505 10.1228 9.34517 8.65764 8.51896 8.00631 7.43267 7.11645 6.99381 8.13391 7.03275 6.96309 6.66564 6.37165 6.01015 5.77068 5.56809
threshold=0 0 0 0 0 1 3 0 1 1 1 0 0 1 2 1 2 1 1 0 0 0 1 1 0 1 3 0 1 1
decision_type=1 1 1 1 1 1 1 1 1 1 1 1 1 1 1 1 1 1 1 1 1 1 1 1 1 1 1 1 1 1
left_child=4 2 3 11 5 9 -7 16 -3 -1 19 -2 -10 -13 -15 20 -8 -17 -19 25 -16 22 -9 -24 -11 -5 -6 29 -25 -20
right_child=1 8 -4 10 26 6 7 21 12 24 -12 13 -14 14 15 17 -18 18 27 -21 -22 -23 23 28 -26 -27 -28 -29 -30 -31
leaf_parent=9 11 8 2 25 26 6 16 22 12 24 10 13 12 14 20 17 16 18 29 19 20 21 23 28 24 25 26 27 28 29
leaf_value=0.0671826 -0.0139097 0.0471086 -0.0363938 -0.00371239 -0.0136905 0.0612355 -0.00141694 0.0129917 -0.0490826 0.00212988 -0.0274603 -0.01744 -0.0262388 0.0761501 0.096043 0.076211 -0.0438427 0.0504653 0.0599873 -0.0294678 0.0207199 -0.0466479 -0.00203358 0.0168588 -0.0498785 0.0700832 -0.0503155 -0.0299527 -0.0362096 0.00523787
leaf_count=125 471 111 1487 111 295 110 255 338 2872 434 1592 267 2010 196 139 110 12354 207 101 126 104 710 544 124 215 154 15499 222 1646 686
internal_value=0 -0.191572 -0.055777 0.0324984 -0.425643 -0.362232 -0.382244 -0.389196 -0.3736 0.00526027 -0.181282 0.182836 -0.394036 0.250803 0.308086 0.247296 -0.42852 0.17362 0.120511 0.17781 0.63897 -0.249028 -0.194668 -0.247611 -0.135394 0.392673 -0.496269 0.0371457 -0.32365 0.124046
internal_count=43615 10966 5973 4486 32649 16855 16081 15971 4993 774 1983 2503 4882 2032 1765 1569 12609 1326 1216 391 243 3362 2652 2314 649 265 15794 1009 1770 787


Tree=37
num_leaves=31
split_feature=39 14 79 39 24 14 53 53 32 7 7 14 25 34 29 40 59 59 39 59 40 47 13 7 87 24 14 79 61 71
split_gain=1525.37 770.154 453.924 256.559 230.57 196.05 177.519 147.217 119.401 113.407 105.954 85.964 79.7453 76.181 72.7981 71.9508 67.4835 61.5341 59.9032 57.4812 53.3957 51.1099 49.2638 47.0967 44.0841 41.192 43.3938 39.862 36.425 36.3063
threshold=0 0 0 1 0 1 0 0 0 0 0 0 0 0 1 2 0 0 1 0 1 0 0 0 0 0 0 0 0 0
decision_type=1 1 1 1 1 1 1 1 1 1 1 1 1 1 1 1 1 1 1 1 1 1 1 1 1 1 1 1 1 1
left_child=1 4 3 6 -1 19 10 9 -4 14 25 -8 15 29 -6 -5 -14 22 -10 27 -17 28 24 -23 -16 26 -2 -3 -22 -7
right_child=2 5 8 12 7 13 11 -9 18 -11 -12 -13 16 -15 17 20 -18 -19 -20 -21 21 23 -24 -25 -26 -27 -28 -29 -30 -31
leaf_parent=4 26 27 8 15 14 29 11 7 18 9 10 11 16 13 24 20 16 17 18 19 28 23 22 23 24 25 26 27 28 29
leaf_value=-0.0444932 0.0183979 0.0507023 -0.0221156 0.00261289 -0.0541614 0.0836594 -0.0145032 -0.035421 -0.00365232 -0.030908 0.0222973 0.0648446 0.0928267 0.00495671 0.0231601 0.0803036 -0.017662 -0.0226721 0.0816382 -0.0412778 0.0856283 0.139396 0.111244 0.0947286 0.100802 0.112774 0.110473 -0.0415868 0.122409 0.125872
leaf_count=11091 485 1287 2131 203 307 1367 1672 2598 557 1112 892 784 628 336 916 1243 407 352 943 674 1878 3852 805 963 444 2128 322 295 1699 1244
internal_value=0 0.0502409 0.818704 0.931298 -0.217684 0.672143 0.608716 0.096398 0.130159 0.337312 0.84819 0.160746 1.08935 0.949333 0.535855 1.13196 0.53528 0.635798 0.543176 0.163939 1.15271 1.20231 0.751118 1.31473 0.50126 1.00535 0.614762 0.366858 1.03368 1.04335
internal_count=43615 22828 20787 17156 17625 5203 6283 6534 3631 3936 3827 2456 10873 2947 2824 9838 1035 2517 1500 2256 9635 8392 2165 4815 1360 2935 807 1582 3577 2611


Tree=38
num_leaves=31
split_feature=24 59 91 14 66 63 7 39 84 28 63 87 87 54 47 66 39 42 2 47 8 14 23 17 47 87 3 66 66 84
split_gain=641.833 326.234 201.141 154.004 115 151.723 92.2788 92.0069 59.9523 55.5078 55.2211 51.0672 60.7511 47.0785 46.8023 39.3266 36.852 31.307 35.0328 29.1585 28.4252 27.9623 27.6692 26.5794 26.4337 26.214 26.1416 25.9044 25.7503 36.0069
threshold=0 0 0 0 0 0 0 0 0 1 1 0 1 1 0 0 0 1 0 0 1 0 1 0 1 0 0 0 0 0
decision_type=1 1 1 1 1 1 1 1 1 1 1 1 1 1 1 1 1 1 1 1 1 1 1 1 1 1 1 1 1 1
left_child=3 2 4 11 14 7 10 -6 26 13 25 17 -13 -9 16 -4 21 18 -1 -11 -12 -2 -22 -14 -16 -7 -5 -10 29 -3
right_child=1 28 15 8 5 6 -8 9 27 19 20 12 23 -15 24 -17 -18 -19 -20 -21 22 -23 -24 -25 -26 -27 -28 -29 -30 -31
leaf_parent=18 21 29 15 26 7 25 6 13 27 19 20 12 23 13 24 15 16 17 18 19 22 21 22 23 24 25 26 27 28 29
leaf_value=0.0407206 0.0208261 -0.0269991 0.0197227 0.00331925 -0.0350633 -0.00440962 0.00180058 0.180275 0.07326 0.050567 -0.0149619 -0.0374028 0.0608452 0.024838 0.0690412 -0.0280119 0.093229 -0.047739 -0.0534075 0.00591263 0.0510327 0.0862572 0.102986 -0.02546 0.020587 0.061572 -0.0476368 0.0159981 -0.0359315 0.0614694
leaf_count=437 658 722 1367 2122 1709 490 1033 129 671 883 103 1556 567 163 920 2260 2918 11579 455 2439 501 445 2001 262 965 605 783 768 3723 381
internal_value=0 0.303044 0.41066 -0.251931 0.502078 0.358767 0.612462 0.0940863 0.11001 0.281176 0.747013 -0.376576 -0.0701356 1.07956 0.713907 -0.0787313 0.82702 -0.442206 -0.0167336 0.191854 0.892008 0.502316 0.931405 0.376202 0.443234 0.342188 -0.0872037 0.457654 -0.263624 0.0515511
internal_count=43615 24415 19589 19200 15962 10056 4733 5323 4344 3614 3700 14856 2385 292 5906 3627 4021 12471 892 3322 2605 1103 2502 829 1885 1095 2905 1439 4826 1103


Tree=39
num_leaves=31
split_feature=66 87 25 10 24 25 24 39 15 66 41 25 79 39 14 21 14 10 41 13 59 15 14 24 41 32 23 17 24 87
split_gain=148.48 135.332 64.2472 96.5777 59.5281 36.9377 39.2142 26.8129 25.4045 24.1307 34.8441 25.5743 31.7507 26.4694 23.2758 20.9365 18.5112 17.6223 22.1035 17.0302 12.3205 12.7314 12.0352 9.7074 9.37915 8.12369 13.53 8.0612 7.91225 7.51062
threshold=0 0 0 0 0 0 1 0 0 1 2 0 0 1 0 0 0 0 0 0 0 0 1 1 0 0 0 0 0 0
decision_type=1 1 1 1 1 1 1 1 1 1 1 1 1 1 1 1 1 1 1 1 1 1 1 1 1 1 1 1 1 1
left_child=1 4 17 14 16 24 -7 -2 -8 10 -9 -12 13 -13 15 -4 -1 18 20 -10 21 23 -18 -3 -6 26 -24 -20 -5 -11
right_child=7 2 3 28 5 6 8 9 19 29 11 12 -14 -15 -16 -17 22 -19 27 -21 -22 -23 25 -25 -26 -27 -28 -29 -30 -31
leaf_parent=16 7 23 15 28 24 6 8 10 19 29 11 13 12 13 14 15 22 17 27 19 20 21 26 23 24 25 26 27 28 29
leaf_value=-0.0514549 -0.0495508 -0.0203672 0.122978 -0.0527875 -0.0260307 -0.0201104 0.154964 0.0902145 -0.0358528 -0.0473587 -0.0317474 -0.0104895 -0.0427887 0.131746 0.166548 0.0177204 -0.0455245 -0.031196 0.0516617 0.0768352 0.050636 -0.0271449 0.045866 0.0152471 0.00214271 -0.0324639 -0.0384221 -2.60926e-05 0.0182443 -0.0325691
leaf_count=5466 14521 588 157 297 2958 388 100 153 102 5008 2983 119 239 144 195 135 652 725 651 151 202 963 289 1406 786 259 150 194 105 3529
internal_value=0 -0.13831 0.141461 0.650086 -0.294924 -0.0971272 0.32472 -0.423889 0.770684 -0.339466 -0.175625 -0.227474 0.250171 0.746608 1.15508 0.809893 -0.446909 0.0275072 0.0848308 0.410247 -0.00566443 -0.0456372 -0.202506 0.0553354 -0.198895 -0.00632038 0.180437 0.400089 -0.292508 -0.411827
internal_count=43615 16919 5618 889 11301 4485 741 26696 353 12175 3638 3485 502 263 487 292 6816 4729 4004 253 3159 2957 1350 1994 3744 698 439 845 402 8537


Tree=40
num_leaves=31
split_feature=24 10 69 74 91 59 87 35 84 59 65 65 71 42 71 75 15 23 35 66 59 10 66 66 59 15 75 7 23 24
split_gain=280.271 262.009 190.071 184.318 154.293 96.7648 74.756 80.4841 68.3263 64.0214 42.2954 35.7036 35.7 35.8863 34.2308 27.659 17.3475 15.4048 10.4925 9.83527 9.16416 8.38297 8.30371 8.03495 10.2086 7.89683 7.59674 6.92196 6.84126 6.71005
threshold=0 0 0 0 0 0 0 0 0 0 0 0 0 1 1 0 0 0 1 0 1 1 2 0 0 0 0 1 0 1
decision_type=1 1 1 1 1 1 1 1 1 1 1 1 1 1 1 1 1 1 1 1 1 1 1 1 1 1 1 1 1 1
left_child=1 2 3 4 6 10 7 8 9 11 16 12 13 -1 -14 17 19 25 26 -6 -11 23 -21 24 -3 -15 -9 -8 -18 -2
right_child=29 21 -4 -5 5 -7 27 18 -10 20 -12 -13 14 15 -16 -17 28 -19 -20 22 -22 -23 -24 -25 -26 -27 -28 -29 -30 -31
leaf_parent=13 29 24 2 3 19 5 27 26 8 20 10 11 14 25 14 15 28 17 18 22 20 21 22 23 24 25 26 27 28 29
leaf_value=-0.0318753 -0.0441858 0.0123411 -0.0436446 -0.0441445 0.152937 -0.0284887 0.0149503 0.0195632 -0.0372984 0.0122684 0.0125232 -0.0249412 0.0738492 0.0890689 -0.0502221 0.00991347 0.040041 0.120955 -0.0510422 0.144796 -0.0547705 -0.0538994 0.0846648 -0.0456332 -0.0522353 0.0240007 -0.0553045 -0.042019 0.103452 -0.0524625
leaf_count=115 10436 313 3147 1908 369 342 122 237 491 180 186 187 200 412 233 160 119 692 609 107 287 5548 186 1389 251 101 108 1035 166 13979
internal_value=0 -0.101306 0.0923565 0.246012 0.393935 0.916388 0.195942 0.322072 0.469113 0.583188 1.11289 0.707359 0.775918 0.899657 0.207875 0.970279 1.23445 1.05082 -0.300439 1.36673 -0.239901 -0.486006 1.11296 -0.351661 -0.121202 0.781871 -0.00301844 -0.351995 0.81636 -0.488625
internal_count=43615 19200 11699 8552 6644 1475 5169 4012 3058 2567 1133 2100 1913 1480 433 1365 947 1205 954 662 467 7501 293 1953 564 513 345 1157 285 24415


Tree=41
num_leaves=31
split_feature=25 10 10 59 59 10 24 59 41 10 59 59 41 41 41 3 39 10 3 41 59 71 24 79 59 39 19 19 59 59
split_gain=3081.27 1476.85 582.429 385.46 377.107 229.976 217.657 186.665 165.989 136.829 121.485 101.425 96.5855 85.4215 80.1069 67.2239 63.6712 61.7983 54.7497 77.1372 49.8779 43.158 42.8509 39.4084 35.2773 33.9212 32.2143 44.4221 33.6585 30.8739
threshold=0 0 1 0 1 2 0 0 0 3 2 1 1 0 1 0 0 4 0 0 0 0 1 0 3 0 0 1 0 2
decision_type=1 1 1 1 1 1 1 1 1 1 1 1 1 1 1 1 1 1 1 1 1 1 1 1 1 1 1 1 1 1
left_child=1 3 7 13 -5 20 18 -3 15 -7 -6 -9 25 -1 -15 -8 -16 -11 19 23 -4 -14 -17 -2 -12 -10 -20 -28 -29 -13
right_child=6 2 5 4 10 9 8 11 12 17 24 29 21 14 16 22 -18 -19 26 -21 -22 -23 -24 -25 -26 -27 27 28 -30 -31
leaf_parent=13 23 7 20 4 10 9 15 11 25 17 24 29 21 14 16 22 16 17 26 19 20 21 22 23 24 25 27 28 28 29
leaf_value=-0.0490801 0.0379221 -0.0365767 -0.0242613 -0.0292505 0.00803749 0.0110734 -0.0107546 -0.00844315 0.0935195 0.051342 0.0436092 0.0451997 0.15583 -0.032582 0.100109 0.130037 -0.0104978 0.151946 0.157631 0.142094 0.0730541 0.0884628 0.00507493 0.121734 0.145494 0.0121347 0.151308 0.0073902 0.117241 0.149384
leaf_count=19425 495 2666 648 2704 512 406 927 507 305 244 150 121 940 2863 412 242 567 2159 2868 1048 361 422 178 248 682 430 463 145 171 306
internal_value=0 0.010196 0.743021 -0.286892 0.30415 1.15116 1.21399 0.0137331 0.827755 1.34434 1.00789 0.714272 1.1119 -0.422009 -0.105935 0.238771 0.41287 1.45075 1.39594 1.14966 0.202302 1.36446 0.840157 0.699577 1.32574 0.540313 1.50153 1.20916 0.722123 1.22899
internal_count=43615 34733 7418 27315 4048 3818 8882 3600 3444 2809 1344 934 2097 23267 3842 1347 979 2403 5438 1791 1009 1362 420 743 832 735 3647 779 316 427


Tree=42
num_leaves=31
split_feature=84 31 31 44 55 55 49 10 36 49 41 42 22 10 75 19 14 10 15 84 22 49 22 84 91 39 66 24 10 55
split_gain=122.549 114.135 58.3658 53.8638 43.8073 36.0654 33.0871 29.9123 26.5717 26.7892 22.7326 22.4873 20.3932 18.1756 16.9635 16.3052 15.4893 15.0396 14.8246 13.5936 13.4041 12.9701 11.3553 10.9388 8.90253 7.99964 11.2054 30.5707 10.6958 7.75044
threshold=0 0 1 1 1 1 1 1 3 3 0 1 1 1 2 0 0 1 0 1 2 2 1 1 0 0 0 0 0 1
decision_type=1 1 1 1 1 1 1 1 1 1 1 1 1 1 1 1 1 1 1 1 1 1 1 1 1 1 1 1 1 1
left_child=3 12 -3 5 10 -1 17 -6 -8 -10 23 -9 -2 -7 -13 21 19 18 -5 -14 -17 -11 -16 -4 25 26 27 28 -23 -22
right_child=1 2 4 6 7 13 8 11 9 15 -12 14 16 -15 22 20 -18 -19 -20 -21 29 24 -24 -25 -26 -27 -28 -29 -30 -31
leaf_parent=5 12 2 23 18 7 13 8 11 9 21 10 14 19 13 22 20 16 17 18 19 29 28 22 23 24 25 26 27 28 29
leaf_value=0.0924502 0.0368546 -0.0188667 0.101782 0.0847835 0.0790031 0.0501617 0.0381075 0.0987429 0.0456423 0.0111995 0.0426985 0.085017 -0.0275909 -0.0229758 0.0612468 0.0421949 -0.0411374 -0.0183109 -0.010489 0.0107704 0.00182938 -0.0246441 -0.00959187 0.188421 -0.0523974 -0.0469422 -0.0432281 0.0117582 -0.0532022 -0.0334898
leaf_count=206 239 1123 125 140 399 205 216 125 159 216 156 106 1690 945 112 127 3199 1662 171 669 390 1533 1083 102 6098 9228 6583 849 1615 4144
internal_value=0 -0.0532672 0.260636 -0.357756 0.448905 0.0965243 -0.377979 0.302748 -0.398502 -0.405008 1.06532 0.146567 -0.266331 -0.077792 0.056718 -0.410994 -0.29793 -0.0907696 0.344304 -0.156929 -0.280536 -0.435217 -0.0227855 1.44745 -0.440663 -0.415863 -0.370881 -0.269758 -0.385515 -0.30415
internal_count=43615 9128 3331 34487 2208 1356 33131 1825 31158 30942 383 1426 5797 1150 1301 30783 5558 1973 311 2359 4661 26122 1195 227 25906 19808 10580 3997 3148 4534


Tree=43
num_leaves=31
split_feature=74 19 29 75 19 77 13 77 24 14 25 24 75 31 15 24 13 37 25 68 14 46 37 37 24 19 37 84 46 24
split_gain=1121.13 522.299 368.423 291.984 255.257 209.706 114.357 96.8734 96.5714 88.4878 79.1843 70.5038 68.9885 66.5478 61.0405 60.4227 52.8623 51.7142 49.6722 46.1328 44.3027 41.1218 40.4019 39.8634 39.1299 38.9128 36.8797 34.087 32.4851 34.5563
threshold=0 0 1 0 1 1 0 1 0 0 0 0 0 1 0 0 0 0 0 2 0 2 0 0 1 0 0 0 1 0
decision_type=1 1 1 1 1 1 1 1 1 1 1 1 1 1 1 1 1 1 1 1 1 1 1 1 1 1 1 1 1 1
left_child=1 5 14 7 16 13 9 -4 10 12 -5 23 21 15 -2 -1 18 -9 22 -13 25 -7 -3 -6 26 -19 -10 -24 29 -23
right_child=2 4 3 8 11 6 -8 17 24 -11 -12 19 -14 -15 -16 -17 -18 20 -20 -21 -22 28 27 -25 -26 -27 -28 -29 -30 -31
leaf_parent=15 14 22 7 10 23 21 6 17 26 9 10 19 12 13 14 15 16 25 18 19 20 29 27 23 24 25 26 27 28 29
leaf_value=0.00896157 0.155734 0.0143779 0.101541 0.141507 0.0719899 0.0986762 -0.0474805 -0.0155148 0.0301129 -0.0463632 0.0325754 0.165481 0.0343977 0.0266545 0.0805859 0.192244 -0.0267307 0.0211485 -0.0322322 0.0410151 -0.0218226 -0.00983907 0.113986 0.148184 0.00979638 0.112873 0.124993 0.00888298 -0.020445 0.120811
leaf_count=108 1191 880 367 1109 421 113 13006 3392 291 4077 336 116 1625 775 506 172 1609 515 549 1064 475 251 436 750 536 400 313 192 7878 162
internal_value=0 -0.112776 0.693456 0.464389 0.43999 -0.259351 -0.308255 0.110377 0.932109 -0.165669 1.22191 0.924479 -0.0512016 0.582216 1.37646 1.33556 0.0500425 0.00373603 0.27256 0.559603 0.366225 -0.144341 0.462313 1.24518 0.493478 0.643247 0.820811 0.842491 -0.168309 0.436831
internal_count=43615 34184 9431 7734 6017 28167 27112 5149 2585 14106 1445 2351 10029 1055 1697 280 3666 4782 2057 1180 1390 8404 1508 1171 1140 915 604 628 8291 413


Tree=44
num_leaves=31
split_feature=7 35 35 0 0 61 29 7 7 61 91 35 61 61 35 91 10 61 13 61 61 19 91 82 10 87 40 66 34 61
split_gain=763.443 388.742 197.873 127.647 108.756 104.053 100.479 100.153 66.7939 65.7954 53.8073 50.4627 46.0158 43.6441 38.7402 33.1376 31.0341 32.2524 35.1249 42.6389 29.4412 27.6343 26.4054 24.3519 22.2645 21.1863 18.7712 18.4321 18.2964 19.1921
threshold=0 0 1 5 3 0 3 1 2 1 0 0 2 3 1 0 0 0 0 1 4 0 0 1 0 0 1 0 0 0
decision_type=1 1 1 1 1 1 1 1 1 1 1 1 1 1 1 1 1 1 1 1 1 1 1 1 1 1 1 1 1 1
left_child=3 5 25 15 10 -2 -6 23 -9 26 -5 22 -11 -14 -13 -1 17 -16 19 -19 -15 -10 -8 -4 -25 27 -7 -3 29 -29
right_child=1 2 7 4 6 9 11 8 21 12 -12 14 13 20 16 -17 -18 18 -20 -21 -22 -23 -24 24 -26 -27 -28 28 -30 -31
leaf_parent=15 5 27 23 10 6 26 22 8 21 12 10 14 13 20 17 15 16 19 18 19 20 21 22 24 24 25 26 29 28 29
leaf_value=0.0293006 -0.0392062 -0.0313315 -0.0380295 -0.00341499 0.133554 0.0378121 -0.0473784 0.0620449 0.14865 -0.00757322 0.143184 -0.0334838 0.00109846 0.0259113 -0.00534205 0.178888 -0.0354331 0.0177476 0.00342844 0.182736 0.104109 0.0935488 -0.0277975 0.071545 -0.00494493 -0.0316468 -0.0338384 0.0108203 -0.0148684 0.0881503
leaf_count=101 3265 267 161 285 111 249 20339 631 1008 753 168 3880 464 300 768 110 668 129 252 155 602 384 4940 683 251 535 1236 285 254 381
internal_value=0 0.325517 0.722423 -0.338492 -0.354485 -0.061843 -0.37388 0.962495 1.16779 0.184403 0.677514 -0.3849 0.407497 0.609439 -0.190086 1.11438 0.0617004 0.253952 0.649348 1.14136 0.828728 1.3524 -0.43378 0.429752 0.547771 0.0624338 -0.21794 0.230295 0.377182 0.568634
internal_count=43615 11709 4840 31906 31695 6869 31242 3118 2023 3604 453 31131 2119 1366 5852 211 1972 1304 536 284 902 1392 25279 1095 934 1722 1485 1187 920 666


Tree=45
num_leaves=31
split_feature=35 39 34 24 39 46 16 78 7 83 36 7 16 2 35 16 63 79 16 36 34 31 68 9 59 23 15 14 10 24
split_gain=77.4903 45.0311 27.6356 24.7566 24.4068 20.2544 17.1844 16.4991 14.5996 13.4347 11.9939 10.4072 10.2178 10.4912 10.7528 8.40823 7.79338 6.65981 7.40665 6.58741 6.49978 6.39794 5.44588 5.27537 5.20865 5.13477 5.24967 4.97507 8.11347 4.85337
threshold=0 0 0 0 0 1 3 1 0 1 1 0 2 1 1 2 1 0 1 1 0 3 1 1 0 1 0 0 0 0
decision_type=1 1 1 1 1 1 1 1 1 1 1 1 1 1 1 1 1 1 1 1 1 1 1 1 1 1 1 1 1 1
left_child=4 2 3 12 5 10 -7 -5 15 -3 -1 -11 -2 -14 -15 -8 -16 18 -10 -20 -12 24 -21 -9 -6 -18 -27 28 29 -17
right_child=1 9 -4 7 21 6 8 23 17 11 20 -13 13 14 16 27 25 -19 19 22 -22 -23 -24 -25 -26 26 -28 -29 -30 -31
leaf_parent=10 12 9 2 7 24 6 15 23 18 11 20 11 13 14 16 29 25 17 19 22 20 21 22 23 24 26 26 27 28 29
leaf_value=0.0608199 0.0644254 0.0447862 -0.0353077 0.0535888 -0.0405018 0.0553952 -0.00120819 0.0181782 0.0118639 -0.0484746 0.00199444 -0.0249738 0.0675055 -0.00825788 0.0560303 -0.0274006 -0.0241237 -0.0459217 -0.0020843 0.0159276 -0.0492391 -0.0497865 -0.0354122 -0.0278717 0.0268311 0.0319542 -0.0105023 -0.0514284 -0.0498574 -0.0420158
leaf_count=125 176 111 1487 159 173 110 255 159 338 2872 434 2010 161 1006 270 2836 146 710 544 124 215 15499 1646 1665 122 538 206 3412 3543 2563
internal_value=0 -0.181265 -0.0497939 0.0335866 -0.417943 -0.353629 -0.373917 -0.172208 -0.380982 -0.363212 0.0069262 -0.384188 0.173928 0.131299 0.0900098 -0.421029 0.233464 -0.240855 -0.188112 -0.239953 -0.128308 -0.490684 -0.31541 -0.239252 -0.126797 0.132926 0.208588 -0.431191 -0.400865 -0.343456
internal_count=43615 10966 5973 4486 32649 16855 16081 1983 15971 4993 774 4882 2503 2327 2166 12609 1160 3362 2652 2314 649 15794 1770 1824 295 890 744 12354 8942 5399


Tree=46
num_leaves=31
split_feature=39 14 13 85 14 59 31 85 59 14 47 59 35 75 47 14 33 59 14 39 34 66 17 59 7 87 21 14 17 79
split_gain=1228.11 660.277 360.942 318.048 203.413 154.977 154.62 125.475 113.137 90.3767 76.3827 78.875 75.2197 73.1379 62.9509 61.4422 51.418 50.9746 46.662 40.82 40.5582 39.6618 37.7278 37.0315 36.6723 36.624 34.2286 33.0629 32.0625 31.9361
threshold=0 0 0 0 0 0 0 0 0 1 0 0 0 0 1 1 0 0 0 1 0 0 0 0 0 0 0 2 0 0
decision_type=1 1 1 1 1 1 1 1 1 1 1 1 1 1 1 1 1 1 1 1 1 1 1 1 1 1 1 1 1 1
left_child=1 3 4 -1 7 9 10 -2 12 25 11 16 20 18 23 -6 21 28 26 -18 24 -4 -16 -12 -5 -3 -8 -17 -9 -11
right_child=2 5 6 8 15 -7 13 17 -10 29 14 -13 -14 -15 22 27 19 -19 -20 -21 -22 -23 -24 -25 -26 -27 -28 -29 -30 -31
leaf_parent=3 7 25 21 24 15 5 26 28 8 29 23 11 12 13 22 27 19 17 18 19 20 21 22 23 24 25 26 27 28 29
leaf_value=-0.044121 -0.0263504 0.0120779 0.0669371 0.0727276 0.0313824 -0.0150838 0.0649327 0.0763223 -0.0403034 0.0971887 0.0868122 0.0056177 -0.0176053 -0.00538845 0.125365 0.0495714 0.0505292 -0.0272127 0.101362 0.146428 -0.0181373 0.109256 0.0861801 -0.0049136 0.00354685 0.0792062 -0.0126854 0.107241 0.00158304 0.0134611
leaf_count=12652 3078 1106 2889 1973 971 1082 482 1054 1271 2365 1432 510 945 871 3424 437 202 422 636 638 339 877 882 188 445 476 357 1132 305 174
internal_value=0 0.0465011 0.728427 -0.210364 0.345782 0.603591 0.88117 0.048754 0.225901 0.744665 0.959655 0.793863 0.390512 0.434828 1.08239 0.734476 0.860824 0.451109 0.661558 1.25982 0.543799 0.772793 1.18064 0.785349 0.625844 0.334916 0.367603 0.925866 0.612618 0.924464
internal_count=43615 22828 20787 17625 7399 5203 13388 4859 4973 4121 11042 5116 3702 2346 5926 2540 4606 1781 1475 840 2757 3766 4306 1620 2418 1582 839 1569 1359 2539


Tree=47
num_leaves=31
split_feature=85 14 59 14 66 39 13 63 7 39 13 31 66 33 8 42 13 70 42 39 28 54 24 47 33 47 42 23 14 66
split_gain=679.704 360.18 245.247 112.249 109.885 82.611 62.657 43.8878 54.789 46.7933 42.0332 34.5143 74.8835 31.9208 29.8378 28.097 27.7001 26.5154 26.1961 25.6865 26.3224 29.3796 25.1199 22.7103 22.677 28.0607 20.2172 19.8387 19.4876 19.3819
threshold=0 0 0 1 0 0 0 0 0 0 1 0 0 0 1 2 0 1 1 1 1 1 0 1 0 0 1 0 2 0
decision_type=1 1 1 1 1 1 1 1 1 1 1 1 1 1 1 1 1 1 1 1 1 1 1 1 1 1 1 1 1 1
left_child=1 5 4 22 13 -1 -7 9 14 18 -8 12 -5 16 -9 -11 27 -16 -6 26 21 -21 -3 -13 25 -12 -17 -2 -25 -4
right_child=2 3 29 11 7 6 10 8 -10 15 24 23 -14 -15 17 19 -18 -19 -20 20 -22 -23 -24 28 -26 -27 -28 -29 -30 -31
leaf_parent=5 27 22 29 12 18 6 10 14 8 15 25 23 12 13 17 26 16 17 18 21 20 21 22 28 24 25 26 27 28 29
leaf_value=-0.0494184 0.065484 -0.0371423 0.0119243 0.0619278 0.0643286 -0.0408834 -0.038662 -0.0118143 0.000757142 0.127065 0.0636428 0.0884999 -0.0106189 0.0290856 0.106038 0.0789247 0.0814324 0.0565754 -0.0228165 0.160068 0.0328915 0.0142208 0.00664435 -0.00483424 -0.0221895 0.00678639 -0.010328 0.0157363 0.0623566 -0.0303349
leaf_count=12652 912 1534 792 1160 167 3078 905 229 938 125 710 713 1347 719 463 119 3549 2081 1504 103 1980 101 1298 276 453 918 950 469 577 2793
internal_value=0 -0.180863 0.37656 0.222883 0.477741 -0.37406 -0.153859 0.321182 0.483173 0.184261 0.06906 0.424313 0.266101 0.675893 0.610271 0.324784 0.728922 0.667543 -0.126271 0.284547 0.416496 1.04464 -0.150006 0.649144 0.225894 0.341633 0.0096392 0.492882 0.408884 -0.206556
internal_count=43615 25621 17994 6905 14409 18716 6064 8760 3711 5049 2986 4073 2507 5649 2773 3378 4930 2544 1671 3253 2184 204 2832 1566 2081 1628 1069 1381 853 3585


Tree=48
num_leaves=31
split_feature=66 87 24 10 59 24 87 78 41 24 23 41 14 41 41 15 17 15 8 14 15 21 24 47 66 41 55 23 32 23
split_gain=145.054 125.27 57.4837 43.6777 46.9219 32.4795 27.4757 29.5599 37.9024 22.7433 21.6348 18.766 18.6859 17.9062 15.1553 12.9763 11.8968 11.871 11.5595 11.532 11.4508 11.3175 10.7689 10.2746 9.84651 8.82411 8.66433 7.63671 7.5549 12.0117
threshold=0 0 0 0 0 0 0 3 0 1 0 0 0 0 1 0 0 0 1 1 0 0 1 0 1 1 1 0 0 0
decision_type=1 1 1 1 1 1 1 1 1 1 1 1 1 1 1 1 1 1 1 1 1 1 1 1 1 1 1 1 1 1
left_child=1 2 12 4 11 -6 7 8 -2 -4 23 18 -1 15 17 -11 25 -13 -3 -14 22 -7 -20 -8 26 -15 -12 -24 29 -21
right_child=6 3 9 -5 5 21 10 -9 -10 13 24 14 19 16 -16 -17 -18 -19 20 28 -22 -23 27 -25 -26 -27 -28 -29 -30 -31
leaf_parent=12 8 18 9 3 5 21 23 7 8 15 26 17 19 25 14 15 16 17 22 29 20 21 27 23 24 25 26 27 28 29
leaf_value=-0.0509794 -0.0558489 -0.0415872 -0.0285718 -0.0293575 0.00397831 0.145449 0.0175594 -0.0485309 0.125665 0.0109493 0.047113 0.0588297 -0.0447247 0.0373241 0.0895868 -0.0269418 -0.00763961 -9.30329e-05 -0.00993004 0.0430165 -0.0111124 0.0698203 0.0469107 -0.0196499 -0.0428086 0.107226 -0.0247654 0.0140197 -0.0314288 -0.0372889
leaf_count=5466 131 254 1940 1127 181 178 569 17878 106 987 103 267 652 315 215 920 218 389 527 289 983 129 622 1665 5078 105 1166 746 259 150
internal_value=0 -0.129789 -0.284801 0.137225 0.228428 0.809161 -0.416212 -0.472302 0.322365 -0.090464 -0.301019 0.140359 -0.439273 0.0468935 0.415734 -0.068815 0.35776 0.248561 0.0548145 -0.190911 0.0952198 1.1586 0.194358 -0.0982262 -0.37763 0.560691 -0.184548 0.291347 -0.000234531 0.177568
internal_count=43615 16919 11301 5618 4491 488 26696 18115 237 4485 8581 4003 6816 2545 871 1907 638 656 3132 1350 2878 307 1895 2234 6347 420 1269 1368 698 439


Tree=49
num_leaves=31
split_feature=33 33 33 85 33 34 15 33 15 33 15 23 24 14 7 7 43 61 39 15 14 47 23 24 66 17 63 47 13 7
split_gain=941.802 971.111 520.766 214.664 115.57 42.568 14.5054 12.9674 9.8229 3.8179 3.2206 5.42307 2.65824 1.58309 1.15177 0.765341 1.14448 0.495845 0.483733 0.444938 0.704127 0.707411 0.438396 1.33001 0.281042 0.272475 0.22346 0.428255 0.212784 0.240329
threshold=0 1 2 0 3 0 0 4 0 6 0 0 1 0 0 2 0 0 0 0 1 0 0 0 2 2 4 1 0 1
decision_type=1 1 1 1 1 1 1 1 1 1 1 1 1 1 1 1 1 1 1 1 1 1 1 1 1 1 1 1 1 1
left_child=26 19 10 4 8 7 -5 -6 -4 -9 11 -3 -11 17 -13 -8 -17 28 -15 20 21 -2 23 -22 -19 -12 27 -1 29 -14
right_child=1 2 3 6 5 -7 15 9 -10 12 25 14 13 18 -16 16 -18 24 -20 -21 22 -23 -24 -25 -26 -27 -28 -29 -30 -31
leaf_parent=27 21 11 8 6 7 5 15 9 8 12 25 14 29 18 14 16 16 24 18 19 23 21 22 23 24 25 26 27 28 29
leaf_value=-0.0377402 -0.0505366 0.0142452 0.0395334 0.0325217 0.0827385 0.0423998 -0.0559632 0.119038 -0.0423529 0.168959 -0.040556 -0.0526677 0.145385 0.151792 -0.0275107 -0.0232291 -0.0547035 0.155228 0.163448 -0.0537941 -0.0294174 -0.0261625 -0.0529215 -0.054635 0.146288 -0.0526231 -0.0543121 -0.0545312 0.148076 0.139018
leaf_count=158 146 127 121 191 111 155 128 113 209 152 141 253 193 227 203 181 114 110 135 3720 193 156 1766 348 307 1001 32142 278 116 420
internal_value=0 0.236333 0.805928 1.1336 1.29892 1.39392 -0.143564 1.44611 -0.0525537 1.47237 -0.429679 -0.283401 1.49006 1.47156 -0.415242 -0.40912 -0.340759 1.44456 1.56047 -0.51956 -0.494585 -0.380306 -0.50958 -0.448117 1.48662 -0.511343 -0.542347 -0.484421 1.42125 1.41026
internal_count=43615 11037 4708 2983 2369 2039 614 1884 330 1773 1725 583 1660 1508 456 423 295 1146 362 6329 2609 302 2307 541 417 1142 32578 436 729 613


Tree=50
num_leaves=31
split_feature=10 59 59 79 41 59 41 85 23 59 41 85 10 41 59 59 41 39 41 41 71 10 59 39 84 39 3 41 59 10
split_gain=2226.03 1376.9 705.678 656.18 261.451 229.145 177.112 173.112 122.287 177.037 112.35 91.1311 84.5674 67.8999 63.2191 55.0109 51.4758 50.0336 48.6852 77.5806 38.9447 35.2855 50.5182 33.3323 32.9379 32.0952 27.0231 24.426 24.3492 23.9812
threshold=0 0 1 0 0 2 1 0 0 0 2 0 1 0 3 1 1 0 0 1 0 1 0 0 0 0 0 2 6 2
decision_type=1 1 1 1 1 1 1 1 1 1 1 1 1 1 1 1 1 1 1 1 1 1 1 1 1 1 1 1 1 1
left_child=1 4 13 7 -1 -4 23 8 12 -10 25 21 -2 -3 -7 -11 -15 -18 -9 -20 -12 22 -5 -6 26 -8 -13 -21 -16 -23
right_child=3 2 5 11 6 14 10 18 9 15 20 24 -14 16 28 -17 17 -19 19 27 -22 29 -24 -25 -26 -27 -28 -29 -30 -31
leaf_parent=4 12 13 5 22 23 14 25 18 9 15 20 26 12 16 28 15 17 17 19 27 20 29 22 23 24 25 26 27 28 29
leaf_value=-0.0454198 0.0174893 -0.0369403 0.0132891 0.0134325 0.00746335 0.0351747 0.0525417 -0.0334549 -0.0148234 0.0336399 0.141055 0.0520897 0.132182 -0.0188743 0.0705229 0.127754 0.127283 -0.000259288 -0.0230382 0.0266466 0.0458724 0.0954518 0.122134 -0.041093 0.0204879 -0.030044 0.126368 0.145779 0.147328 0.142654
leaf_count=20599 365 2202 725 239 1197 200 334 1482 1516 356 481 320 770 559 108 466 248 235 529 112 214 356 568 2085 333 519 338 159 2068 3932
internal_value=0 -0.0158569 0.719311 0.953868 -0.320697 1.18633 0.130234 0.423878 0.662763 0.371489 0.642659 1.27538 1.0899 -0.11975 1.37434 0.954381 0.302616 0.740547 -0.0745065 0.322883 1.14209 1.3468 1.0143 -0.21816 0.743093 0.0823983 0.958891 1.07535 1.43732 1.39702
internal_count=43615 31774 6345 11841 25429 3101 4830 5755 3473 2338 1548 6086 1135 3244 2376 822 1042 483 2282 800 695 5095 807 3282 991 853 658 271 2176 4288


Tree=51
num_leaves=31
split_feature=84 31 44 31 33 31 55 49 44 14 49 33 49 84 10 68 19 13 36 31 84 31 71 85 39 85 59 85 22 34
split_gain=117.236 103.878 51.6095 50.9072 36.5996 32.3269 30.3869 27.1536 19.8889 19.4907 19.4341 17.9083 16.941 16.2187 15.9697 14.0967 13.3307 11.7276 11.3216 10.1033 12.2307 9.6082 9.50339 9.21127 9.40966 9.19142 8.87529 8.34835 8.24618 7.88819
threshold=0 0 1 1 0 5 1 1 1 0 3 1 2 1 1 1 0 0 3 2 1 2 0 4 0 0 0 0 2 0
decision_type=1 1 1 1 1 1 1 1 1 1 1 1 1 1 1 1 1 1 1 1 1 1 1 1 1 1 1 1 1 1
left_child=2 9 6 25 8 17 -1 21 -5 13 -9 19 -12 -2 -8 -10 18 -4 -14 -6 -21 -7 -11 24 -20 -3 -13 -15 -18 -17
right_child=1 3 5 4 11 7 14 10 15 22 12 26 16 27 -16 29 28 -19 23 20 -22 -23 -24 -25 -26 -27 -28 -29 -30 -31
leaf_parent=6 13 25 17 8 19 21 14 10 15 22 12 26 18 27 14 29 28 17 24 20 20 21 22 23 24 25 26 27 28 29
leaf_value=0.0827699 -0.0235135 -0.0393199 0.00356704 0.0841944 -0.00227045 0.0329664 0.0459263 0.0333553 0.0634601 -0.0130831 0.0043248 0.144379 0.021533 -0.0117121 -0.0218608 -0.00959667 0.0305736 0.0947293 0.0298737 0.0311621 0.113827 -0.0171957 -0.0455934 -0.0443051 -0.0369948 0.00359453 0.0765247 0.0367404 -0.0304573 0.0310315
leaf_count=206 1775 589 234 177 116 217 205 157 193 696 429 148 131 301 945 804 108 115 172 180 128 1691 2603 25227 353 534 144 422 4297 318
internal_value=0 -0.0481297 -0.348503 0.246955 0.417622 -0.369051 0.0960375 -0.377479 0.217089 -0.256742 -0.396547 0.783194 -0.401891 -0.104536 -0.0703394 0.118362 -0.409587 0.341199 -0.431712 0.500442 0.695863 -0.110654 -0.386274 -0.435955 -0.119187 -0.179841 1.14133 0.168692 -0.285633 0.020282
internal_count=43615 9128 34487 3331 2208 33131 1356 32782 1492 5797 30874 716 30717 2498 1150 1315 30288 349 25883 424 308 1908 3299 25752 525 1123 292 723 4405 1122


Tree=52
num_leaves=31
split_feature=75 29 75 77 19 85 19 46 75 15 3 14 77 85 46 41 7 29 75 24 14 89 85 89 67 19 87 69 67 1
split_gain=955.981 438.351 321.767 306.598 139.507 114.079 90.029 85.0704 83.6488 75.2598 67.6249 72.4166 67.0383 55.6501 53.0415 51.7222 51.2529 47.3069 44.5758 43.7894 43.1609 42.6943 42.0212 42.0132 36.9904 31.816 29.1498 29.0611 28.3477 25.6245
threshold=0 1 1 1 0 0 1 2 2 0 0 0 2 0 1 0 1 1 3 0 0 2 0 3 3 2 0 0 4 2
decision_type=1 1 1 1 1 1 1 1 1 1 1 1 1 1 1 1 1 1 1 1 1 1 1 1 1 1 1 1 1 1
left_child=1 9 5 16 7 10 -6 -5 17 20 11 15 -9 25 -14 27 -3 -4 -10 -7 -1 -16 -19 -23 -25 -8 -18 -2 -26 -30
right_child=2 3 8 4 6 19 13 12 18 -11 -12 -13 14 -15 21 -17 26 22 -20 -21 -22 23 -24 24 28 -27 -28 -29 29 -31
leaf_parent=20 27 16 17 7 6 19 25 12 18 9 10 11 14 13 21 15 26 22 18 19 20 23 22 24 28 25 26 27 29 29
leaf_value=0.120563 0.0881859 0.131071 0.123231 0.0832332 -0.0136387 0.0391603 0.0471487 0.086925 0.0666681 0.0257719 -0.00457897 -0.0129126 0.0185114 -0.00221479 0.0574255 0.0189584 0.0636941 0.0662465 0.118961 -0.0370655 0.000293113 0.115899 -0.00488289 0.0644562 0.0746826 0.123852 -0.0106282 0.160431 0.0485775 -0.0415473
leaf_count=761 756 299 232 225 3238 457 511 156 647 768 862 435 921 644 251 382 789 795 2260 1746 137 100 534 180 107 358 292 279 190 24303
internal_value=0 -0.111537 0.617478 -0.188526 -0.250369 0.201433 0.0987137 -0.324448 0.92418 0.795854 0.468671 0.6738 -0.340972 0.504191 -0.353597 0.870666 0.668611 0.562456 1.08349 -0.197494 1.08083 -0.376271 0.403334 -0.38705 -0.393645 0.80923 0.463539 1.07707 -0.40233 -0.408392
internal_count=43615 34230 9385 32564 31184 4917 4751 26433 4468 1666 2714 1852 26208 1513 26052 1417 1380 1561 2907 2203 898 25131 1329 24880 24780 869 1081 1035 24600 24493


Tree=53
num_leaves=31
split_feature=7 35 35 40 61 40 29 7 61 61 61 61 14 7 61 61 61 61 61 24 79 14 54 61 7 29 15 63 87 40
split_gain=690.662 326.71 158.186 115.932 95.5596 84.4811 86.4993 76.9915 57.528 50.9219 55.9988 67.3196 57.7001 50.77 40.4076 44.0245 45.6134 38.5458 35.5871 34.2795 33.1937 30.7716 26.3573 24.7479 22.256 21.3484 51.5889 21.328 19.1067 17.1059
threshold=0 0 1 2 0 3 3 1 1 0 1 2 0 2 3 4 5 2 3 0 0 1 2 0 3 1 1 0 0 1
decision_type=1 1 1 1 1 1 1 1 1 1 1 1 1 1 1 1 1 1 1 1 1 1 1 1 1 1 1 1 1 1
left_child=3 4 28 19 -2 -5 -7 27 29 25 -11 -12 14 -9 -13 -16 -17 -10 -19 -1 -18 -14 -20 -21 -15 26 -8 -4 -3 -6
right_child=1 2 7 5 8 6 9 13 17 10 11 12 21 24 15 16 20 18 22 23 -22 -23 -24 -25 -26 -27 -28 -29 -30 -31
leaf_parent=19 4 28 27 5 29 6 26 13 17 10 11 14 21 24 15 16 20 18 22 23 20 21 22 23 24 25 26 27 28 29
leaf_value=-0.0266131 -0.0384144 0.0216606 0.0664917 0.101093 0.0347181 0.119269 0.116349 0.0562519 -0.0071303 -0.0423654 -0.0376871 -0.00112931 0.033207 0.0733396 0.00860435 0.00727814 0.18786 0.00101733 0.147828 -0.00827463 0.0508935 -0.0438795 0.0603499 0.107984 0.127788 -0.0475652 -0.0344752 0.00931277 -0.030694 -0.0329832
leaf_count=232 3265 1187 525 209 249 105 142 631 753 5745 2603 673 380 274 367 167 257 464 123 136 119 1015 779 371 1118 18433 952 570 535 1236
internal_value=0 0.302532 0.654683 -0.329358 -0.0587897 -0.354378 -0.366386 0.859527 0.172964 -0.377248 -0.248924 -0.0821074 0.150262 1.03154 0.443063 0.73702 1.10518 0.375887 0.554045 0.544812 1.48172 -0.208297 0.743168 0.83142 1.1851 -0.455474 -0.119762 0.39659 0.060818 -0.21007
internal_count=43615 11709 4840 31906 6869 31167 30958 3118 3604 30853 11326 5581 2978 2023 1583 910 543 2119 1366 739 376 1395 902 507 1392 19527 1094 1095 1722 1485


Tree=54
num_leaves=31
split_feature=7 16 24 39 35 35 70 46 34 46 41 14 41 78 53 16 10 33 16 68 7 68 19 7 10 24 32 38 14 10
split_gain=77.4855 38.2081 34.0723 29.9783 25.918 22.4161 14.8586 11.0242 10.6597 9.22386 9.02698 8.2903 8.178 9.70454 15.2117 7.87613 7.61417 8.98307 8.4574 7.46983 6.94187 6.81441 6.31169 11.0344 6.00922 6.49485 5.86075 6.40233 5.72982 8.94809
threshold=0 5 0 0 0 0 2 1 0 1 0 0 0 1 0 2 0 0 2 1 2 1 0 1 0 0 0 1 0 0
decision_type=1 1 1 1 1 1 1 1 1 1 1 1 1 1 1 1 1 1 1 1 1 1 1 1 1 1 1 1 1 1
left_child=3 -2 4 5 9 7 -6 24 10 -3 21 12 13 14 -4 -9 17 18 -8 -11 -15 -7 -20 -24 25 -1 27 -23 29 -17
right_child=1 2 11 -5 6 8 16 15 -10 19 -12 -13 -14 20 -16 28 -18 -19 22 -21 -22 26 23 -25 -26 -27 -28 -29 -30 -31
leaf_parent=25 1 9 14 3 6 21 18 15 8 19 10 11 12 20 14 29 16 17 22 19 20 27 23 23 24 25 26 27 28 29
leaf_value=0.0337324 0.109178 0.0315083 0.0918095 -0.0497901 0.0868962 0.0486837 0.0825017 -0.000990928 -0.0399665 0.017365 -0.0333141 -0.0462998 -0.0403004 0.00357959 -0.0338729 -0.0323365 -0.0160924 -0.0102719 0.00849317 -0.0279582 -0.0289381 0.0473935 -0.00257849 0.0913504 -0.0410776 -0.0278451 -0.0349723 -0.00370967 -0.050809 -0.0489475
leaf_count=197 110 162 101 15444 117 125 105 255 962 224 635 1899 1687 483 118 5432 575 469 654 2695 2041 134 116 153 224 155 265 1088 3422 3568
internal_value=0 -0.177653 -0.193071 -0.413348 -0.0539333 -0.340778 0.130785 -0.389237 -0.164834 -0.206403 -0.0848818 -0.320036 -0.262534 -0.181586 0.298636 -0.406369 0.0824125 0.162536 0.277807 -0.241489 -0.225876 0.000967039 0.202339 0.501042 -0.0770855 0.09082 -0.0435973 0.0228144 -0.416536 -0.383688
internal_count=43615 11709 11599 31906 5270 16462 2189 13253 3209 3081 2247 6329 4430 2743 219 12677 2072 1497 1028 2919 2524 1612 923 269 576 352 1487 1222 12422 9000


Tree=55
num_leaves=31
split_feature=39 14 79 85 39 65 79 39 53 7 7 74 41 32 65 39 66 24 71 87 14 14 65 28 87 14 47 24 24 53
split_gain=1005.95 569.93 294.212 292.288 162.105 132.707 131.358 93.5115 88.8768 79.9796 69.4094 59.8238 56.231 49.6645 47.6511 49.0825 46.3656 42.7464 41.2596 44.9758 39.2621 38.629 34.2141 31.7076 31.2962 27.6544 27.4542 27.072 32.3091 35.0902
threshold=0 0 0 0 1 0 0 1 0 0 0 0 0 0 0 2 0 0 0 0 0 0 0 1 0 0 0 0 1 0
decision_type=1 1 1 1 1 1 1 1 1 1 1 1 1 1 1 1 1 1 1 1 1 1 1 1 1 1 1 1 1 1
left_child=1 3 4 27 5 10 9 -4 11 12 17 22 18 -9 16 25 26 20 19 -3 -2 -7 -5 -18 -11 -16 -6 -1 -29 -30
right_child=2 6 7 8 14 21 -8 13 -10 24 -12 -13 -14 -15 15 -17 23 -19 -20 -21 -22 -23 -24 -25 -26 -27 -28 28 29 -31
leaf_parent=27 20 19 7 22 26 21 6 13 8 24 10 11 12 13 25 15 23 17 18 19 20 21 22 23 24 25 26 28 29 29
leaf_value=-0.0508884 0.0043731 0.0391074 -0.0282004 0.0612946 0.0656409 -0.0239021 -0.0288462 0.000759017 -0.0242983 -0.0136268 0.0192318 -0.017454 0.0189442 0.0660774 -0.0112681 0.078899 0.0484956 0.0863481 0.108233 0.0968531 0.0797055 0.0406594 -0.00455787 0.105051 0.0659368 0.0609334 0.0959468 -0.0413534 0.0438514 -0.0463561
leaf_count=9390 644 939 1820 1998 2534 1251 842 868 1771 630 1094 820 588 943 451 1667 336 2412 1179 770 402 480 384 4315 255 300 1270 2279 553 430
internal_value=0 0.0430586 0.655238 -0.203235 0.737999 0.490032 0.546028 0.103544 0.206787 0.650113 0.637402 0.384429 0.760848 0.392098 0.854671 0.631511 0.91071 0.749906 0.849122 0.6659 0.409748 -0.0122462 0.518643 1.01652 0.112959 0.223981 0.766835 -0.434054 -0.250969 0.0956912
internal_count=43615 22828 20787 17625 17156 6283 5203 3631 4973 4361 4552 3202 3476 1811 10873 2418 8455 3458 2888 1709 1046 1731 2382 4651 885 751 3804 12652 3262 983


Tree=56
num_leaves=31
split_feature=85 14 66 14 91 39 13 19 70 13 39 91 47 84 87 29 91 74 66 31 87 87 47 24 66 75 35 33 47 15
split_gain=592.816 334.158 151.574 96.4726 89.0584 81.6143 59.6337 50.5615 38.6723 37.973 37.9504 37.8669 32.9477 31.2921 36.4791 29.989 32.011 26.9305 31.1894 30.7306 26.4422 24.4548 23.9119 23.142 22.6162 22.536 20.2208 19.5038 22.4562 18.5122
threshold=0 0 0 1 0 0 0 0 1 1 0 0 3 0 0 1 0 1 0 0 0 1 1 0 4 0 0 0 0 0
decision_type=1 1 1 1 1 1 1 1 1 1 1 1 1 1 1 1 1 1 1 1 1 1 1 1 1 1 1 1 1 1
left_child=1 5 10 23 7 -1 -7 8 26 -8 13 17 -10 14 -2 -12 -17 22 29 -20 -14 -22 -5 -3 -23 -9 -4 28 -11 -19
right_child=2 3 4 11 -6 6 9 25 12 27 15 -13 20 -15 -16 16 -18 18 19 -21 21 24 -24 -25 -26 -27 -28 -29 -30 -31
leaf_parent=5 14 23 26 22 4 6 9 25 12 28 15 11 20 13 14 16 16 29 19 19 21 24 22 23 24 25 26 27 28 29
